683 134
</s> -0.0016079 0.0048745 -0.000191 0.0024039 -0.015195 -0.0033325 0.0026725 -0.003168 -0.0090522 0.0018216 -0.0061845 0.019509 -0.0062169 0.016038 -0.0096633 -0.0045877 0.016954 0.00054124 0.0035105 0.0019925 -0.012968 0.0024628 -0.013012 -0.010519 0.010079 0.00094159 0.0097168 0.001837 0.00070606 -0.0020878 -0.0019096 -0.012063 0.034183 0.016246 0.030271 -0.02858 -0.021652 0.013555 0.017907 0.0028718 0.0088338 0.020993 0.021922 0.019092 0.012908 0.018173 0.027064 -0.0087927 -0.011217 0.0076426 -0.0063707 -0.0010377 0.0029127 -0.003065 -0.0090918 -0.0084081 -0.0020719 -0.0010333 -0.0014838 -1.3242e-05 -0.0038788 -0.0013369 0.0049242 -0.0031703 0.020264 -0.022355 0.073656 0.093522 0.077528 0.049472 -0.051477 0.0086294 -0.02825 -0.088762 -0.083961 -0.021414 0.032329 0.066181 0.014406 0.031518 0.0046555 -0.0022008 -0.0031443 -0.026494 0.011892 0.0040666 -0.0092537 -0.021176 -0.0017471 -0.00351 0.0047207 0.0061382 0.0016531 -0.013538 -0.00069631 -0.0059647 -0.022668 -0.069585 -0.039625 -0.17059 0.075712 0.01078 -0.022446 0.028336 -0.13088 -0.063715 -0.030313 -0.048095 0.0075075 -0.0059796 -0.020719 -0.0078631 -0.0050509 -0.0023951 -0.0021849 -0.0082917 0.0025573 0.0011041 -0.0027563 0.0018403 -0.014815 0.022164 -0.014513 0.015281 -0.0064641 -0.0059979 0.0068879 0.010554 0.0086428 -0.0096519 -0.00091481 0.032909 -0.044752 -0.0068117 
eßik -0.006945 0.0021306 -0.025772 -0.009601 0.055896 0.013644 0.011637 0.010326 0.041558 0.012314 0.026851 -0.045328 0.04825 -0.039797 0.0077984 0.03433 0.073815 0.0018859 0.031014 0.030551 -0.048217 -0.018803 -0.063906 -0.011993 0.00088861 0.018838 0.039506 0.011741 -0.005902 -0.018132 0.01147 -0.038631 0.040794 0.022208 0.038616 -0.026903 -0.024371 0.019086 0.019962 0.0059566 0.0020419 0.018286 0.019978 0.013936 0.014701 0.02047 0.033312 -0.008236 -0.012349 0.035269 -0.0062028 -0.0051294 0.027259 -0.025553 -0.051371 -0.032309 0.0014064 0.016025 0.0027491 0.029848 0.0093761 0.019932 0.011392 0.03977 0.012924 -0.016581 0.036767 0.047393 0.038657 0.025708 -0.021187 0.0040584 -0.01764 -0.052368 -0.045004 -0.012285 0.017166 0.034127 0.010446 0.016901 0.021039 -0.015514 -0.0085042 -0.056637 0.027677 0.019485 -0.01537 -0.054725 0.0085152 -0.009264 -0.024721 0.032179 0.0027804 -0.04074 0.010726 0.0023979 -0.021843 -0.052619 -0.024629 -0.12125 0.049925 0.0084011 -0.017478 0.023282 -0.077117 -0.036554 -0.013642 -0.024515 0.005431 -0.00073643 -0.011102 -0.0077234 0.052088 0.028712 0.0095986 0.028263 -0.0067753 0.034896 -0.028931 -0.065452 0.030493 -0.036496 0.051887 -0.017427 -0.0032535 -0.00020851 -0.030102 -0.022321 -0.0065903 0.008268 -0.0028831 -0.055188 0.06662 0.01066 
építkezik 0.00069545 -0.00041856 0.00065325 0.0011053 -0.0036589 -0.0027361 -0.0011185 -0.0011634 -0.00027618 -0.0011791 -0.0010112 0.00098126 -0.003511 0.0018449 -0.0017434 -0.0028205 -0.004446 -0.00071139 -0.0024903 -0.0012818 0.0033589 0.00026475 0.0028045 0.001063 -0.0002335 -0.0025277 -0.0044259 -5.109e-05 0.00098871 0.0024422 -0.0020053 0.0036335 -0.0061265 -0.003106 -0.0065856 0.0042708 0.0033107 -0.0025629 -0.0016302 -0.00258 -0.00055697 -0.0020975 -0.0022195 -0.0018766 -0.00072235 -0.0022233 -0.0045781 0.00093659 0.0024344 -0.0052806 0.0011324 -0.00023835 -0.0031151 0.0038013 0.0068237 0.0052109 -0.0017201 -0.00094994 0.0015626 -0.0041986 -0.0014722 -0.0026506 -0.0026992 -0.0038907 -0.0015821 0.0044702 -0.0054603 -0.0087214 -0.0056717 -0.0033071 0.002989 -0.0002239 0.0017357 0.0064686 0.0052837 0.0023762 -0.0011663 -0.0047752 -0.00028028 -0.0015457 -0.0018916 0.0024746 0.000653 0.0083188 -0.0033811 -0.00057141 0.0026938 0.0060237 0.00024084 -0.00062823 0.0012032 -0.0019571 -0.00014963 0.003358 -0.002218 0.00088802 0.00024939 0.0056195 0.0034233 0.01126 -0.0039666 -0.0012928 0.00094107 -0.001187 0.0073313 0.002498 0.0012293 0.0020562 0.00015662 0.00060971 0.00096595 2.1737e-05 -0.0022841 -0.001435 0.001149 -0.0004148 -0.00059897 -0.001429 0.0015952 0.0046304 -0.0046092 0.0034211 -0.0058436 0.0013275 -0.00051587 -0.00058267 0.0033556 0.0023713 0.00034072 -0.00029301 -0.0014707 0.0052095 -0.0043685 -0.00061156 
napozik -0.0025956 0.00056621 -0.0067915 -0.0033367 0.017196 0.0031133 0.0043358 0.0038278 0.012173 0.0023534 0.0079769 -0.015404 0.014561 -0.011059 0.0019963 0.0091495 0.021304 -8.3366e-05 0.0099271 0.0087211 -0.013289 -0.0055437 -0.019918 -0.0039864 0.00071589 0.0050741 0.01113 0.0040331 0.0012716 -0.0044943 0.0026163 -0.009709 0.0099521 0.0064106 0.010042 -0.0063827 -0.0032543 0.0050381 0.0044761 0.00068264 -0.0007046 0.0040581 0.0050445 0.0039601 0.0040383 0.0042064 0.0058916 0.00091083 -0.0026535 0.0091714 0.00011591 -0.0016683 0.0062968 -0.0064217 -0.013311 -0.0074626 -0.0017218 0.0054927 -4.1333e-05 0.0063484 0.0030087 0.0055128 0.0025226 0.011698 0.002942 -0.002919 0.0091356 0.011259 0.0092407 0.0049181 -0.0072907 0.00030277 -0.0030298 -0.013133 -0.013478 -0.001796 0.0038927 0.0084558 0.001901 0.0042007 0.0051194 -0.0035513 -0.0035533 -0.014091 0.0067422 0.0064075 -0.0046707 -0.012947 0.0035045 -0.002653 -0.0077372 0.0092161 0.0015018 -0.010319 0.0033349 0.0025849 -0.0079024 -0.017379 -0.0062129 -0.037475 0.01551 0.0016732 -0.0067533 0.0058903 -0.023026 -0.012518 -0.0032271 -0.0062401 0.0019992 -0.00095206 -0.0034478 -0.00079652 0.014546 0.0103 0.0024856 0.0081382 -0.0029075 0.0092682 -0.0092422 -0.016686 0.006306 -0.0090177 0.011947 -0.0020097 -0.0007134 -6.2783e-05 -0.0073306 -0.0042043 -0.0023788 0.00339 0.00056073 -0.013497 0.019702 0.0041356 
ásítozik -0.0028211 0.0012822 -0.0066213 -0.0023085 0.014968 0.0032653 0.0023834 0.001731 0.010036 0.0029561 0.0071681 -0.011756 0.011017 -0.0091918 0.0017684 0.0073074 0.019918 0.0014091 0.0082479 0.0081912 -0.012049 -0.0056214 -0.018809 -0.0035633 0.00067086 0.0046722 0.0098055 0.0047066 -0.00016422 -0.0036973 0.003303 -0.0085474 0.010112 0.0054221 0.010884 -0.005637 -0.0063016 0.0042677 0.0043414 -9.1612e-05 0.00036986 0.0039088 0.0058463 0.0031414 0.0047707 0.0039882 0.0077525 0.00014237 -0.0028473 0.0076131 -0.0013398 -0.0021215 0.006614 -0.0066913 -0.01238 -0.0076606 -0.00044896 0.0051292 0.0021128 0.007051 0.0023938 0.0056915 0.0022282 0.010616 0.0027959 -0.0019315 0.008518 0.0099853 0.0089756 0.0053943 -0.0040962 0.0031041 -0.0041041 -0.012578 -0.011188 -0.003598 0.0041245 0.0087924 0.0026035 0.0051862 0.0047323 -0.0025983 -0.0027704 -0.010996 0.0054427 0.004418 -0.0040509 -0.012599 0.0027808 -0.0047034 -0.0067423 0.0082145 0.0015231 -0.010347 0.0023292 0.0010695 -0.0059094 -0.01486 -0.0062236 -0.034541 0.015891 0.0020879 -0.0061064 0.0064595 -0.018767 -0.0084757 -0.0030485 -0.0064652 0.0021064 -0.00036526 -0.002419 -0.00069834 0.013394 0.0072587 0.0030025 0.0071944 -0.0012885 0.0080236 -0.0079941 -0.015257 0.0055586 -0.0081293 0.011044 -0.003961 -0.0014272 0.00066807 -0.0074922 -0.0039872 -0.0032413 0.002786 -0.000843 -0.013785 0.017791 0.0050508 
amerikanizálódik -0.0025855 0.00067108 -0.0076236 -0.0030528 0.017576 0.0055405 0.0032959 0.0039616 0.013354 0.0040764 0.0085868 -0.014996 0.014918 -0.012041 0.001551 0.010192 0.022585 0.001316 0.010407 0.0093327 -0.014892 -0.0063529 -0.020999 -0.0037039 -0.0010708 0.0059326 0.013557 0.0046138 -0.0013955 -0.0064349 0.0031225 -0.012616 0.014144 0.0074332 0.014466 -0.0083576 -0.008825 0.0064954 0.0083774 0.0024029 0.00057327 0.0059086 0.0068664 0.0051625 0.0042463 0.0049736 0.0099528 -0.00097914 -0.0053668 0.01041 -0.0012304 -0.0022988 0.010424 -0.0079597 -0.017586 -0.010055 0.0011893 0.0058384 0.00067968 0.009169 0.003185 0.006085 0.0037247 0.012414 0.003349 -0.0025452 0.01175 0.01417 0.011121 0.0077972 -0.0060005 0.0010293 -0.0031973 -0.013202 -0.013601 -0.0041401 0.0045216 0.011018 0.0024778 0.0056774 0.0065437 -0.0031738 -0.0032455 -0.016181 0.0070522 0.0061925 -0.0049451 -0.016311 0.0035375 -0.0024194 -0.0061396 0.0089507 0.0017648 -0.012051 0.0020684 0.001623 -0.0069219 -0.014573 -0.0062766 -0.03318 0.014574 0.0020211 -0.0058012 0.0057167 -0.022595 -0.01011 -0.0041354 -0.0069701 0.0014925 -8.7342e-05 -0.0047692 -0.00093626 0.01561 0.0098461 0.0035995 0.0092399 -0.0018031 0.0094577 -0.008289 -0.016835 0.0078257 -0.010909 0.013921 -0.0057267 -0.0015126 -0.0010606 -0.009776 -0.0077296 -0.0018696 0.0032014 0.001111 -0.018058 0.022985 0.0046336 
vagdalkozik 0.0062128 -0.0036199 0.021144 0.0075522 -0.046354 -0.014282 -0.0085691 -0.0080908 -0.035052 -0.0096463 -0.020352 0.036973 -0.036728 0.030413 -0.0050091 -0.025462 -0.061757 -0.0030678 -0.026085 -0.026181 0.041355 0.018344 0.054062 0.010716 0.00092694 -0.019295 -0.037619 -0.013128 0.0048898 0.013486 -0.0066483 0.03593 -0.045734 -0.025597 -0.044837 0.030147 0.026231 -0.021491 -0.023474 -0.0080553 -0.00052325 -0.019251 -0.023523 -0.015705 -0.015219 -0.018019 -0.03189 0.0070646 0.014121 -0.035855 0.0066223 0.0067809 -0.028372 0.026128 0.054251 0.03311 -0.00293 -0.016512 -0.0032309 -0.027055 -0.0086053 -0.020141 -0.010114 -0.040965 -0.010521 0.012343 -0.036983 -0.046798 -0.036185 -0.024081 0.021781 -0.0037393 0.013335 0.044457 0.041647 0.011396 -0.014495 -0.030406 -0.0081298 -0.016141 -0.019635 0.010402 0.0054411 0.049014 -0.02376 -0.01825 0.014458 0.04721 -0.0088865 0.0069501 0.020828 -0.026287 -0.0047635 0.03613 -0.0079043 -0.0046173 0.019144 0.046508 0.021621 0.1034 -0.04351 -0.0068764 0.016061 -0.02021 0.062228 0.031121 0.011098 0.020196 -0.005286 0.0017912 0.0093403 0.0011746 -0.038473 -0.024122 -0.0098998 -0.021692 0.0047757 -0.028699 0.020825 0.048646 -0.026537 0.033494 -0.04688 0.015963 0.0051049 0.00016734 0.025983 0.020376 0.0076444 -0.0081043 0.002445 0.05408 -0.063606 -0.010851 
kajakozik 0.0066444 -0.0014647 0.017978 0.0068099 -0.038653 -0.012496 -0.0056748 -0.0078821 -0.030317 -0.0099394 -0.018229 0.031968 -0.03219 0.027117 -0.0047941 -0.021244 -0.05289 -0.0022568 -0.02222 -0.020948 0.036358 0.016364 0.046344 0.0092247 0.0016 -0.016467 -0.032694 -0.012351 0.0035992 0.011986 -0.0062651 0.030461 -0.04023 -0.021832 -0.038778 0.026842 0.023535 -0.020093 -0.020199 -0.0077368 -0.0002231 -0.017352 -0.019367 -0.014206 -0.012709 -0.016998 -0.02951 0.0061162 0.013781 -0.029244 0.0063119 0.0054059 -0.024109 0.023286 0.047261 0.029854 -0.0030733 -0.015292 -0.0029991 -0.023218 -0.0080673 -0.016374 -0.007457 -0.035461 -0.010199 0.011599 -0.030878 -0.040274 -0.031071 -0.022376 0.01931 -0.0025703 0.012299 0.037725 0.036076 0.0103 -0.012138 -0.025857 -0.0072456 -0.014999 -0.017638 0.0092448 0.0059824 0.043503 -0.020519 -0.015684 0.013584 0.040594 -0.0087061 0.006067 0.01767 -0.021503 -0.0029555 0.030198 -0.007819 -0.0040532 0.016381 0.038938 0.018666 0.088677 -0.036414 -0.0067808 0.013482 -0.016912 0.054323 0.024613 0.01013 0.018362 -0.0039031 -6.7168e-06 0.0082717 0.0011761 -0.033589 -0.020222 -0.0062702 -0.018984 0.0045685 -0.024936 0.018455 0.042215 -0.021783 0.029057 -0.040889 0.012389 0.0026706 0.0013253 0.023428 0.018934 0.0056899 -0.0070097 0.0025638 0.048458 -0.055057 -0.0081136 
ßocializálódik -0.00093824 0.00096425 -0.0083719 -0.0027286 0.016012 0.0038126 0.0018039 0.0025065 0.011921 0.004667 0.0060863 -0.013126 0.012942 -0.011344 0.0015565 0.0098039 0.019347 0.00088472 0.0085749 0.008354 -0.013255 -0.0054446 -0.018523 -0.0026274 -0.00035827 0.0056971 0.011267 0.004485 -0.0016217 -0.0046695 0.0026926 -0.010851 0.011011 0.0063846 0.010992 -0.0075808 -0.008265 0.0061674 0.0058976 0.0025401 0.00036962 0.0053436 0.0053478 0.0044106 0.0039362 0.0041886 0.0086725 -0.0020176 -0.0041586 0.008355 -0.001177 -0.0011504 0.0080133 -0.0070417 -0.014933 -0.0084459 0.0010171 0.0055008 0.00047929 0.0078262 0.0036956 0.0050886 0.0021151 0.010042 0.0028775 -0.0026436 0.0085485 0.012497 0.0086347 0.0066325 -0.0040549 0.00040369 -0.0039486 -0.012377 -0.011273 -0.0035776 0.0039621 0.0090228 0.0016179 0.004269 0.0058359 -0.002304 -0.0030642 -0.013393 0.0061179 0.004749 -0.004295 -0.013321 0.0020667 -0.0024313 -0.0049824 0.007016 0.00099048 -0.0092531 0.001836 0.0013057 -0.0055757 -0.010918 -0.0059922 -0.025541 0.012307 0.0017131 -0.0040247 0.0048714 -0.019344 -0.0080835 -0.0032689 -0.0064055 0.0015131 0.00059187 -0.0035373 0.00019773 0.013053 0.0085333 0.0029493 0.0079783 -0.00096294 0.0084324 -0.0066144 -0.014841 0.0065384 -0.0088242 0.011197 -0.0035555 -0.0013857 2.8735e-05 -0.0080394 -0.0060592 -0.0018206 0.0016058 -0.00013118 -0.015191 0.020893 0.0021979 
halódik -0.00026659 -0.0010848 -0.002106 -0.0012347 0.0055862 0.0014373 -2.3409e-05 0.0024291 0.005651 0.0018353 0.0015198 -0.0051279 0.0038262 -0.0049408 0.0024733 0.0050127 0.0045476 -0.00018008 0.0023708 0.0020242 -0.0039384 0.00059695 -0.0048746 -0.00080346 -0.0009727 -0.00092364 0.0012951 -0.00015711 -0.0023247 -0.00096104 0.00026069 -0.0016803 -0.0032402 -0.0024667 -0.0036403 0.0022071 0.0016697 0.00027191 0.0011985 -0.0012621 0.00085164 -0.0014436 -0.0008032 -0.00048162 -0.0010344 -0.0001536 -0.0013914 -0.0011158 0.0004777 -0.0005015 0.00075833 -0.00087084 0.00043791 -0.00010778 -0.0010564 -0.0002439 0.001551 -0.0009504 -0.00052195 0.0018777 0.0007449 -0.00066821 -0.00038855 -0.00090393 -0.0010148 0.0023062 -0.00089179 -0.0018673 -0.0018655 -0.0014398 0.0027744 -0.0014594 0.0018174 0.0025567 0.00072061 -0.00086393 -0.0013635 -0.00033063 -0.00082377 -0.0016266 0.00042874 0.0012969 -0.00060504 -0.0010893 -0.00093854 -0.0022399 0.0012132 0.0015089 0.00036251 -1.0124e-05 0.0013885 -0.0012427 -0.00089347 0.001919 -0.00046836 -0.00061083 0.0012188 0.0044075 0.0011532 0.010405 -0.0025262 -0.00024239 0.0012754 4.2259e-05 -0.0014391 -0.0014471 0.0013601 -0.00088629 3.8634e-05 0.00050349 0.00017272 0.00021536 0.0037754 0.0010318 0.0014918 0.0019673 0.00018744 -0.00057319 -0.001298 -0.0004931 -0.0007006 0.0025672 -0.0037202 0.0008314 6.142e-05 -0.0016641 -0.0013183 -0.0020295 -4.1873e-05 -0.00012672 0.0011254 0.00011542 0.0031663 -0.0015242 
borotválkozik 0.0058034 -0.002098 0.016031 0.0055555 -0.034101 -0.0098364 -0.005772 -0.006048 -0.02506 -0.0084238 -0.015011 0.027237 -0.028979 0.022372 -0.0043306 -0.019492 -0.04615 -0.0028638 -0.019522 -0.018537 0.031069 0.013963 0.040644 0.0077258 0.00081065 -0.014085 -0.029535 -0.010335 0.0036484 0.010514 -0.0054983 0.027418 -0.033893 -0.019189 -0.034024 0.022631 0.019965 -0.017379 -0.017944 -0.0057409 5.687e-05 -0.015011 -0.016957 -0.013261 -0.011534 -0.012954 -0.02542 0.0040377 0.010742 -0.026827 0.0057469 0.0050859 -0.020259 0.019977 0.040479 0.024673 -0.0031834 -0.012924 -0.003113 -0.020624 -0.0060063 -0.015022 -0.007754 -0.030786 -0.007503 0.0086168 -0.027213 -0.034913 -0.027871 -0.018814 0.016511 -0.0029695 0.01108 0.033446 0.030669 0.0072881 -0.01114 -0.021026 -0.0065992 -0.011047 -0.014413 0.0083022 0.00586 0.0361 -0.017031 -0.013487 0.012101 0.035555 -0.0055365 0.0060571 0.015362 -0.020439 -0.0032108 0.026204 -0.0052173 -0.0037262 0.013782 0.034604 0.015991 0.078451 -0.034023 -0.0046692 0.011826 -0.015349 0.048034 0.023179 0.0092536 0.014863 -0.0024664 0.0013773 0.0076411 0.0012236 -0.029799 -0.017738 -0.0070958 -0.015956 0.0037826 -0.02296 0.015272 0.037367 -0.01896 0.024022 -0.035397 0.01203 0.0031359 -0.00075578 0.019724 0.015539 0.0064685 -0.0057016 0.0018557 0.041197 -0.048149 -0.0086728 
árulkodik -0.0014744 -0.00023482 -0.0041033 -0.0010605 0.011309 0.0040179 0.0017917 0.0028315 0.0074194 0.0019788 0.0044552 -0.0084667 0.008954 -0.0086795 0.0014908 0.0041572 0.011914 0.00046702 0.0051992 0.0047169 -0.0080691 -0.00405 -0.010315 -0.0030106 -0.00053122 0.0034479 0.0071277 0.0039305 -0.001263 -0.0033293 0.0022819 -0.0049448 0.0048542 0.00072508 0.0047327 -0.0020646 -0.0027532 0.0018183 0.00096677 0.0014114 4.5844e-05 0.0019694 0.0018528 0.002034 0.0019821 0.0025012 0.0042249 -0.0010489 -0.0010671 0.0034209 -0.0016286 2.6369e-05 0.003276 -0.0036348 -0.0086291 -0.004368 0.00084662 0.0021768 0.0011927 0.0042556 0.0007588 0.0018591 -0.001136 0.0050926 0.0012851 -0.00073456 0.0032929 0.0026704 0.0040082 0.0017255 -0.002232 0.00013282 -0.0031112 -0.0047065 -0.0067058 0.00033123 0.00058142 0.0045787 0.0013865 0.0018773 0.0045548 -0.0015663 -0.0017221 -0.0064712 0.0025402 0.0031124 -0.0011766 -0.0066119 0.00018464 -0.00096548 -0.0034707 0.002309 -4.5171e-05 -0.0065474 0.0017606 0.002207 -0.0018924 -0.0040238 -0.0026994 -0.0093146 0.0072914 0.0014602 -0.0017843 0.0018061 -0.0096072 -0.0048655 -0.0024356 -0.0040772 0.00076884 -0.00033555 -0.0022242 -0.00025426 0.0088584 0.0062202 0.0022236 0.0049264 -0.001228 0.0039327 -0.0035697 -0.0069031 0.0018822 -0.0025405 0.0032358 -0.0016649 0.00065273 -0.00027763 -0.0032869 -0.0022766 -0.001735 0.00032824 0.00015165 -0.0080137 0.012689 0.002112 
karçúsodik 0.0027412 -0.0003943 0.0055324 0.0014234 -0.0099865 -0.0026793 -0.0018758 -0.0014534 -0.0085332 -0.0024695 -0.004924 0.0065019 -0.0084349 0.0040998 -0.00033497 -0.005095 -0.015756 -0.0013807 -0.0054346 -0.0066776 0.0097363 0.0048916 0.014476 0.0037482 -8.8851e-05 -0.0046389 -0.00985 -0.0038436 0.0010633 0.0037377 -0.0018311 0.0074524 -0.014245 -0.0074817 -0.013937 0.0090556 0.0073335 -0.0061431 -0.0068513 -0.0029402 0.00017446 -0.0056883 -0.0062973 -0.0056619 -0.0041644 -0.0046003 -0.008264 0.0021257 0.005062 -0.009677 0.0021426 0.0010217 -0.0060218 0.0068413 0.013866 0.0093159 -0.00034541 -0.004634 -0.0010712 -0.0072974 -0.0020139 -0.0050847 -0.0031441 -0.01028 -0.003074 0.0032701 -0.01108 -0.014258 -0.011413 -0.0087536 0.0083192 -0.00086253 0.0040138 0.012808 0.01004 0.0025288 -0.0035959 -0.0073592 -0.0027505 -0.0044571 -0.0057384 0.0028287 0.0013021 0.013383 -0.0061521 -0.004215 0.0060599 0.012764 -0.001607 0.0014051 0.0046141 -0.0063688 -0.0015973 0.0095893 -0.00074659 0.00043127 0.0061757 0.015599 0.0059314 0.035974 -0.012535 -0.0022034 0.0049515 -0.0073193 0.017747 0.0086513 0.0031518 0.0059429 -0.0012627 0.00065151 0.0018751 0.00014795 -0.011243 -0.0070861 -0.002128 -0.0055513 0.00039619 -0.0094472 0.00563 0.015663 -0.0098966 0.010487 -0.016487 0.0049827 4.2828e-05 0.0004183 0.0075768 0.0069388 0.0011603 -0.0025594 0.0011653 0.016817 -0.015985 -0.0029965 
esküßik 0.0031549 -0.0026249 0.0092282 0.0036628 -0.02055 -0.0066616 -0.0032227 -0.0041308 -0.016159 -0.0049812 -0.010408 0.01699 -0.016931 0.011722 -0.0019381 -0.0095257 -0.028554 -0.0021576 -0.012133 -0.013228 0.01855 0.0093296 0.024632 0.004814 0.00010952 -0.010972 -0.018502 -0.0080626 -0.0003622 0.0074026 -0.0031212 0.016576 -0.023449 -0.013806 -0.022572 0.014452 0.014948 -0.01109 -0.010614 -0.0037613 0.0018544 -0.009894 -0.011274 -0.0080956 -0.0075951 -0.0072467 -0.015515 0.0028873 0.0059721 -0.017063 0.004204 0.0024903 -0.013387 0.013103 0.027636 0.016151 -0.0026 -0.0084958 -0.00076443 -0.012748 -0.0046815 -0.0090928 -0.002648 -0.020042 -0.0045545 0.003925 -0.016625 -0.021401 -0.01662 -0.011058 0.010808 0.00087876 0.0068254 0.019945 0.017463 0.0023959 -0.0058277 -0.013769 -0.0025932 -0.0083152 -0.0094027 0.0040174 0.0031053 0.021865 -0.0092535 -0.0095878 0.0058027 0.019629 -0.0046686 0.0027435 0.0073227 -0.013652 -0.0017523 0.016998 -0.0037397 -0.0023242 0.0097281 0.020981 0.010359 0.050159 -0.020971 -0.002777 0.0093391 -0.0090423 0.028641 0.013661 0.0057115 0.0086279 -0.0028834 0.0021826 0.0046444 -0.00013079 -0.017859 -0.010237 -0.0055166 -0.0087543 0.0032163 -0.011601 0.009047 0.020724 -0.010829 0.016556 -0.021407 0.0081506 0.0012169 -0.00024035 0.009753 0.0097016 0.0030913 -0.0061906 0.0014983 0.028065 -0.030963 -0.0056963 
rugaßkodik 0.0025725 -0.0022634 0.0058968 0.0017938 -0.011739 -0.0027901 -0.0024425 -0.0037042 -0.011426 -0.0027075 -0.0068885 0.0096494 -0.0099341 0.00918 0.00032912 -0.0069492 -0.018472 -0.0014093 -0.0074743 -0.0080378 0.013115 0.0049461 0.017288 0.0023309 -0.00030329 -0.0053908 -0.012341 -0.0036757 0.00068023 0.0041764 -0.0026035 0.011952 -0.015803 -0.010213 -0.017962 0.011146 0.01056 -0.0075255 -0.0084554 -0.0035268 -0.0016441 -0.0079449 -0.0080366 -0.00514 -0.0056339 -0.0073592 -0.010088 0.0017706 0.0035315 -0.011386 0.0020176 0.0016795 -0.0085856 0.0084924 0.017544 0.010878 -0.00084131 -0.0053454 -0.0010012 -0.0095703 -0.0028184 -0.0055436 -0.0039899 -0.014198 -0.005249 0.0051331 -0.013533 -0.017307 -0.013175 -0.0086363 0.0085963 -0.0023939 0.0040122 0.015684 0.01317 0.0042761 -0.0049484 -0.0094848 -0.0022594 -0.004586 -0.005869 0.0034032 0.0024282 0.017397 -0.0087581 -0.0062923 0.0050741 0.017043 -0.0021343 0.002672 0.0068428 -0.0089603 -0.0019381 0.012625 -0.0035929 -0.00035133 0.0081554 0.018813 0.0087196 0.042215 -0.015762 -0.0027118 0.0060699 -0.0085502 0.022471 0.010147 0.0039339 0.0068146 -0.0014823 0.00173 0.0029707 0.0013399 -0.013794 -0.0082241 -0.0022244 -0.0079635 0.0019209 -0.011039 0.0072683 0.018328 -0.0093584 0.013541 -0.019953 0.0062746 0.0014189 -0.0005109 0.0095755 0.0086906 0.00047035 -0.0031607 0.0014832 0.018948 -0.019269 -0.0037415 
titokzatoskodik 0.0013833 -0.0016722 0.005936 0.0024202 -0.011999 -0.0031292 -0.0022931 -0.0010232 -0.0097968 -0.0027331 -0.0065626 0.0092025 -0.009353 0.0079147 -0.001806 -0.007363 -0.016296 -0.00020585 -0.0068567 -0.0073149 0.011266 0.0044478 0.014451 0.003215 -8.1833e-05 -0.0047718 -0.0095083 -0.0036009 0.0008199 0.0041724 -0.0018049 0.010231 -0.014052 -0.0081269 -0.013695 0.0088566 0.0069616 -0.0064075 -0.0059014 -0.0025316 -0.00029801 -0.0059759 -0.0064453 -0.005221 -0.0041216 -0.0051459 -0.0092549 0.0014826 0.0038433 -0.0098135 0.002495 0.00094994 -0.0069439 0.0071613 0.0136 0.008006 -0.0010225 -0.004642 0.00064909 -0.0078692 -0.0026815 -0.0048867 -0.0023208 -0.011258 -0.0047006 0.0043037 -0.01218 -0.014866 -0.010782 -0.008614 0.0070515 -0.00091565 0.0041998 0.013124 0.013309 0.0034366 -0.0044346 -0.0084746 -0.0017317 -0.0040528 -0.0056967 0.0026836 0.0017638 0.015084 -0.0080196 -0.0052639 0.0043013 0.014406 -0.0024518 0.0016726 0.0045974 -0.0082795 -0.0014732 0.010008 -0.00287 -0.00096684 0.0057525 0.015832 0.0077978 0.03549 -0.012915 -0.0021364 0.0043627 -0.0068795 0.019038 0.0089846 0.0025663 0.0054394 -0.0012448 6.5112e-05 0.0033036 0.00098505 -0.011492 -0.0054402 -0.0025309 -0.0066147 0.0022323 -0.0099514 0.0058889 0.015839 -0.0081584 0.010089 -0.016315 0.0049569 0.00063387 -1.9944e-05 0.0070178 0.0072789 0.0013393 -0.002255 1.7343e-05 0.014995 -0.016262 -0.0029643 
érzéke¥kedik 0.0017951 -0.0013114 0.0062956 0.0014522 -0.01168 -0.002796 -0.0019296 -0.0015341 -0.0099542 -0.0027421 -0.0059337 0.0094142 -0.012047 0.0078784 -0.00038241 -0.0071005 -0.019456 -0.00028958 -0.0071549 -0.0070829 0.012179 0.0058743 0.015959 0.0023168 -0.00052537 -0.0060744 -0.011235 -0.0052958 0.0015687 0.0046462 -0.00076819 0.011307 -0.012464 -0.007134 -0.013244 0.010178 0.0077223 -0.0048543 -0.0062333 -0.0021872 -0.00021249 -0.0059517 -0.0071881 -0.0045615 -0.0040284 -0.0052453 -0.0092914 0.002043 0.0030075 -0.0091456 0.0028587 0.0004993 -0.0062496 0.0073636 0.013177 0.0087189 -4.3846e-05 -0.0049568 -0.0009273 -0.0069591 -0.002385 -0.0048438 -0.0034622 -0.012266 -0.0025631 0.0034458 -0.010406 -0.013455 -0.01118 -0.0065808 0.0071087 0.00025871 0.0043341 0.014445 0.010843 0.0030364 -0.003654 -0.0072373 -0.0027729 -0.003196 -0.0055774 0.0018187 0.0019724 0.014696 -0.0087409 -0.0055806 0.0039445 0.014083 -0.001609 0.0019308 0.0044035 -0.008566 -0.0019775 0.010989 -0.0025133 -0.00029296 0.0071835 0.01594 0.0076402 0.036942 -0.014303 -0.0018192 0.0052134 -0.0062072 0.018434 0.0088041 0.0034767 0.0053159 -0.0017745 0.0014711 0.0029135 0.0015656 -0.011594 -0.0072167 -0.0029598 -0.0061449 0.00070087 -0.0095068 0.0065248 0.015543 -0.008996 0.011248 -0.015902 0.0049105 0.0010203 -0.00063453 0.0076016 0.007003 0.0015879 -0.0022074 0.0010892 0.015844 -0.016805 -0.0031692 
lázadozik 0.0050076 -0.0037729 0.0096508 0.0041953 -0.022953 -0.0054585 -0.0044554 -0.0040159 -0.016181 -0.0043903 -0.010065 0.017405 -0.018876 0.014811 -0.003017 -0.011612 -0.028869 -0.0018577 -0.011739 -0.012166 0.019593 0.0080185 0.025857 0.0046783 0.0013929 -0.0095416 -0.020332 -0.0071879 0.003508 0.0076855 -0.0033714 0.017714 -0.024265 -0.014148 -0.022597 0.016236 0.015606 -0.010011 -0.01123 -0.0053859 -0.00042492 -0.009142 -0.011034 -0.0078156 -0.0081062 -0.0097357 -0.017487 0.0027719 0.0073976 -0.017024 0.0052075 0.0021922 -0.013331 0.013098 0.028827 0.01782 -0.002072 -0.0083064 -0.00028806 -0.014224 -0.0046993 -0.0097627 -0.0054231 -0.021525 -0.0061001 0.0059601 -0.019018 -0.022907 -0.019901 -0.013099 0.01203 -0.0014354 0.0062455 0.021297 0.019963 0.0049987 -0.0062641 -0.014561 -0.0042565 -0.0082654 -0.0088733 0.0050277 0.0038681 0.02573 -0.012581 -0.0084637 0.0085963 0.023777 -0.0034846 0.0047672 0.010171 -0.01323 -0.0022305 0.016895 -0.0030084 -0.0020429 0.0084397 0.021386 0.010583 0.048575 -0.021244 -0.0046589 0.0073765 -0.0091897 0.031085 0.014886 0.0062975 0.010136 -0.003196 0.00073578 0.0065241 0.0017176 -0.020031 -0.012099 -0.004147 -0.011155 0.0041391 -0.015441 0.0095046 0.023115 -0.012321 0.017181 -0.025113 0.0072374 0.0012895 0.0006257 0.014692 0.011632 0.0040148 -0.0036008 0.0028254 0.028644 -0.031088 -0.0048524 
betegeskedik 0.00080863 -7.3897e-05 0.002514 -0.00012034 -0.0031944 -0.00031151 -0.0010042 -0.00021574 -0.0034789 -0.0002126 -0.0015181 0.0011848 -0.0029391 0.0007682 0.0010164 -0.0021665 -0.0059282 0.00043864 -0.0020342 -0.0020692 0.0043446 0.00082911 0.0056279 0.00055228 -0.00048486 -0.0021862 -0.0041942 -0.0014567 0.00062974 0.0010445 -0.00020658 0.0034511 -0.0042518 -0.0028705 -0.0056016 0.0034162 0.0021358 -0.0015674 -0.0022287 -0.0012252 0.00053684 -0.0010388 -0.0028858 -0.0011209 -0.00065242 -0.00088762 -0.0026339 0.0012215 0.00069397 -0.0035214 0.0014106 -0.00021103 -0.0010327 0.0019587 0.0033778 0.0026869 0.0020796 -0.00020568 0.00034488 -0.0014074 -0.00087401 -0.0019096 -0.00011413 -0.0027045 -0.0019396 0.0018442 -0.0055292 -0.0062814 -0.0054314 -0.0031931 0.0029204 -0.0002191 0.0016278 0.0060312 0.0027998 0.0022583 -0.0022836 -0.002318 -0.000908 -0.0016121 -0.0016669 0.00047881 0.00042776 0.0050859 -0.0025872 -0.0023955 0.0010137 0.0062211 -0.00029921 -5.9246e-05 0.00095971 -0.0021041 -0.0010059 0.0040156 -0.00044042 0.00024524 0.0036602 0.0077558 0.0041271 0.016446 -0.0053461 -0.0021595 0.0015095 -0.0023013 0.0055143 0.0018617 0.00079142 0.0011253 -0.00061047 0.00083977 0.0016522 0.0012976 -0.0020898 -0.0019725 -0.00019784 -0.0010779 -0.00014448 -0.0028229 0.0022587 0.0049892 -0.0037952 0.0025447 -0.0067544 0.0016386 -0.00016116 -0.00069373 0.0019002 0.0019209 -0.0002917 -0.00017179 0.00041014 0.003963 -0.0038534 0.00049949 
ßerençétlenkedik -0.0027651 0.0012225 -0.011386 -0.0043624 0.025153 0.0065593 0.003596 0.0044332 0.018921 0.0055147 0.012265 -0.020268 0.021432 -0.018653 0.0035456 0.013557 0.032753 0.001424 0.013318 0.01424 -0.022676 -0.0095551 -0.030398 -0.0063371 -0.00059135 0.0093759 0.019145 0.0072085 -0.0014819 -0.0081731 0.004421 -0.018354 0.022348 0.012166 0.021299 -0.013755 -0.013344 0.010873 0.011877 0.0033297 -0.00025698 0.0094666 0.011329 0.0085145 0.0078761 0.010123 0.015949 -0.0035055 -0.007351 0.017468 -0.0037731 -0.0036446 0.014376 -0.0156 -0.028788 -0.017685 0.0019156 0.0096116 0.0014999 0.015234 0.0049151 0.0095926 0.0052454 0.022224 0.0058062 -0.0057984 0.018012 0.023365 0.018549 0.012247 -0.010849 0.0026289 -0.0072843 -0.023628 -0.021867 -0.0049141 0.0074053 0.015567 0.0046234 0.008722 0.0099803 -0.0053832 -0.0033832 -0.025512 0.012262 0.0091117 -0.0082048 -0.023635 0.0044545 -0.003791 -0.010626 0.015293 0.0010051 -0.018808 0.0053288 0.0014507 -0.010667 -0.023907 -0.0098123 -0.052711 0.022861 0.0031399 -0.008558 0.010831 -0.035534 -0.016886 -0.0056849 -0.010642 0.0036586 -0.00078895 -0.0057297 -0.0006679 0.022565 0.013353 0.0054288 0.013731 -0.0034892 0.016244 -0.012135 -0.025926 0.0122 -0.017089 0.023138 -0.0084748 -0.002009 -0.00027367 -0.013481 -0.011314 -0.0047245 0.0043159 -0.0017101 -0.028518 0.035802 0.0062975 
ßíneződik 0.0026594 -0.001596 0.0077541 0.0024954 -0.018568 -0.0042241 -0.0040672 -0.0019681 -0.012833 -0.0042789 -0.0094001 0.014228 -0.014092 0.0098453 0.00010884 -0.008801 -0.025227 -0.00075665 -0.010713 -0.0089151 0.014848 0.0065416 0.020055 0.0039843 0.00018011 -0.0064761 -0.01434 -0.0048366 0.0020558 0.0063818 -0.001482 0.013517 -0.018622 -0.010866 -0.017856 0.011526 0.010853 -0.0078298 -0.0092256 -0.0023476 -0.0010312 -0.0082983 -0.0090105 -0.0064175 -0.004581 -0.0072214 -0.012539 0.0028608 0.0056503 -0.013894 0.0032183 0.001719 -0.010603 0.008969 0.019376 0.011418 -0.0013445 -0.0064692 0.0001247 -0.0096303 -0.0038072 -0.0062783 -0.0046495 -0.015707 -0.005848 0.0066307 -0.014543 -0.019749 -0.016499 -0.011246 0.0099831 -0.0023589 0.0046565 0.018405 0.016948 0.0039322 -0.0056514 -0.011805 -0.0035601 -0.0053037 -0.0059975 0.0029757 0.0033746 0.020929 -0.010683 -0.0078821 0.0059624 0.018793 -0.0042454 0.0027971 0.0075442 -0.010641 -0.0021322 0.013282 -0.0035083 0.00010674 0.0087132 0.021387 0.010349 0.049839 -0.01713 -0.0029321 0.0059131 -0.0073952 0.024397 0.012061 0.0042817 0.0067852 -0.0014478 0.00061565 0.003537 0.00017949 -0.014041 -0.0077069 -0.0016664 -0.0079131 0.0006854 -0.012511 0.0094547 0.018848 -0.011525 0.014391 -0.019955 0.0083734 0.0015876 0.00081087 0.0097185 0.0070729 0.0029778 -0.0019539 0.0011511 0.019301 -0.021108 -0.0045866 
fűződik -0.0023544 -0.00024324 -0.0076137 -0.0034047 0.017792 0.005371 0.0032959 0.0016914 0.013148 0.0032899 0.008734 -0.014952 0.015427 -0.013068 0.0027178 0.0094581 0.020663 0.00078926 0.0080274 0.0085114 -0.016411 -0.008102 -0.021161 -0.0038987 0.0013323 0.0053048 0.013005 0.0063171 -0.0017771 -0.005182 0.0048022 -0.011431 0.010558 0.0066138 0.011338 -0.0066832 -0.0073564 0.0057921 0.0075972 0.0006809 -0.00019868 0.0045416 0.006182 0.0049944 0.0049375 0.0049572 0.01048 -0.0019832 -0.0032916 0.010677 -0.0016791 -0.0022303 0.0098436 -0.0076232 -0.018188 -0.010528 -0.00060296 0.0061882 0.0015617 0.009815 0.0025835 0.0070238 0.0032391 0.01532 0.0035302 -0.0036394 0.0090689 0.010892 0.0078439 0.0051918 -0.0041124 0.00019985 -0.0038857 -0.013146 -0.012654 -0.0014137 0.0047592 0.0078013 0.0025517 0.0059357 0.0063408 -0.0040537 -0.00395 -0.01622 0.007719 0.0048278 -0.003542 -0.014213 0.0016344 -0.0047068 -0.0079586 0.0099107 0.0013829 -0.012357 0.0026409 0.0014724 -0.0054857 -0.013269 -0.0056268 -0.027797 0.015232 0.0033495 -0.0068294 0.006751 -0.025724 -0.013176 -0.0052798 -0.008339 0.0022378 -0.00071732 -0.0044741 -0.00049547 0.018534 0.010549 0.004788 0.010733 -0.0029543 0.012051 -0.0079064 -0.015953 0.0063314 -0.009835 0.013098 -0.0036361 0.00018331 0.00071417 -0.0079348 -0.0073745 -0.0041586 0.0041573 -0.00055698 -0.019593 0.027738 0.0046108 
elké¥elmesedik -0.0035311 0.0014765 -0.010882 -0.0043649 0.024602 0.0065251 0.004054 0.0050727 0.018083 0.0057483 0.011417 -0.021787 0.021015 -0.017284 0.0030406 0.013435 0.0324 0.0022769 0.013069 0.013088 -0.020857 -0.0094557 -0.029597 -0.0051565 -0.00063846 0.010335 0.01848 0.0067548 -0.0020268 -0.0070862 0.0045646 -0.017708 0.020387 0.011994 0.020402 -0.012527 -0.011956 0.011092 0.01083 0.0042954 0.00024294 0.0091148 0.011216 0.0065089 0.0078906 0.0083432 0.015187 -0.0031788 -0.0063447 0.017358 -0.0037588 -0.0029623 0.012807 -0.013142 -0.027943 -0.016128 0.0012078 0.008669 0.0024274 0.013347 0.0038607 0.0086575 0.0045895 0.020649 0.005861 -0.0048384 0.016492 0.020041 0.017384 0.010827 -0.0104 0.0013773 -0.0066476 -0.02217 -0.020733 -0.0046162 0.0061345 0.014601 0.0035513 0.007475 0.010404 -0.0052228 -0.0044689 -0.024066 0.010213 0.0095642 -0.0078066 -0.023797 0.0052809 -0.0045276 -0.011947 0.014646 0.00033663 -0.017335 0.0034811 0.0022236 -0.0094515 -0.022454 -0.01006 -0.048415 0.022464 0.0028308 -0.0078369 0.0095806 -0.033035 -0.016723 -0.0065904 -0.010593 0.0027718 -0.0014985 -0.0054897 -0.0018886 0.022295 0.013407 0.0046923 0.013088 -0.0030595 0.015108 -0.010139 -0.02483 0.011214 -0.016487 0.020451 -0.0074931 -0.0013762 0.0012711 -0.013462 -0.010485 -0.0031759 0.0039748 -0.0017045 -0.026469 0.03457 0.0061567 
ßándékßik 0.0046288 4.9491e-05 0.012058 0.0036719 -0.023674 -0.007165 -0.0050193 -0.0041343 -0.017826 -0.0049322 -0.010981 0.019338 -0.020562 0.016347 -0.0035099 -0.013672 -0.031218 -0.0025354 -0.013791 -0.013085 0.021534 0.010785 0.028437 0.0050569 0.0012883 -0.0094852 -0.020369 -0.0094676 0.00084428 0.0087964 -0.0045119 0.018708 -0.025271 -0.013197 -0.024117 0.014645 0.014318 -0.013231 -0.01327 -0.0036237 -0.00098074 -0.011251 -0.012757 -0.0085955 -0.0092964 -0.0099967 -0.017704 0.005155 0.0064659 -0.017654 0.004215 0.0027825 -0.013855 0.014336 0.028627 0.01851 -0.0016999 -0.0088272 -0.0025784 -0.013465 -0.0037755 -0.0093146 -0.0037588 -0.022059 -0.0062109 0.0063788 -0.019866 -0.023514 -0.018736 -0.011459 0.011084 -0.0010064 0.0057473 0.022655 0.020936 0.0029457 -0.0069102 -0.014085 -0.0039336 -0.0066761 -0.011168 0.0035646 0.0033461 0.025445 -0.013329 -0.009387 0.0074273 0.023738 -0.0044243 0.0043359 0.011609 -0.014181 -0.0030242 0.017016 -0.0050253 -0.0020951 0.01071 0.024814 0.011947 0.056584 -0.0234 -0.0041752 0.0085861 -0.010891 0.033174 0.015998 0.0066527 0.0097784 -0.002632 0.0013115 0.0053309 0.00077593 -0.021282 -0.012691 -0.0046615 -0.011381 0.0016111 -0.016043 0.009973 0.023578 -0.015133 0.017128 -0.024306 0.0094215 0.0012742 -0.0010917 0.01288 0.011216 0.0056973 -0.0046165 0.00082714 0.030196 -0.033832 -0.0054502 
çigázik -0.0043537 0.0024541 -0.010491 -0.0038012 0.023869 0.0063892 0.0054782 0.0037534 0.016418 0.0039796 0.012855 -0.021552 0.02117 -0.014813 0.0016852 0.011944 0.030997 9.1198e-06 0.013437 0.012405 -0.019579 -0.010191 -0.029369 -0.0057011 0.0011305 0.0096336 0.017255 0.0060318 -0.0013677 -0.0083757 0.0020716 -0.015991 0.01785 0.0088327 0.015389 -0.0093331 -0.010662 0.0063729 0.0084194 0.00051544 0.00039053 0.0081802 0.0095533 0.0069302 0.0060151 0.0065928 0.013265 0.00051063 -0.0045094 0.01324 -0.0018851 -0.0021351 0.010857 -0.010686 -0.018921 -0.013353 -0.00011324 0.0057531 0.0013579 0.010042 0.003536 0.0079999 0.0045918 0.018699 0.0051404 -0.0042162 0.01401 0.015959 0.013371 0.0089416 -0.0089575 0.0028262 -0.0069974 -0.019705 -0.017464 -0.0024441 0.0051946 0.012167 0.0027872 0.0079016 0.0078923 -0.0053758 -0.0034586 -0.02004 0.010145 0.0095392 -0.0056886 -0.021482 0.0031642 -0.0042704 -0.01137 0.013018 0.0014695 -0.01678 0.0041893 0.003053 -0.012199 -0.023015 -0.009795 -0.051779 0.020607 0.0028486 -0.0095322 0.011123 -0.030991 -0.013996 -0.0048905 -0.0090928 0.0034271 -0.00060324 -0.0076362 -0.0025413 0.02351 0.013392 0.0051493 0.014597 -0.0034877 0.015091 -0.01124 -0.023769 0.012016 -0.01672 0.020148 -0.0061834 -0.00058522 0.0008508 -0.010455 -0.0085015 -0.0046519 0.0059164 -0.0016715 -0.02466 0.032209 0.0062939 
pipiskedik -0.0026958 0.00037194 -0.0094193 -0.0047073 0.021899 0.0050679 0.0038881 0.0040981 0.01578 0.0044009 0.0099271 -0.016565 0.017472 -0.015709 0.0025561 0.012398 0.025547 0.0012949 0.0099154 0.010639 -0.017042 -0.0079029 -0.022634 -0.0046933 -0.00027471 0.0077271 0.015188 0.0046236 -0.00064668 -0.0064407 0.0035737 -0.014392 0.016177 0.0077917 0.015078 -0.009387 -0.010869 0.010173 0.0089759 0.0022561 -0.0024871 0.0070049 0.0083594 0.0062508 0.005917 0.0069266 0.012483 -0.0012379 -0.0046161 0.013241 -0.0044786 -0.0028429 0.01221 -0.011147 -0.024223 -0.013074 0.0018664 0.0078317 0.00091781 0.011754 0.0041564 0.008004 0.004018 0.017944 0.0040707 -0.0034085 0.012791 0.015989 0.014442 0.009248 -0.0084973 0.0015576 -0.0066962 -0.017242 -0.017417 -0.003549 0.0060454 0.012434 0.0025902 0.005207 0.0087135 -0.0048 -0.004565 -0.018135 0.0092875 0.0073732 -0.0064576 -0.017097 0.0051317 -0.0039846 -0.0088442 0.01115 0.00060978 -0.015328 0.0033457 0.0022293 -0.0058556 -0.017216 -0.0079434 -0.037619 0.018633 0.003453 -0.0065837 0.0089737 -0.02857 -0.015236 -0.0060199 -0.0079879 0.0031921 -0.00097694 -0.0049638 0.00027683 0.01803 0.011045 0.0045418 0.012697 -0.0021868 0.013485 -0.0082195 -0.02096 0.0097514 -0.012763 0.016321 -0.0042666 -0.0014008 -0.00013357 -0.011282 -0.0082784 -0.003606 0.0033258 -0.0013065 -0.023965 0.027308 0.0040663 
kézimunkázik -0.0024244 0.0020476 -0.01226 -0.0045284 0.028082 0.0070621 0.004597 0.0042361 0.020587 0.0063305 0.014168 -0.023092 0.02325 -0.018479 0.0026603 0.014806 0.036098 0.0015345 0.015302 0.014329 -0.023572 -0.0097487 -0.032546 -0.0053889 -0.00048581 0.0099095 0.019398 0.0068603 -0.0011858 -0.0077701 0.0040563 -0.018518 0.02218 0.012621 0.023265 -0.014807 -0.013245 0.010088 0.010901 0.0034994 -0.00025642 0.0087762 0.012943 0.0081535 0.0082828 0.0081862 0.016446 -0.0022271 -0.0058444 0.017449 -0.0038114 -0.0027701 0.013998 -0.013365 -0.026894 -0.016498 0.00073348 0.009464 0.0017424 0.013972 0.004124 0.010164 0.005397 0.02153 0.0066863 -0.0064335 0.018572 0.022403 0.018303 0.012028 -0.011176 0.0012457 -0.006956 -0.024273 -0.022617 -0.0055892 0.0078507 0.014751 0.0053047 0.0092469 0.01085 -0.0051536 -0.0036014 -0.026488 0.01151 0.010606 -0.0083697 -0.026271 0.0049017 -0.0030784 -0.012541 0.016255 0.0032179 -0.019221 0.0040258 0.0020695 -0.012874 -0.026415 -0.011741 -0.060614 0.026051 0.0030509 -0.010319 0.011877 -0.036912 -0.017448 -0.006335 -0.01115 0.0034805 -0.00099015 -0.0059639 -0.0012789 0.024602 0.013896 0.0049753 0.014308 -0.0033332 0.01713 -0.012052 -0.028296 0.0152 -0.017364 0.024355 -0.008923 -0.0018859 0.00089393 -0.014324 -0.011851 -0.0046902 0.0062957 -0.0018551 -0.029538 0.038265 0.006525 
ßarakßik 0.0023605 -0.0018152 0.01189 0.0037703 -0.024898 -0.0068628 -0.0052151 -0.0036535 -0.019489 -0.0057334 -0.011785 0.020227 -0.02229 0.017815 -0.0035622 -0.012622 -0.03386 -0.0020032 -0.014055 -0.014091 0.022393 0.010473 0.029262 0.0054872 0.00058329 -0.01143 -0.021584 -0.008916 0.001206 0.0085609 -0.0049733 0.020271 -0.027385 -0.016034 -0.024551 0.01754 0.015471 -0.014739 -0.012854 -0.0032835 -0.00046522 -0.012703 -0.014351 -0.010866 -0.0103 -0.011145 -0.019178 0.0044585 0.007764 -0.018989 0.0039574 0.0040854 -0.01429 0.014728 0.030041 0.019902 -0.0014669 -0.010785 -0.0013793 -0.014762 -0.0042554 -0.0092093 -0.0053614 -0.023906 -0.0065007 0.0076367 -0.019129 -0.025153 -0.019503 -0.014115 0.012612 -0.0019811 0.007924 0.024051 0.023829 0.0047782 -0.0082117 -0.015648 -0.0049018 -0.0096944 -0.011061 0.0046606 0.0039012 0.027581 -0.012174 -0.010647 0.0096031 0.025193 -0.0039201 0.0040886 0.011101 -0.015715 -0.0045381 0.019432 -0.0049786 -0.0024787 0.012612 0.026318 0.012381 0.060913 -0.026378 -0.0044074 0.010557 -0.0099461 0.035401 0.01717 0.0071111 0.011432 -0.0044834 0.0023742 0.0058497 0.0016806 -0.023105 -0.013675 -0.003996 -0.011953 0.0022913 -0.015917 0.012551 0.025253 -0.014801 0.018926 -0.025598 0.0088716 0.0018128 0.00073783 0.013497 0.013419 0.0047746 -0.004813 0.0017544 0.032445 -0.036911 -0.0073143 
iparkodik 0.0018966 -0.001793 0.0042466 0.0011213 -0.0088378 -0.0021281 -0.0030555 -0.0016223 -0.0083606 -0.0027296 -0.006408 0.0072912 -0.0076394 0.0050674 0.00062194 -0.0055385 -0.016645 -0.0008582 -0.006042 -0.0060251 0.009421 0.0043137 0.013248 0.0023284 -0.00089559 -0.0065184 -0.0097494 -0.0022454 0.00047947 0.0046778 -0.0027883 0.010294 -0.012889 -0.0090722 -0.014702 0.011258 0.0086072 -0.0058247 -0.0078695 -0.00041363 -0.00011224 -0.0057081 -0.0072237 -0.0047342 -0.0041896 -0.0060598 -0.0090113 0.0018451 0.0059399 -0.011145 0.0021761 0.0019876 -0.0076123 0.0075358 0.013997 0.0085127 -0.0012852 -0.003962 0.00088521 -0.0073019 -0.0016776 -0.0054278 -0.0040469 -0.012242 -0.0050229 0.0043236 -0.01149 -0.015822 -0.011446 -0.0096227 0.0088062 -0.00191 0.0037377 0.014171 0.011175 0.0033418 -0.0036818 -0.0075868 -0.0017758 -0.0054262 -0.0046175 0.0025333 -0.0002625 0.014225 -0.00765 -0.0060825 0.0052882 0.014669 -0.0033853 0.0025751 0.0066533 -0.0089988 -0.0020273 0.009701 -0.0023377 -0.00068895 0.0070882 0.017604 0.0074396 0.037937 -0.013054 -0.003025 0.0041858 -0.0068049 0.019914 0.0099357 0.0023343 0.0053607 -0.00062855 0.00095259 0.0029592 0.00038526 -0.010459 -0.0041601 -0.0026425 -0.0063534 0.0024583 -0.0099042 0.0061632 0.014592 -0.0088858 0.010138 -0.017074 0.0056252 0.00081662 -0.001224 0.0072258 0.0061027 0.0017106 -0.003627 0.0018544 0.015483 -0.014372 -0.0022376 
mosdik -0.0052137 0.0020186 -0.019329 -0.0075542 0.041672 0.01205 0.0079145 0.0069636 0.028324 0.0080282 0.018293 -0.033919 0.034988 -0.028463 0.0045299 0.024429 0.050751 -5.7145e-05 0.020586 0.022706 -0.03504 -0.01412 -0.046135 -0.0085479 0.0022013 0.01498 0.029358 0.0097478 -0.0036258 -0.013013 0.0072728 -0.028532 0.030364 0.016111 0.030545 -0.019335 -0.017455 0.016847 0.015822 0.0048832 0.0019987 0.013569 0.017245 0.011645 0.01307 0.01373 0.025196 -0.0049954 -0.0097104 0.025932 -0.0045292 -0.0067651 0.019936 -0.020023 -0.041192 -0.024185 0.0024325 0.01427 0.0015904 0.020866 0.0041164 0.014613 0.0067127 0.031191 0.0094632 -0.0097216 0.025192 0.032207 0.025779 0.014769 -0.014045 0.0028041 -0.010741 -0.033797 -0.031393 -0.0092858 0.01164 0.023802 0.005956 0.011892 0.015188 -0.010163 -0.0069806 -0.039609 0.016646 0.014666 -0.011217 -0.034785 0.0093611 -0.0083707 -0.016358 0.02071 0.0022935 -0.027958 0.0068247 0.002677 -0.016205 -0.032449 -0.014265 -0.074629 0.03626 0.0060465 -0.012748 0.016359 -0.05528 -0.029144 -0.0090805 -0.01757 0.0056301 -0.0023301 -0.0088014 -0.0044815 0.038924 0.02322 0.0069253 0.021922 -0.0055521 0.022555 -0.018113 -0.038467 0.018044 -0.024591 0.031242 -0.010888 -0.0034837 0.00086652 -0.020576 -0.01711 -0.0065778 0.0060517 -0.0021432 -0.039983 0.053659 0.0096328 
há¥kódik 0.0038982 -0.00066851 0.0084355 0.0019061 -0.018558 -0.0041277 -0.0021898 -0.002039 -0.013393 -0.0027883 -0.0078625 0.013173 -0.013447 0.010823 -0.00066618 -0.010659 -0.023208 -0.00039539 -0.010094 -0.0094316 0.016687 0.007098 0.019877 0.0028085 -0.0019031 -0.0062953 -0.014391 -0.0066907 0.0022675 0.0058633 -0.0029414 0.013151 -0.018304 -0.010954 -0.017948 0.011526 0.010955 -0.0085537 -0.0087385 -0.0039742 -0.00096354 -0.0076754 -0.0089074 -0.0079574 -0.0052219 -0.0085573 -0.012976 0.0025282 0.0049368 -0.014226 0.0033142 0.0018803 -0.0096398 0.0091093 0.019015 0.012201 -0.0013868 -0.0049684 -0.00066479 -0.010572 -0.0041883 -0.0077597 -0.0034567 -0.015221 -0.006356 0.0062516 -0.016611 -0.020044 -0.016 -0.011929 0.01012 -0.0018083 0.0056851 0.018401 0.018522 0.0040804 -0.007367 -0.011784 -0.0022647 -0.0061831 -0.007046 0.0035076 0.0036861 0.020135 -0.010498 -0.0069426 0.0074531 0.021498 -0.0048633 0.0029089 0.0085715 -0.012105 -0.0010353 0.0146 -0.003826 -0.001187 0.011089 0.024201 0.0095448 0.053521 -0.022256 -0.0051716 0.0066601 -0.0082992 0.025529 0.011759 0.0036559 0.0095502 -0.0030182 0.00053936 0.0033833 0.0013437 -0.014364 -0.0095376 -0.0028253 -0.0083061 0.002181 -0.012502 0.0096861 0.021334 -0.012133 0.016003 -0.023867 0.0078327 0.00066946 0.00039785 0.01133 0.0084585 0.0037113 -0.0019705 0.00036835 0.020766 -0.023726 -0.0047092 
kiéleződik 0.0030438 -0.0019977 0.0063704 0.0025125 -0.014218 -0.0045778 -0.0025968 -0.0028054 -0.010493 -0.004075 -0.0067326 0.011935 -0.010533 0.0081466 -0.00038855 -0.0076845 -0.020089 0.00024706 -0.0069364 -0.0077225 0.011984 0.0047758 0.017141 0.003056 -0.00039045 -0.0063195 -0.012164 -0.0041887 0.00093739 0.0057493 -0.0013925 0.01114 -0.015138 -0.0084429 -0.015805 0.0094252 0.00935 -0.0064865 -0.0071638 -0.0027519 -0.00059285 -0.0076646 -0.0067502 -0.005174 -0.0047892 -0.0057032 -0.0098301 0.0028174 0.0042838 -0.011833 0.0015212 0.0022198 -0.0074314 0.0074044 0.015187 0.010505 -0.0006276 -0.0046703 -0.00092221 -0.008197 -0.0037025 -0.0056693 -0.0035657 -0.01215 -0.0036342 0.0065864 -0.014219 -0.01612 -0.013684 -0.0095726 0.0080153 -0.0024232 0.0034922 0.015456 0.013464 0.0033823 -0.0056029 -0.0094643 -0.003129 -0.0040518 -0.0056382 0.0031907 0.0030253 0.016814 -0.0079002 -0.0072374 0.004922 0.015558 -0.0019285 0.0012431 0.0067444 -0.0094212 -0.00086571 0.010983 -0.0023368 -0.0005284 0.0077106 0.017939 0.0086079 0.040919 -0.014163 -0.0028664 0.0040224 -0.0071468 0.020562 0.0085095 0.001986 0.0067148 -0.0018001 0.00088334 0.0038712 0.00068356 -0.011518 -0.0058151 -0.00049861 -0.0059723 0.00067492 -0.010709 0.0076302 0.015555 -0.010326 0.011289 -0.016876 0.0054584 0.0018265 0.00072783 0.0080371 0.0060519 0.0041769 -0.0016807 0.0010658 0.014842 -0.017355 -0.0035486 
tökéletesedik 0.0011118 0.00041732 0.0016427 0.0013343 -0.0026604 7.4363e-05 0.00032691 -0.00061358 -0.0015386 -0.0007227 -0.0011477 0.0014064 -0.0008852 0.00054995 -0.0001496 -0.0027911 -0.0041912 0.00061256 -0.0011046 -0.0018721 0.0021735 0.0002829 0.0020074 0.00022033 0.00039591 -0.00049016 -0.0025067 0.00085237 9.3791e-05 0.0015862 0.00011037 0.0023722 -0.0033825 -0.0021104 -0.0046534 0.0023837 0.0024031 -0.0018683 -0.0024389 -0.0016481 -0.00041553 -0.00158 -0.0016611 -0.0022584 -0.00051709 -0.0013686 -0.002485 0.00057135 0.00060071 -0.0026989 0.0013028 -0.00030428 -0.00058207 0.00050466 0.00056882 0.0024541 -0.00025478 -0.0012459 9.1712e-05 -0.0025801 -0.0011809 -0.0014021 -0.00042647 -0.001518 -0.0017193 0.0017157 -0.0048509 -0.0061663 -0.0035624 -0.0025006 0.0020669 -0.0018651 -0.0013978 0.0030309 0.0036625 0.0008689 -0.0021622 -0.0025102 -0.00073198 0.00046587 -0.0012801 0.00081156 0.00086349 0.0044709 -0.0014547 -0.00085995 0.00043085 0.0036321 -0.0002712 -0.00040656 0.0004663 -0.0023917 -0.00037124 0.0023848 -0.0017067 0.00026868 0.0023726 0.0047653 0.0026072 0.012564 -0.0045121 -0.0012647 0.0015136 -0.0017697 0.0050649 0.001047 0.0010577 0.0011197 0.00018782 -0.00039177 0.0012598 0.0012716 -0.0025085 -0.00053496 0.000105 -0.0013667 -0.00072252 -0.002564 0.0009285 0.0040167 -0.0021741 0.0016485 -0.0062085 0.0016909 0.00033272 0.00058947 0.0010053 0.0018662 -0.0012167 -0.00069091 0.0010555 0.0024361 -0.00018528 -0.00081854 
katonáskodik 0.0027449 -0.0017919 0.0055016 0.0024399 -0.011735 -0.002762 -0.0021922 -0.0025696 -0.010218 -0.0032011 -0.0054532 0.010815 -0.0094585 0.0087557 -0.0011052 -0.0076048 -0.018857 -0.0004788 -0.0073983 -0.0080315 0.011463 0.0050987 0.015852 0.0033535 -0.00081002 -0.0048182 -0.010521 -0.0030902 0.0011436 0.0043273 -0.0012908 0.010686 -0.016306 -0.009389 -0.016105 0.010585 0.0092973 -0.0063811 -0.0078641 -0.0028244 -0.0012339 -0.0062701 -0.0075022 -0.0055292 -0.0046477 -0.006167 -0.0092195 0.0020225 0.004758 -0.010086 0.0022503 0.0024043 -0.0081221 0.0067273 0.01616 0.010912 -0.0011932 -0.0052836 -0.00090501 -0.0088825 -0.0028366 -0.0054877 -0.0026582 -0.012145 -0.0042215 0.0053734 -0.012788 -0.017112 -0.011793 -0.0084532 0.0073982 -0.0014906 0.0033477 0.01411 0.012731 0.003656 -0.0046735 -0.0090718 -0.0029021 -0.0051834 -0.0051274 0.0023327 0.0017971 0.016351 -0.0081731 -0.0053186 0.0053812 0.016677 -0.0026693 0.0023049 0.0062417 -0.0086342 -0.0012305 0.011593 -0.0039211 -0.00051817 0.006973 0.01834 0.0075035 0.040041 -0.015571 -0.0017889 0.0059557 -0.0075877 0.021664 0.010387 0.0026387 0.0063916 -0.0015117 0.00016148 0.0032233 0.00022453 -0.012001 -0.005721 -0.0023977 -0.0070163 0.0019963 -0.010546 0.0061375 0.017878 -0.010063 0.011879 -0.017135 0.0060073 0.0012995 -0.00023188 0.0081974 0.007632 0.0022142 -0.0027106 0.00040734 0.017445 -0.018924 -0.0029053 
ßegeződik -0.001088 -8.3207e-05 -0.0057052 -0.0035699 0.012624 0.0035876 0.0017478 0.0030758 0.009689 0.0029959 0.0056058 -0.0097671 0.011052 -0.0098102 0.0043823 0.0082001 0.015229 0.00089556 0.0061877 0.0072626 -0.012241 -0.0047967 -0.014389 -0.0024241 0.00048059 0.003331 0.0092233 0.0042061 -0.00022184 -0.0030963 0.0032331 -0.0081539 0.0092727 0.0046529 0.0089925 -0.0054342 -0.0050295 0.0049284 0.0055332 0.002018 4.9605e-05 0.0029996 0.0056239 0.0038344 0.0036877 0.0047537 0.0076414 -0.001064 -0.0024677 0.0073002 -0.0022869 -0.0019154 0.0062366 -0.0074457 -0.013883 -0.0074252 0.00072123 0.0042581 0.00083426 0.0072209 0.0011022 0.0043819 0.0015447 0.0102 0.0010763 -0.0023473 0.0064079 0.0092524 0.0068372 0.0036179 -0.001677 0.00015064 -0.0030399 -0.0099252 -0.0096065 -0.0021172 0.0039395 0.0057312 0.0026255 0.0034323 0.0041281 -0.0035912 -0.0014421 -0.012015 0.0037104 0.0026973 -0.0029194 -0.010361 0.0020472 -0.0034767 -0.0047001 0.006944 -1.5345e-05 -0.0080659 0.0028722 0.0020754 -0.0036226 -0.0085694 -0.0038691 -0.018368 0.010278 0.00119 -0.0048696 0.0033001 -0.017231 -0.0089338 -0.003224 -0.0056576 0.0029623 -0.001156 -0.002104 -0.00042018 0.012923 0.0070134 0.0036803 0.0079234 -0.00065907 0.005642 -0.0056254 -0.013902 0.0049599 -0.0067813 0.010176 -0.0032398 0.00039914 0.0014087 -0.0071302 -0.0067224 -0.0010003 0.0035662 0.0017244 -0.01416 0.019832 0.0028657 
művéßkedik -0.0015396 0.00062961 -0.0080233 -0.0032216 0.016894 0.004884 0.0027352 0.0031819 0.013052 0.0048317 0.0074648 -0.013263 0.014904 -0.013106 0.0030021 0.010392 0.021955 0.0007792 0.010008 0.0095337 -0.015226 -0.0063978 -0.021139 -0.0033284 -0.001028 0.0050521 0.011823 0.003731 -0.0011666 -0.0051619 0.0030535 -0.012908 0.014585 0.0082968 0.013364 -0.0082991 -0.0075295 0.0076931 0.007682 0.003952 0.00021654 0.0072348 0.0079799 0.0058908 0.0053233 0.0055445 0.01029 -0.0024699 -0.004404 0.012022 -0.0030669 -0.0029354 0.0094438 -0.0097771 -0.020109 -0.011663 0.0016135 0.0065164 0.0011326 0.011288 0.0035457 0.0075311 0.0025507 0.014723 0.0028776 -0.0040652 0.010284 0.014381 0.011003 0.0076926 -0.0052542 0.0012694 -0.0047824 -0.01516 -0.015406 -0.003303 0.0059954 0.010145 0.0032553 0.0057945 0.0069567 -0.0049737 -0.002421 -0.015542 0.0076893 0.0055614 -0.0057083 -0.015271 0.004568 -0.0033376 -0.0084424 0.0093871 0.0021075 -0.012711 0.0046676 0.0022144 -0.0047692 -0.014685 -0.0062987 -0.031945 0.01524 0.0017978 -0.0060289 0.0065259 -0.024132 -0.012076 -0.0044223 -0.0078516 0.0028712 -0.00014387 -0.0032342 -0.00056825 0.015646 0.0096343 0.0045551 0.0098201 -0.0022558 0.0086633 -0.0084391 -0.017899 0.0077604 -0.01116 0.013753 -0.0046706 -0.00046827 0.00052543 -0.0084614 -0.008352 -0.0029278 0.0027903 -0.0016114 -0.018417 0.023373 0.0040157 
ßemlélődik -0.0025266 0.0013927 -0.013256 -0.0057675 0.029065 0.0089073 0.0056951 0.0046766 0.022939 0.0069714 0.01457 -0.02449 0.025363 -0.020467 0.0042076 0.017273 0.039464 0.0018928 0.016418 0.017253 -0.02665 -0.010844 -0.034263 -0.0066408 -0.00061241 0.011729 0.022199 0.0085444 -0.0024166 -0.0096037 0.0051376 -0.021419 0.024614 0.013208 0.022822 -0.01375 -0.013803 0.01325 0.012251 0.0031419 0.00021147 0.010328 0.0127 0.0089675 0.009244 0.010639 0.017931 -0.0038931 -0.0066336 0.019772 -0.0046247 -0.0036308 0.01519 -0.015645 -0.03108 -0.01972 0.0014128 0.010038 0.0032857 0.016464 0.0049374 0.011655 0.0049028 0.024302 0.006343 -0.0067968 0.019948 0.024662 0.019246 0.013546 -0.011609 0.0010386 -0.0080827 -0.026725 -0.024654 -0.0058516 0.010218 0.018267 0.0050876 0.0084945 0.011235 -0.0074787 -0.0042634 -0.029443 0.012875 0.010171 -0.0086398 -0.027498 0.005627 -0.0049851 -0.013026 0.016212 0.0023001 -0.021367 0.0059035 0.003246 -0.011433 -0.027328 -0.012619 -0.060002 0.027411 0.0048627 -0.011483 0.012101 -0.042054 -0.019956 -0.0084257 -0.011692 0.0033817 -0.0012127 -0.0075855 -0.00016266 0.02673 0.01672 0.0054256 0.015318 -0.0034573 0.018091 -0.013596 -0.030241 0.013833 -0.018802 0.026994 -0.010242 -0.0013998 -0.00012194 -0.016565 -0.013767 -0.0036353 0.0046501 -0.00088593 -0.031542 0.041057 0.0058666 
érintkezik 0.0051409 -0.002336 0.013326 0.0053983 -0.027508 -0.0082825 -0.0042861 -0.0047182 -0.020751 -0.0064954 -0.011885 0.021602 -0.021612 0.017862 -0.0049357 -0.015891 -0.036917 -0.0010897 -0.015931 -0.016047 0.02411 0.010237 0.031936 0.0059565 -0.00022028 -0.012043 -0.023132 -0.0069807 0.002484 0.0087913 -0.0056873 0.022947 -0.028907 -0.015258 -0.027204 0.018407 0.017505 -0.014118 -0.013706 -0.0056445 -0.00091588 -0.012576 -0.013379 -0.011048 -0.0097298 -0.011894 -0.019584 0.0054546 0.0096679 -0.021827 0.0054707 0.0028253 -0.016811 0.015191 0.033131 0.021676 -0.0029621 -0.0098635 -0.00071622 -0.018899 -0.0070647 -0.01239 -0.0065872 -0.024969 -0.0069764 0.00857 -0.025287 -0.031715 -0.023064 -0.015414 0.014225 -0.0025487 0.0082151 0.028965 0.027138 0.0066526 -0.010138 -0.020357 -0.0055525 -0.010614 -0.011405 0.0079825 0.0051232 0.03146 -0.013287 -0.01157 0.0096129 0.030581 -0.005881 0.0038344 0.012214 -0.01557 -0.0013659 0.021524 -0.0060505 -0.0016285 0.011647 0.028943 0.013672 0.06452 -0.026424 -0.0047415 0.0098215 -0.011394 0.03898 0.019648 0.0067709 0.013061 -0.0038553 0.0014551 0.0057047 0.0016965 -0.022749 -0.013596 -0.0045742 -0.013444 0.0025907 -0.016182 0.012691 0.030989 -0.016983 0.019876 -0.028632 0.0092576 0.0020757 0.00023909 0.016041 0.013597 0.0030534 -0.0041206 -0.00060424 0.032614 -0.037112 -0.00536 
óhajtozik 0.0024898 -0.0016721 0.0074186 0.0027706 -0.015827 -0.0051319 -0.0037722 -0.0040027 -0.012608 -0.0035167 -0.0069432 0.012189 -0.013049 0.011648 -0.003031 -0.0097325 -0.021788 -0.00071486 -0.0086213 -0.0090443 0.013708 0.0064983 0.018222 0.0031642 0.00085566 -0.0082709 -0.013919 -0.0040962 0.0029022 0.0040462 -0.0035627 0.013666 -0.018032 -0.010796 -0.017925 0.013631 0.011332 -0.0082624 -0.0079414 -0.0036582 -0.00055039 -0.0072372 -0.0076829 -0.0064336 -0.0046158 -0.0072062 -0.01151 0.0044223 0.0047713 -0.013734 0.0042172 0.0014618 -0.010369 0.010274 0.019523 0.011791 -0.0017577 -0.0055367 -0.00038096 -0.0094206 -0.0042138 -0.0061839 -0.0042897 -0.014963 -0.0041268 0.0058298 -0.01387 -0.017936 -0.015134 -0.0096189 0.0088162 0.0014448 0.0054277 0.014894 0.014848 0.0042259 -0.0060553 -0.011776 -0.0024392 -0.0040048 -0.0065948 0.004578 0.0023091 0.019857 -0.0083322 -0.0064259 0.0051944 0.017806 -0.0023506 0.0010177 0.0066351 -0.0088672 -0.0013932 0.011772 -0.001927 -0.0011346 0.0058769 0.016383 0.0076613 0.034755 -0.013289 -0.0020876 0.0044978 -0.0070139 0.022604 0.0099193 0.003935 0.0071502 -0.0014572 0.00063864 0.0037044 0.0017806 -0.014133 -0.0089504 -0.0029089 -0.0085572 0.0029781 -0.010058 0.0065149 0.016844 -0.0086294 0.011832 -0.019033 0.0057155 0.00062617 0.00078161 0.0097429 0.010021 0.0023726 -0.0022251 0.00058809 0.019253 -0.02237 -0.002831 
Ωonglőrködik 0.0035637 -0.0011424 0.010297 0.0045695 -0.019558 -0.0049625 -0.0030882 -0.0032587 -0.01386 -0.0047567 -0.0081179 0.014661 -0.014597 0.012789 -0.0020895 -0.011295 -0.024797 -0.0016115 -0.010523 -0.010526 0.016502 0.0065754 0.023422 0.0041813 0.00040696 -0.0078071 -0.015254 -0.0039902 0.00081088 0.0067797 -0.0038167 0.014345 -0.019933 -0.0099686 -0.018905 0.013772 0.011712 -0.0095633 -0.009542 -0.0044327 -0.00070909 -0.0088514 -0.0090975 -0.0082291 -0.0055335 -0.0086387 -0.013559 0.0030634 0.006379 -0.013495 0.00372 0.0011687 -0.011004 0.01029 0.020731 0.013154 -0.0011198 -0.007837 -0.0012367 -0.011654 -0.0042644 -0.0065737 -0.0045992 -0.016485 -0.0032978 0.0068319 -0.018582 -0.021531 -0.017354 -0.010982 0.009821 -0.0010093 0.004358 0.019148 0.018046 0.0057059 -0.0075964 -0.013824 -0.0047523 -0.0063786 -0.0078151 0.0055136 0.0026051 0.022536 -0.010644 -0.0075775 0.0076388 0.021308 -0.0026832 0.0030868 0.0089354 -0.01386 -0.0011325 0.015513 -0.0046762 7.7054e-05 0.0085451 0.022911 0.010536 0.050673 -0.019418 -0.0032066 0.0065326 -0.0079271 0.025283 0.013331 0.0043767 0.0092679 -0.0034992 -0.00014864 0.0047197 0.00043458 -0.014457 -0.0088629 -0.0042924 -0.0090132 0.001133 -0.011857 0.0097581 0.022339 -0.012454 0.014974 -0.022987 0.0096515 0.0019266 0.00039484 0.011107 0.0094416 0.0016177 -0.0035028 5.8233e-05 0.022412 -0.025151 -0.0043817 
harmonikázik -0.0027572 0.0012325 -0.012626 -0.005033 0.026739 0.0078967 0.0053369 0.0042181 0.020188 0.0060268 0.013168 -0.022238 0.021904 -0.018067 0.0025298 0.014991 0.034627 0.0014568 0.014696 0.014874 -0.022478 -0.010654 -0.031199 -0.0057943 5.315e-05 0.008733 0.018933 0.0059591 -0.0013265 -0.0077282 0.0035323 -0.018144 0.020983 0.011769 0.020794 -0.013504 -0.013506 0.0099817 0.011351 0.004272 -0.00064755 0.0085691 0.011011 0.0082963 0.0086289 0.0088344 0.014838 -0.0034922 -0.0063707 0.01697 -0.0037577 -0.0018193 0.014234 -0.012035 -0.025931 -0.014741 0.00096443 0.0087891 0.0028639 0.013148 0.0048804 0.0087814 0.0054901 0.021755 0.0065337 -0.0048787 0.017713 0.022308 0.017447 0.011148 -0.0097066 0.0012308 -0.0073234 -0.022829 -0.021947 -0.00549 0.0069938 0.01543 0.0052027 0.0086838 0.010148 -0.0056351 -0.0034154 -0.02555 0.011278 0.0092321 -0.0073678 -0.025064 0.0057549 -0.0033747 -0.012188 0.014518 0.0023442 -0.019006 0.0042596 0.0020723 -0.011529 -0.025887 -0.0109 -0.057075 0.025001 0.0037633 -0.0079767 0.010975 -0.035162 -0.016926 -0.0061335 -0.0104 0.0029538 -0.00058237 -0.0050316 -0.0010963 0.02214 0.013859 0.0050983 0.012322 -0.0042928 0.015553 -0.012581 -0.028023 0.0146 -0.017405 0.025108 -0.0083971 -0.001066 0.0004188 -0.013238 -0.010694 -0.0038284 0.0049522 -0.00099433 -0.029325 0.034574 0.0061211 
vergődik -0.0029252 0.00095161 -0.0073618 -0.0047173 0.01874 0.0076242 0.004106 0.0030522 0.014048 0.0038339 0.010656 -0.016643 0.015761 -0.013055 0.0022488 0.010269 0.023722 0.0010947 0.0098471 0.0101 -0.016231 -0.0080664 -0.023404 -0.0046525 5.3796e-05 0.007214 0.014934 0.0039947 -0.0019566 -0.004754 0.0034781 -0.014008 0.014419 0.0072716 0.013313 -0.0098337 -0.0079396 0.0080551 0.007853 0.0028732 0.00056538 0.0054379 0.0073273 0.0055216 0.0060869 0.006066 0.0097803 -0.0020448 -0.0032369 0.013057 -0.0023868 -0.0035647 0.010161 -0.010955 -0.01991 -0.011459 0.0018 0.0064187 0.0030845 0.010332 0.0038217 0.0070238 0.0026587 0.016081 0.0048663 -0.0044401 0.010087 0.01396 0.011148 0.0071253 -0.0052893 0.00062089 -0.0040122 -0.016435 -0.013691 -0.0044794 0.0055138 0.0097874 0.0030587 0.0047307 0.0081448 -0.0038514 -0.0033672 -0.016978 0.0077272 0.0047778 -0.0046101 -0.016641 0.0038676 -0.0024658 -0.007934 0.010079 -0.00030147 -0.012171 0.0042927 0.0014041 -0.0068797 -0.016501 -0.0061719 -0.032906 0.016394 0.0029575 -0.0049348 0.0076596 -0.028995 -0.014137 -0.0045381 -0.008723 0.0016825 -0.0016611 -0.0043939 -0.0008134 0.016816 0.011095 0.0019165 0.010586 -0.0020214 0.010325 -0.0077313 -0.018889 0.0072831 -0.01099 0.014755 -0.0057885 3.4773e-05 0.00056882 -0.010947 -0.0091241 -0.0026119 0.0029344 -0.0006603 -0.020385 0.027109 0.0037375 
vetekßik 0.0051228 -0.0022505 0.015044 0.0053125 -0.031741 -0.0086877 -0.0050288 -0.0059326 -0.025022 -0.006373 -0.013241 0.026973 -0.027478 0.022627 -0.0043918 -0.018378 -0.043395 -0.0032256 -0.018228 -0.017019 0.02896 0.012912 0.038216 0.0079495 0.0015409 -0.013498 -0.024887 -0.011136 0.0018123 0.0086409 -0.0043403 0.023908 -0.033255 -0.018814 -0.033695 0.021584 0.020153 -0.017548 -0.016701 -0.0068059 -0.001224 -0.01462 -0.016726 -0.01375 -0.012825 -0.011122 -0.023591 0.005602 0.00972 -0.025351 0.0042422 0.0034438 -0.018709 0.018148 0.038241 0.022521 -0.0029851 -0.014593 -0.0020658 -0.018733 -0.004857 -0.012776 -0.0063449 -0.028163 -0.0067541 0.0085351 -0.025751 -0.032214 -0.025025 -0.016792 0.015908 -0.00019295 0.0091726 0.030426 0.029396 0.0069847 -0.0087548 -0.021968 -0.005853 -0.011396 -0.013593 0.0060223 0.0051968 0.035592 -0.014917 -0.012372 0.011487 0.032592 -0.0061608 0.005891 0.014021 -0.019826 -0.002663 0.024612 -0.0063153 -0.0021926 0.013312 0.032928 0.01707 0.077571 -0.032415 -0.004708 0.012611 -0.015105 0.045595 0.021452 0.0083987 0.01398 -0.0046574 0.0019019 0.0082487 0.00015345 -0.029111 -0.017681 -0.0060942 -0.015961 0.0030616 -0.020203 0.014674 0.035031 -0.018784 0.024779 -0.03369 0.010267 0.0029636 -0.00134 0.018966 0.014632 0.0049426 -0.0062507 0.00079543 0.041223 -0.04742 -0.0075398 
ágaskodik 0.0028669 -0.0018706 0.0063335 0.0028673 -0.012625 -0.001237 -0.0035328 -0.0026748 -0.011225 -0.0030889 -0.0061039 0.010526 -0.0098442 0.0090695 -0.00053058 -0.0087466 -0.017807 -0.0016126 -0.0069904 -0.0084353 0.012251 0.0044829 0.016897 0.0033102 0.00087971 -0.0043915 -0.011514 -0.0034328 0.00090744 0.0044085 -0.0020286 0.011528 -0.017288 -0.010406 -0.017691 0.012467 0.0092834 -0.0089087 -0.0083842 -0.0037026 -0.00042572 -0.0069439 -0.0074927 -0.005918 -0.0050225 -0.0059788 -0.010607 0.0018026 0.0057784 -0.012901 0.0015224 0.0026827 -0.0094975 0.0087385 0.01738 0.011304 -0.0017719 -0.0070126 -0.00087254 -0.0096402 -0.0026825 -0.0066988 -0.0034974 -0.01339 -0.0047072 0.0045472 -0.016538 -0.018464 -0.013036 -0.0095393 0.0083057 -0.0012284 0.0035553 0.01634 0.014673 0.0030003 -0.004983 -0.010136 -0.0026554 -0.0049601 -0.0067419 0.0032945 0.0016481 0.017454 -0.0083708 -0.0064775 0.005596 0.017527 -0.0043913 0.0021639 0.006626 -0.008977 -0.0010731 0.012846 -0.0021732 0.00015226 0.0079174 0.019836 0.0086489 0.04504 -0.015638 -0.0021851 0.0053799 -0.0083173 0.023114 0.011836 0.0035008 0.0068112 -0.0019066 0.00028559 0.0036052 0.00067723 -0.013307 -0.007498 -0.0029385 -0.0070181 0.0021229 -0.01126 0.0069954 0.019152 -0.01069 0.012708 -0.019523 0.0072339 0.0015557 2.4595e-05 0.010404 0.0088129 0.0022026 -0.0026457 0.00059127 0.018436 -0.018365 -0.0026271 
ßánakozik 0.0062119 -0.0022572 0.017028 0.0051194 -0.036354 -0.010971 -0.006077 -0.0082657 -0.027551 -0.0092428 -0.015241 0.02968 -0.029514 0.026316 -0.0058672 -0.021013 -0.050741 -0.0027484 -0.020674 -0.019664 0.033658 0.013878 0.04311 0.0089016 0.00054439 -0.016262 -0.029758 -0.01141 0.0045415 0.011754 -0.0061178 0.028726 -0.036453 -0.020536 -0.037395 0.024851 0.021735 -0.019521 -0.018645 -0.0087015 -0.001717 -0.017493 -0.018164 -0.012823 -0.011651 -0.014296 -0.02832 0.0054757 0.012017 -0.028258 0.0071482 0.0057661 -0.022216 0.021445 0.043349 0.027566 -0.0041965 -0.013791 -0.0015909 -0.023283 -0.0077003 -0.013452 -0.0076653 -0.032942 -0.0086752 0.011552 -0.031693 -0.039426 -0.029474 -0.019788 0.01745 -0.0031617 0.01086 0.036179 0.033867 0.0084095 -0.011791 -0.024614 -0.0071282 -0.013336 -0.017007 0.0079676 0.0057448 0.040253 -0.019195 -0.015628 0.012148 0.038818 -0.0077841 0.0043948 0.01681 -0.021697 -0.0031717 0.027337 -0.0078725 -0.0028747 0.01504 0.036629 0.016217 0.082892 -0.034649 -0.0065544 0.012919 -0.016024 0.051152 0.022972 0.0092009 0.015722 -0.0031836 0.0016261 0.0083246 0.00064996 -0.030193 -0.01923 -0.0084468 -0.017653 0.0040006 -0.022869 0.016478 0.039964 -0.020957 0.02733 -0.036673 0.013492 0.0032332 -0.00029118 0.02142 0.018038 0.005396 -0.0068289 0.00091749 0.04459 -0.052479 -0.0084726 
zö†kölődik 0.0012447 -0.00054079 0.0037398 0.0024176 -0.0071555 -0.00083694 -0.00019686 -0.0019639 -0.0048115 -0.0022578 -0.0019434 0.0038568 -0.0042772 0.0052254 -0.0012858 -0.004471 -0.0093838 9.3245e-06 -0.00464 -0.0032945 0.0054912 0.0027017 0.0071999 -5.1591e-05 0.0016065 -0.0024452 -0.0056091 -0.0013607 0.00067409 0.002898 -0.00059742 0.0042775 -0.0085944 -0.004489 -0.0087918 0.0062848 0.0047536 -0.0054197 -0.004109 -0.0032654 -0.0012022 -0.003384 -0.0039699 -0.001983 -0.0013727 -0.0020125 -0.0046747 0.0010067 0.002862 -0.0058601 0.00073146 0.00076283 -0.00396 0.0046945 0.0078527 0.0043267 -0.0012693 -0.0022536 0.00032307 -0.0044752 -0.00055712 -0.0015774 -0.002868 -0.0055744 -0.0019399 0.002505 -0.0074524 -0.0082647 -0.0065239 -0.0059636 0.0036397 0.0004394 0.0033104 0.0065883 0.0068304 0.0013745 -0.001769 -0.0064706 -0.00018423 -0.00077894 -0.0022171 0.00087441 0.00086657 0.0085415 -0.0029983 -0.0034887 0.0024796 0.0091095 -0.0030566 -6.1477e-05 0.0030961 -0.0033872 0.00050171 0.0049242 -0.00097846 0.0014278 0.0034189 0.0092024 0.0034219 0.022997 -0.0071566 -0.0024091 0.001405 -0.0038285 0.007512 0.0039199 -1.754e-05 0.0021421 -0.00071087 -2.6462e-05 0.00072776 0.00037982 -0.0045891 -0.0020647 -0.0016194 -0.00077782 0.00080488 -0.0039817 0.0038541 0.0090436 -0.0060003 0.0066239 -0.0092362 0.00292 0.0016062 0.00094321 0.0039098 0.0034271 -6.3553e-05 -0.00022592 -0.00030448 0.0065014 -0.0053309 -0.0020613 
olvadozik -0.00030252 -0.00031171 -0.0040022 -0.0020231 0.0079441 0.0015536 0.0017615 0.0014552 0.0053725 0.003289 0.0041375 -0.007303 0.0064927 -0.0056536 0.0026804 0.0065081 0.010894 -0.00088461 0.0047309 0.0050773 -0.0081058 -0.0025773 -0.010547 -0.0024991 0.00094828 0.0025534 0.0043552 0.00099172 0.00053946 -0.0014209 0.001527 -0.0043501 0.0033577 0.0021082 0.0054184 -0.0017812 -0.0014291 0.0030186 0.0025474 0.0010859 0.00039844 0.00077358 0.00091806 0.00065661 0.0014899 0.0022421 0.0029066 -0.00061211 -0.0010318 0.0037974 0.00016099 -0.00082372 0.0022312 -0.0015517 -0.0048587 -0.0024495 0.00072466 0.002711 0.00089134 0.0037478 0.0013743 0.00046619 0.0010658 0.0041114 0.001022 -0.0021124 0.0038755 0.0049889 0.003236 0.001723 -0.00089744 0.001534 -0.0014045 -0.0068249 -0.004764 -0.001521 0.00085205 0.0050334 9.6351e-05 0.0029473 0.0032549 -0.0021954 -0.00085893 -0.0066905 0.0014781 0.002174 -0.00070892 -0.0059263 0.0015613 -0.00067347 -0.0027646 0.0047861 0.0012276 -0.0063044 0.0013667 0.0006113 -0.0046496 -0.0073846 -0.0030123 -0.019766 0.0069406 0.00077675 -0.0028104 0.0049165 -0.010087 -0.0062939 -0.0012993 -0.0033151 0.0012008 -0.00016122 -0.0012351 0.0014367 0.0071366 0.0033781 0.0021199 0.0041145 -4.089e-05 0.0050218 -0.0039565 -0.0094889 0.0038416 -0.0044029 0.004986 -0.0031452 0.0002125 -0.00036841 -0.0041001 -0.0027389 -0.00076652 0.0012293 0.0014215 -0.0064025 0.0080638 0.0018797 
bíbelődik -0.0020135 0.0014186 -0.0089519 -0.0025784 0.017749 0.005015 0.004347 0.0037437 0.013782 0.0033491 0.0092542 -0.015426 0.016087 -0.01366 0.0032162 0.010697 0.023589 0.001709 0.010555 0.010783 -0.017277 -0.0082831 -0.022019 -0.0036273 -0.00026644 0.0060069 0.013756 0.0057841 -0.001807 -0.005531 0.0038898 -0.014204 0.013658 0.0072257 0.012536 -0.0063118 -0.0071909 0.0084 0.0074531 0.0022206 -0.0015195 0.0060346 0.0075596 0.0041284 0.0077378 0.0068447 0.011535 -0.0024077 -0.0039453 0.012433 -0.00094686 -0.0022017 0.0088149 -0.0086169 -0.018336 -0.012339 0.0018176 0.0050154 0.0011687 0.010973 0.0037884 0.0055192 0.0038072 0.014846 0.0032762 -0.0035832 0.010576 0.013092 0.010613 0.006801 -0.0054494 0.0018294 -0.0051043 -0.016067 -0.015458 -0.0032683 0.0051949 0.010982 0.0037549 0.0054355 0.0063365 -0.0031464 -0.0041296 -0.016673 0.0097017 0.0055581 -0.004549 -0.017391 0.0039299 -0.0028537 -0.0086135 0.0096563 0.0028488 -0.013472 0.0035586 0.0020179 -0.0074363 -0.016121 -0.0071741 -0.033979 0.016581 0.0028624 -0.0063773 0.007823 -0.026814 -0.014573 -0.0057679 -0.0093756 0.0021701 -0.0022576 -0.0039724 -0.0023986 0.017059 0.011959 0.0037348 0.0097244 -0.0023913 0.011212 -0.0072102 -0.017765 0.0087666 -0.010972 0.015304 -0.0049136 -0.00062256 -0.00020628 -0.010892 -0.0069674 -0.0019396 0.0041698 -0.00024664 -0.01995 0.02545 0.0044711 
ringatódzik 0.0017481 -0.0019202 0.0085039 0.0022067 -0.015216 -0.004202 -0.0025608 -0.0021784 -0.011148 -0.0037929 -0.0067661 0.013255 -0.012746 0.011689 -0.0035919 -0.011622 -0.022465 -0.000516 -0.0090357 -0.0086213 0.014976 0.004708 0.019475 0.0036295 -1.8211e-06 -0.0080613 -0.013211 -0.0034422 0.0013716 0.0053276 -0.0038037 0.012412 -0.016982 -0.010806 -0.016965 0.01352 0.0107 -0.0093319 -0.0091465 -0.0051723 -0.0020574 -0.0076412 -0.0074617 -0.0051965 -0.0063401 -0.0076731 -0.011346 0.0032873 0.0061875 -0.01275 0.0027397 0.00061785 -0.0099877 0.0087408 0.020883 0.013116 -0.0015798 -0.0060056 -0.0013217 -0.010124 -0.0037005 -0.0066275 -0.003317 -0.012749 -0.0036444 0.0044089 -0.014499 -0.018294 -0.012942 -0.0092238 0.0065559 -0.00033406 0.0042228 0.017051 0.015207 0.0040487 -0.0061477 -0.011815 -0.0027506 -0.0040116 -0.0061349 0.0044321 0.0029846 0.017246 -0.0080518 -0.0079662 0.0050394 0.018721 -0.0050753 0.0026979 0.0071313 -0.0094448 -0.00030108 0.012625 -0.0029967 0.00045757 0.0066796 0.016225 0.0088587 0.037202 -0.015815 -0.0021569 0.0048229 -0.0069501 0.023475 0.011199 0.0043691 0.0080023 -0.003173 0.0022639 0.0022049 0.00046434 -0.01379 -0.0086209 -0.0023713 -0.0065243 0.0011761 -0.0084 0.0073461 0.01829 -0.008654 0.011942 -0.016846 0.0058151 0.00177 -0.00043191 0.0092317 0.0070385 0.0018605 -0.00281 -0.00029233 0.019284 -0.019919 -0.0030508 
kézilabdázik -0.0011598 0.0005547 -0.006925 -0.0024657 0.01565 0.0049733 0.002477 0.0026889 0.010958 0.0036258 0.0074044 -0.012387 0.012687 -0.010894 0.00094014 0.0081799 0.01936 0.00050121 0.0066983 0.0084166 -0.012958 -0.0049746 -0.017978 -0.0027223 -2.3203e-05 0.0051884 0.0097889 0.0030667 -0.0004348 -0.0038349 0.0018977 -0.0089243 0.010982 0.0056109 0.010762 -0.0079042 -0.0073258 0.0045892 0.0055019 0.0012035 -0.00047096 0.0041789 0.0062298 0.0050424 0.002992 0.0046614 0.0071648 -0.0014595 -0.0038962 0.007787 -0.0023976 -0.0019654 0.0075238 -0.006785 -0.014123 -0.0081015 -0.00028712 0.003549 0.0010838 0.0077093 0.0035401 0.0049049 0.0017739 0.011123 0.0035166 -0.0038029 0.0088125 0.011019 0.009036 0.005241 -0.0042716 0.0017052 -0.0027041 -0.012965 -0.011977 -0.0023456 0.0044816 0.0065515 0.0017975 0.0041461 0.005436 -0.0031609 -0.0034034 -0.014067 0.0066916 0.0061901 -0.0052894 -0.014001 0.0022569 -0.0015991 -0.0069 0.0083244 0.00099843 -0.010422 0.0032349 0.0009898 -0.006406 -0.014952 -0.0052236 -0.031555 0.013591 0.0018204 -0.0067572 0.0063999 -0.019582 -0.0087088 -0.0033978 -0.0064885 0.0016424 -0.0011086 -0.0032079 -0.00074893 0.014282 0.0077708 0.0039711 0.0078687 -0.0022795 0.0096896 -0.007483 -0.014978 0.0085641 -0.0097799 0.012443 -0.0044323 -0.0025134 7.5409e-05 -0.0080052 -0.0064181 -0.0027307 0.0019778 -0.00148 -0.015798 0.020574 0.0030196 
utálkozik 0.0079422 -0.0027989 0.026092 0.008381 -0.05636 -0.015425 -0.0095918 -0.009611 -0.040734 -0.013232 -0.025332 0.044726 -0.046151 0.038036 -0.007215 -0.031267 -0.074828 -0.0027594 -0.031244 -0.030418 0.049929 0.020004 0.065198 0.01252 0.00081789 -0.023093 -0.04474 -0.01604 0.0056613 0.017644 -0.0082559 0.043997 -0.054491 -0.029514 -0.05371 0.035525 0.032647 -0.028689 -0.028478 -0.0096636 -0.001154 -0.02369 -0.026416 -0.020221 -0.018058 -0.02258 -0.038125 0.0083866 0.017662 -0.042017 0.0080373 0.0081738 -0.0337 0.032179 0.063932 0.039055 -0.0031971 -0.020828 -0.0043996 -0.032979 -0.010088 -0.023142 -0.011624 -0.048831 -0.013311 0.014479 -0.044597 -0.054531 -0.042978 -0.029219 0.025945 -0.0035532 0.015794 0.052752 0.049435 0.012871 -0.016444 -0.034783 -0.0092873 -0.019012 -0.023469 0.012314 0.0092817 0.060415 -0.02836 -0.022095 0.018611 0.057157 -0.010494 0.0086506 0.026377 -0.031865 -0.0044606 0.04284 -0.0090795 -0.0047302 0.022903 0.055696 0.025603 0.12627 -0.052268 -0.0078012 0.020643 -0.025186 0.076044 0.037617 0.014519 0.024025 -0.0065159 0.0027052 0.011126 0.0014519 -0.046814 -0.028002 -0.011351 -0.027241 0.0062905 -0.036034 0.026149 0.059252 -0.031432 0.039453 -0.05676 0.019784 0.0045061 -0.0012703 0.031988 0.025084 0.0083041 -0.0097369 0.0031787 0.067672 -0.076347 -0.013641 
kallódik -0.00050168 -0.00049179 -0.0086635 -0.0035615 0.01755 0.0045101 0.003032 0.0024308 0.012888 0.0035 0.0075941 -0.015295 0.01536 -0.013 0.00325 0.011828 0.020859 0.0011442 0.0098313 0.009785 -0.014103 -0.0054135 -0.020319 -0.0042383 -0.0013406 0.0048301 0.010769 0.0033324 -0.0021415 -0.0051388 0.0025482 -0.01187 0.011429 0.0052567 0.0094052 -0.0054642 -0.0075427 0.0079622 0.0066099 0.0017156 0.00087072 0.004136 0.0052145 0.0043691 0.002407 0.0038459 0.0082126 -0.0010508 -0.0039312 0.0091024 -0.00066171 -0.0018074 0.0075642 -0.0079464 -0.015077 -0.0077756 0.0012006 0.0058239 0.00082285 0.0079938 0.0023147 0.0044409 0.0023466 0.01134 0.0029948 -0.001849 0.0084021 0.010397 0.0080608 0.004125 -0.0027008 0.00052235 -0.0025285 -0.010022 -0.010378 -0.0031191 0.0022382 0.0080206 0.0020787 0.0021638 0.0057835 -0.0022796 -0.0023252 -0.013304 0.0056981 0.0048779 -0.0019314 -0.012352 0.0029509 -0.0026295 -0.0052085 0.0068454 0.0018632 -0.0086069 0.0015025 -0.00053326 -0.0048867 -0.010012 -0.0034665 -0.020976 0.011119 0.0017511 -0.0022224 0.0041743 -0.019577 -0.010653 -0.0031319 -0.006106 0.0025541 0.00050306 -0.0040255 0.00016515 0.014547 0.0089833 0.003047 0.0081468 -0.0024772 0.0079912 -0.0060478 -0.015408 0.0064036 -0.0083282 0.009082 -0.0039061 -0.0014684 0.00094563 -0.0083054 -0.0056778 -0.0015195 0.0022838 -0.00021525 -0.014866 0.019896 0.0036581 
pá¬ázik -0.0026282 0.001156 -0.0090711 -0.0027113 0.018671 0.0052608 0.0023478 0.0033705 0.013187 0.003586 0.010648 -0.016065 0.01588 -0.012525 0.0025757 0.0084597 0.022656 0.00081615 0.01063 0.010085 -0.015924 -0.0078054 -0.022886 -0.0041413 -0.0005129 0.0070585 0.010411 0.0039657 -0.00092207 -0.007166 0.0022583 -0.010838 0.012468 0.0061108 0.012244 -0.0078474 -0.0073894 0.0052258 0.0057142 0.0012195 0.0001257 0.0048168 0.0069283 0.0055883 0.0046817 0.0043195 0.009651 -0.0019502 -0.002434 0.0095691 -0.0027113 -0.0014171 0.0077226 -0.0090289 -0.016116 -0.0092257 0.0002453 0.005685 0.00093326 0.0068685 0.0014683 0.0050429 0.0025438 0.012654 0.0020464 -0.003767 0.010104 0.0113 0.0086646 0.0058332 -0.0065485 0.00084413 -0.0044227 -0.014208 -0.01312 -0.0027542 0.0049312 0.0086531 0.0013777 0.004667 0.0074353 -0.0052896 -0.0026124 -0.016074 0.0074411 0.0075365 -0.0047281 -0.015249 0.002685 -0.004405 -0.0078695 0.0092163 0.0010388 -0.012607 0.0029772 0.0033032 -0.0081022 -0.01733 -0.0088628 -0.039583 0.015858 0.001956 -0.0066185 0.0074942 -0.023324 -0.010939 -0.0039897 -0.0076381 0.0014669 -0.0018409 -0.0024138 -0.0001888 0.01647 0.010278 0.0036816 0.0098517 -0.0021234 0.012574 -0.010417 -0.019877 0.0098093 -0.011707 0.014677 -0.0051769 -0.0015052 3.8891e-06 -0.0098459 -0.0048705 -0.0029181 0.003623 -0.001654 -0.018817 0.023973 0.0034324 
halmozódik -0.00069652 -0.00042688 -0.002447 -0.00064033 0.0042129 0.00079456 0.0019151 0.00050909 0.0033638 0.0016418 0.0023694 -0.0051939 0.0057125 -0.0050851 0.0017901 0.0038921 0.0063895 -6.3785e-05 0.0043221 0.0033171 -0.0041743 -0.0012536 -0.0061779 -0.00063573 -0.00062914 0.0022211 0.0010999 0.00039624 -0.00027207 -0.0011394 0.00095508 -0.002311 0.0021779 0.0007504 0.0016288 -0.00017087 -0.0015428 0.0015826 0.0016243 6.2321e-05 9.1589e-05 -0.00012509 0.00092098 -3.0451e-05 0.00087591 0.0011763 0.00022707 -0.0018932 -0.00020207 0.0013037 0.00034103 -3.3671e-05 0.0021476 -0.0021238 -0.0028936 -0.0020245 0.00096674 0.0001386 -0.00024846 0.0031645 0.0014907 0.0016564 0.00016357 0.0015364 -0.00033753 0.0011105 0.00016732 -6.3638e-05 0.00051968 0.00012754 0.0013502 -0.00013347 -4.0817e-05 -0.0017994 -0.0019628 -0.00044963 0.00033487 0.002006 0.00037744 0.00028603 0.00088142 -0.00042035 -0.00052447 -0.0012647 0.0011139 0.00016023 -0.0014189 -0.00067042 0.00018034 -0.00071535 -0.00085375 0.00083574 0.00051104 -0.0014175 0.00073205 -0.00048489 0.00013278 0.00096781 0.00079638 0.0023451 0.0012458 0.000816 0.00027404 0.00065244 -0.0032635 -0.0024583 -0.00059792 -0.0012543 -0.00047439 0.00078652 -0.0017264 0.00031855 0.0041132 0.0011415 0.0012182 0.0017415 -0.0020122 0.0011303 -0.00047357 -0.0021194 -0.00062902 9.9952e-05 -0.0011551 0.00022922 0.00014277 -0.00046781 -0.0024031 -0.00044965 2.0999e-06 0.0011304 0.0009314 -0.00052232 0.0030447 -0.00029155 
basáskodik 0.0027655 -0.0029201 0.0068646 0.0011152 -0.014491 -0.0028373 -0.0038088 -0.0023152 -0.010959 -0.0039842 -0.0072741 0.012077 -0.012152 0.0097703 -0.0019647 -0.0078188 -0.022863 -0.0014952 -0.0088686 -0.0094617 0.015047 0.0052976 0.019852 0.0048252 0.0003951 -0.0056327 -0.01176 -0.0048517 0.00036318 0.0047399 -0.0030396 0.013012 -0.019991 -0.010883 -0.018769 0.011808 0.011165 -0.0076125 -0.0095306 -0.0039538 0.0011475 -0.0083931 -0.0089644 -0.0061258 -0.0058764 -0.0073735 -0.011243 0.0036501 0.0062118 -0.013437 0.0037513 0.0031206 -0.010338 0.0093494 0.019591 0.012839 -2.5273e-05 -0.0077795 0.00030206 -0.011787 -0.0035433 -0.0077402 -0.0037832 -0.016507 -0.005752 0.0041283 -0.016051 -0.020806 -0.015682 -0.010881 0.0099177 -0.00056621 0.004517 0.01751 0.016058 0.00414 -0.0051715 -0.012491 -0.0020736 -0.0054449 -0.0072214 0.0035318 0.0011365 0.019153 -0.0094185 -0.0064129 0.0062158 0.019659 -0.0039604 0.0035887 0.0076458 -0.01103 -0.00067856 0.013907 -0.0047794 0.00038936 0.0082199 0.022333 0.010411 0.049335 -0.018034 -0.0030843 0.007032 -0.0086465 0.024509 0.013127 0.003806 0.006654 -0.0025822 0.00011341 0.0041635 0.0014408 -0.014795 -0.0079744 -0.0033319 -0.008228 0.0033054 -0.013004 0.0088225 0.021275 -0.01168 0.014915 -0.020453 0.006282 0.0016755 -2.4663e-05 0.010908 0.0089064 0.0020039 -0.0038981 0.00025041 0.0211 -0.022477 -0.0046134 
bánkódik 0.0027607 -0.0028813 0.009518 0.0033652 -0.01896 -0.0052163 -0.0019839 -0.002014 -0.013132 -0.0039075 -0.0089489 0.014273 -0.014271 0.010192 0.00011482 -0.011044 -0.025318 -0.00058237 -0.011187 -0.0097281 0.017736 0.0069915 0.020273 0.0038917 3.3569e-05 -0.0083029 -0.015943 -0.0046662 0.001203 0.0053632 -0.0031493 0.013219 -0.020605 -0.012707 -0.020143 0.013887 0.012301 -0.01064 -0.01127 -0.0040948 0.00073988 -0.008611 -0.0099731 -0.0076755 -0.0076026 -0.0076464 -0.013178 0.0021133 0.0062397 -0.014246 0.0025163 0.0016344 -0.010636 0.010494 0.020773 0.013591 -0.001731 -0.0068065 -0.00065812 -0.010974 -0.0033234 -0.0080854 -0.0039548 -0.016927 -0.0054768 0.005195 -0.017446 -0.020374 -0.017313 -0.01116 0.010541 -0.0020049 0.0064477 0.020321 0.018083 0.0040648 -0.0061021 -0.013173 -0.0032031 -0.0060033 -0.009259 0.004612 0.004145 0.022219 -0.011781 -0.0085177 0.0070651 0.02057 -0.005049 0.0027639 0.010796 -0.012887 -0.00084627 0.017541 -0.0039714 -0.0027432 0.010502 0.026098 0.010952 0.057642 -0.021937 -0.0034864 0.0067534 -0.0091426 0.027219 0.012413 0.0046095 0.010273 -0.0022445 0.0021948 0.0038115 -0.00028497 -0.01636 -0.0097198 -0.0034798 -0.008933 0.0018686 -0.012607 0.0095427 0.022773 -0.013801 0.017156 -0.025184 0.0080923 0.0014618 0.00083901 0.012073 0.0080004 0.0028954 -0.0019131 0.001269 0.022012 -0.02515 -0.0036028 
vádaskodik 0.0020856 -0.0019565 0.0059645 0.0026848 -0.012494 -0.0031743 -0.0034032 -0.0021101 -0.010716 -0.0024221 -0.0072285 0.011365 -0.010199 0.0087268 -0.0021754 -0.0077583 -0.018929 -0.00076855 -0.0070194 -0.0082542 0.012779 0.0041643 0.018063 0.0040647 0.00072601 -0.0052972 -0.010646 -0.0029293 4.1421e-05 0.0054147 -0.0020493 0.011098 -0.017359 -0.0096986 -0.017815 0.011242 0.0091724 -0.008135 -0.0077766 -0.0042017 -0.00081178 -0.007046 -0.0086396 -0.0059314 -0.0047646 -0.0063836 -0.010467 0.0010545 0.0058176 -0.013015 0.0018413 0.0021775 -0.0096406 0.0094851 0.016471 0.010851 -0.0015104 -0.006329 -0.0012867 -0.008381 -0.0026178 -0.0057286 -0.0036587 -0.013012 -0.0041029 0.0037514 -0.01403 -0.019355 -0.014054 -0.0087516 0.0076863 -0.0013679 0.0036861 0.016062 0.01426 0.0038123 -0.0045062 -0.010616 -0.0026271 -0.0055896 -0.0063604 0.0031853 0.0013216 0.01607 -0.0094024 -0.0056024 0.005828 0.017674 -0.0028569 0.00080501 0.0079673 -0.0093599 -0.0010175 0.013065 -0.0025619 -0.00014869 0.0081284 0.019667 0.0082309 0.043584 -0.016453 -0.0023672 0.0049314 -0.0076369 0.023034 0.011581 0.0035385 0.0069134 -0.0026148 0.0012325 0.0029353 0.0013188 -0.013118 -0.0075714 -0.0043518 -0.0070059 0.0028598 -0.010581 0.0086846 0.019132 -0.01014 0.014913 -0.019054 0.0067252 0.0013339 -0.00014784 0.0094213 0.0082193 0.0023653 -0.0029193 0.00014463 0.018383 -0.018766 -0.0024592 
fonódik 0.0017202 -0.00049696 0.0075465 0.0025576 -0.015819 -0.003359 -0.00404 -0.0015452 -0.011966 -0.0039631 -0.0075104 0.011827 -0.010102 0.0089243 -0.0022566 -0.0092016 -0.021764 -0.0013372 -0.0094723 -0.0082684 0.015859 0.0069164 0.017091 0.0044258 0.0011838 -0.0073392 -0.013926 -0.0044226 0.0017914 0.0036961 -0.0022435 0.013222 -0.018188 -0.012325 -0.019471 0.011815 0.0085911 -0.0083085 -0.0090727 -0.0044835 0.00018273 -0.0084361 -0.0084161 -0.0063971 -0.0051332 -0.0062599 -0.011497 0.0011045 0.0040504 -0.014417 0.0030744 0.0026801 -0.010276 0.008176 0.018242 0.011352 0.0011258 -0.0056911 -0.00031446 -0.01078 -0.0034503 -0.0065206 -0.0044002 -0.015261 -0.0047519 0.0058079 -0.01667 -0.0184 -0.015572 -0.01003 0.0098764 -0.0020039 0.0054963 0.01682 0.015852 0.0030122 -0.006454 -0.012411 -0.003111 -0.0068766 -0.0077013 0.0038819 0.0038235 0.020762 -0.010642 -0.0078801 0.0078431 0.020467 -0.0041961 0.0034906 0.0079541 -0.011986 -0.0015609 0.015342 -0.0047333 -0.0014041 0.01046 0.024641 0.010799 0.055375 -0.020721 -0.0028153 0.0071057 -0.009345 0.023325 0.012013 0.0050673 0.0065966 -0.0021872 0.0019239 0.0035989 0.0012136 -0.01436 -0.0092758 -0.0031335 -0.0070686 -6.5772e-05 -0.01221 0.0088308 0.020652 -0.012775 0.016449 -0.024231 0.0080386 0.0014055 -0.00081313 0.010669 0.0088799 0.0022365 -0.0027006 0.00039177 0.022956 -0.022918 -0.0031844 
hatalmaskodik -5.9881e-05 0.00058165 -0.0029363 -0.0005207 0.0070077 0.0021455 0.00071281 0.00061001 0.0049177 0.0021015 0.002737 -0.0057267 0.0055268 -0.0057386 0.0016749 0.0049018 0.0085424 0.00055497 0.0037805 0.0030723 -0.0053658 -0.0029614 -0.0061673 -0.0014385 -0.0007836 0.0035822 0.0036171 0.0026257 -0.00062146 -0.0011871 0.00090676 -0.0041041 0.002365 0.00085487 0.0015298 -0.0019225 -0.0023602 0.001565 0.0016566 -0.00042551 0.00016389 0.00011282 0.0010146 0.000292 0.0013634 0.0014336 0.0030926 -0.00029214 -0.00024129 0.0019367 -0.00044914 -0.0011095 0.0015307 -0.0015886 -0.0047999 -0.0028017 -4.5729e-05 0.0010373 0.00022403 0.0026132 0.0013271 0.00081635 -1.734e-05 0.0031269 2.9753e-05 -0.00058353 0.0017639 0.00088927 0.0017504 0.00067558 -0.00087371 0.00066374 -0.0011672 -0.0035145 -0.0032938 -9.7465e-05 0.001765 0.0022966 0.00061963 0.00010545 0.0025813 -0.0020501 -0.0023739 -0.0047542 0.0015874 0.0017336 -0.00079966 -0.003774 0.0011518 -0.0017153 -0.0026153 0.0016009 0.00047828 -0.0019484 0.0011236 0.0016386 -0.0017801 -0.0013607 -0.00077278 -0.0042264 0.0042879 0.00077966 -0.0014378 0.00063309 -0.0053046 -0.0030619 -0.0011942 -0.0026056 -0.00051538 -0.0012541 -0.00045447 0.00016891 0.0046894 0.0023817 0.0010867 0.0030787 0.0007169 0.0022136 -0.0020245 -0.003688 0.0022235 -0.0018866 0.0014971 -0.00067726 0.00037969 0.00047191 -0.0026037 -0.0012102 -0.00056102 -0.00066484 0.00018385 -0.0031517 0.0065336 0.0014942 
duhajkodik -0.0019064 -0.00074536 -0.0093965 -0.0041507 0.020874 0.006769 0.0032973 0.0041104 0.013552 0.0036772 0.0080975 -0.017685 0.017141 -0.015494 0.0033634 0.010653 0.026075 -0.00023043 0.011361 0.0112 -0.017622 -0.0081177 -0.022272 -0.0045318 -0.00048152 0.0079142 0.016129 0.0064578 -0.0015292 -0.0065233 0.0033256 -0.013719 0.014675 0.0068723 0.013483 -0.0081854 -0.0087973 0.0071435 0.0064688 0.0019573 -0.00049613 0.0056798 0.0072046 0.0039069 0.0050356 0.006178 0.010639 -0.0022275 -0.003777 0.010219 -0.002367 -0.0015227 0.008581 -0.009573 -0.019089 -0.01171 0.00093238 0.0071215 0.0031661 0.0098242 0.0034499 0.0054995 0.0025517 0.014329 0.0034921 -0.0034484 0.012232 0.01146 0.0093753 0.0074683 -0.0062361 0.0020174 -0.0051235 -0.015403 -0.014462 -0.0027681 0.0065115 0.010371 0.0028578 0.0044589 0.007015 -0.0029568 -0.0039873 -0.017763 0.0063714 0.0070424 -0.0049249 -0.015399 0.004824 -0.0032598 -0.0084616 0.0095791 0.0011468 -0.013484 0.0035351 0.0018412 -0.0057201 -0.012974 -0.0050731 -0.03078 0.016395 0.002572 -0.0058441 0.0056731 -0.022918 -0.010131 -0.004479 -0.006727 0.0029337 -0.0018242 -0.003155 0.0006277 0.016456 0.0096267 0.0042486 0.0094741 -0.0017195 0.0099662 -0.0071316 -0.016435 0.0079378 -0.011588 0.011468 -0.004038 -0.00057431 -0.00028564 -0.0088404 -0.0062671 -0.0041198 0.0018594 -0.0012018 -0.018588 0.024243 0.0048737 
heccelődik -0.00076422 -0.00025489 -0.0068457 -0.0016729 0.012598 0.003884 0.0023663 0.0028602 0.011194 0.0026241 0.0063452 -0.010874 0.012369 -0.0098288 0.0022581 0.0075079 0.017818 0.0011835 0.0060464 0.0074647 -0.011925 -0.0061895 -0.016993 -0.0030852 0.00060339 0.0046034 0.0098787 0.0046021 -0.0014253 -0.0041166 0.0023844 -0.010619 0.0091425 0.0045024 0.0088038 -0.0055819 -0.0055313 0.0063624 0.0050823 0.0002573 0.00035081 0.00287 0.004918 0.0036064 0.0047438 0.004531 0.0070905 -0.00060443 -0.0032177 0.0085903 -0.00049211 -0.00065418 0.006175 -0.0065498 -0.013676 -0.0081811 0.0014335 0.0039363 0.0012557 0.0083655 0.0022859 0.0040444 0.0025762 0.010137 0.0039652 -0.0016826 0.007173 0.0088345 0.0073804 0.0051857 -0.0043737 0.0016059 -0.0036803 -0.011144 -0.011317 -0.002738 0.0038949 0.0079482 0.0023409 0.0038169 0.0060202 -0.0025566 -0.0023777 -0.012193 0.0065633 0.0034804 -0.0036438 -0.011573 0.0020749 -0.0027976 -0.0058079 0.00615 0.0012386 -0.010141 0.0013769 0.0025399 -0.0044658 -0.009607 -0.0051093 -0.022778 0.011864 0.0025834 -0.0054676 0.006251 -0.019081 -0.010144 -0.0036847 -0.0069941 0.0024689 -0.0015041 -0.0022498 -0.00094157 0.013095 0.007318 0.0024101 0.0075898 -0.0022917 0.0075811 -0.0048643 -0.012746 0.0056972 -0.0070908 0.011027 -0.0042191 -0.001112 -0.00041408 -0.0069198 -0.0048457 -0.0021385 0.0021202 -0.00038719 -0.014487 0.019531 0.0029966 
idegeskedik -0.0026193 0.00026526 -0.0090384 -0.0039311 0.019521 0.0057638 0.003085 0.0039971 0.013344 0.0040016 0.0092007 -0.01541 0.015988 -0.014243 0.0028182 0.010036 0.023812 0.0014319 0.010692 0.0095132 -0.015758 -0.0078942 -0.021014 -0.004737 -0.0005651 0.0066289 0.012871 0.0049777 -0.00082488 -0.0050894 0.0037868 -0.012218 0.015867 0.0089343 0.013959 -0.0095505 -0.0093061 0.0081226 0.007583 0.0030696 -0.00011685 0.0070325 0.0079118 0.0063303 0.0052763 0.0067337 0.011145 -0.00098081 -0.0050447 0.012697 -0.0024082 -0.0021201 0.0099491 -0.0094565 -0.022206 -0.012822 0.0020406 0.0074457 0.0020885 0.0098249 0.0037365 0.0060232 0.0040496 0.015417 0.0036163 -0.0047281 0.011377 0.013751 0.010644 0.0079463 -0.0067426 0.0013153 -0.0040607 -0.014286 -0.016014 -0.0018714 0.0042133 0.011167 0.0019056 0.0053706 0.0075403 -0.0042443 -0.0044381 -0.017246 0.0084721 0.0073788 -0.0049048 -0.015455 0.0034498 -0.0031304 -0.0080929 0.010012 0.00046084 -0.012466 0.0034181 0.0016912 -0.0065657 -0.013849 -0.0059764 -0.032718 0.016128 0.0015877 -0.0060503 0.0066181 -0.025165 -0.013293 -0.004663 -0.0084638 0.0014734 -6.0121e-05 -0.0038226 0.00040513 0.016218 0.010117 0.003909 0.0094732 -0.0033029 0.010258 -0.0072876 -0.018912 0.0076106 -0.012765 0.015191 -0.0051723 -0.0010179 0.00051455 -0.0096877 -0.0071685 -0.0034671 0.0022046 0.00025429 -0.020587 0.025809 0.0045754 
tenißezik -0.0018884 0.0016029 -0.010789 -0.0039824 0.026115 0.0060589 0.0047243 0.0037023 0.019613 0.0038951 0.01329 -0.020216 0.020966 -0.016275 0.0015171 0.013803 0.031619 0.0020484 0.014438 0.012062 -0.020477 -0.010119 -0.03156 -0.0049662 -0.00080039 0.009699 0.01756 0.0074963 -0.0008082 -0.0074682 0.0036824 -0.016582 0.020581 0.01033 0.019571 -0.013271 -0.010185 0.0084999 0.011071 0.0019685 0.00026402 0.0091072 0.010703 0.0075207 0.0075401 0.0078999 0.013505 -0.0025147 -0.0047932 0.014869 -0.0042261 -0.0032879 0.01088 -0.011923 -0.023319 -0.013349 0.0021009 0.0098811 0.0033723 0.011093 0.0027521 0.0085479 0.0036088 0.020728 0.0067477 -0.0034011 0.016165 0.018 0.015636 0.0087438 -0.0086434 0.0020711 -0.0067017 -0.019925 -0.019443 -0.0032488 0.0074207 0.012908 0.0042617 0.0071784 0.010004 -0.0040393 -0.0044052 -0.022459 0.011681 0.010395 -0.0079004 -0.021628 0.0041802 -0.0037133 -0.011142 0.014717 0.001152 -0.018466 0.0040218 0.00331 -0.011053 -0.02498 -0.011654 -0.055932 0.024981 0.0041782 -0.0095845 0.0086707 -0.034792 -0.018209 -0.0056665 -0.010386 0.0039059 -0.0020009 -0.0046454 -0.0010085 0.023744 0.014278 0.0068448 0.015046 -0.0047063 0.017754 -0.010849 -0.027866 0.014531 -0.019742 0.024309 -0.0098371 -0.0012621 0.0006273 -0.015196 -0.0096513 -0.0052783 0.0058846 -0.00090938 -0.030272 0.037144 0.0074697 
idegenedik -0.0020358 -0.00078624 -0.0089178 -0.0026117 0.020718 0.004928 0.0038811 0.0040291 0.015329 0.0036273 0.010224 -0.016486 0.018037 -0.013991 0.0023239 0.0092678 0.025216 0.0004871 0.012159 0.010041 -0.01719 -0.0092752 -0.023394 -0.0041859 -0.0010676 0.0073545 0.015058 0.0070348 -0.00023692 -0.0050246 0.0036563 -0.013482 0.015758 0.0097419 0.016067 -0.0094103 -0.0081414 0.0086528 0.0087212 0.0030123 -0.00047039 0.0069871 0.0088958 0.0064454 0.0051063 0.0071018 0.012233 -0.0016463 -0.0048982 0.012519 -0.0038399 -0.0027135 0.010309 -0.011107 -0.022752 -0.014094 0.0012868 0.0062801 0.0027262 0.010975 0.0037102 0.007035 0.0029777 0.016967 0.0039998 -0.0041135 0.011577 0.014373 0.011984 0.0081039 -0.0082544 0.0014585 -0.0055467 -0.015511 -0.015214 -0.0032831 0.0057026 0.011385 0.0023142 0.0062037 0.0078397 -0.0036039 -0.0031787 -0.018453 0.0079473 0.0069856 -0.0064371 -0.016128 0.0043092 -0.0035033 -0.0087707 0.010126 0.00094964 -0.014425 0.0030133 0.0027561 -0.0068219 -0.016962 -0.00654 -0.035206 0.017352 0.002124 -0.0074892 0.00636 -0.027014 -0.013016 -0.00515 -0.0083741 0.0020397 -0.00033068 -0.0036795 -0.00048782 0.018216 0.011354 0.0048069 0.010081 -0.003623 0.011484 -0.0077941 -0.018666 0.0092808 -0.013106 0.015988 -0.0057448 -0.00074322 0.00078521 -0.0096513 -0.0072276 -0.0047184 0.0032781 -0.0010954 -0.020551 0.027417 0.005019 
itatódik 0.0016989 0.00043796 0.0044287 0.0022875 -0.0085419 -0.0043092 -0.002214 -0.0015712 -0.0081702 -0.0013956 -0.0055619 0.0081343 -0.0072921 0.0047157 -0.0010797 -0.0039403 -0.014917 -0.00055737 -0.0051691 -0.0033816 0.0095412 0.0034085 0.011404 0.002424 -0.00020836 -0.0062904 -0.0081289 -0.0037247 0.0012597 0.0036023 -0.0020214 0.0080447 -0.012785 -0.0079364 -0.01273 0.0087131 0.0072076 -0.0041925 -0.0060105 -0.0028032 -0.00042877 -0.0038973 -0.0067099 -0.0039466 -0.0045651 -0.005247 -0.0071204 0.00030205 0.0031843 -0.0088976 0.0012333 -0.00018524 -0.0073372 0.0059304 0.011594 0.0080545 -0.0015498 -0.0043086 -0.0009129 -0.006395 -0.0022382 -0.0036038 -0.0019862 -0.010821 -0.0024505 0.0045558 -0.011267 -0.013187 -0.010326 -0.005964 0.0066264 0.00050657 0.00451 0.011297 0.012072 0.0036204 -0.0036166 -0.007172 -0.0017006 -0.0026013 -0.0047183 0.003463 0.0033656 0.01412 -0.0065443 -0.006526 0.0038114 0.012494 -0.0024032 0.00068047 0.0051989 -0.0073075 -0.0012924 0.0094442 -0.0032958 -0.00052031 0.0080265 0.01519 0.0067433 0.037265 -0.014594 -0.002831 0.0057468 -0.0051741 0.016288 0.0083603 0.0033345 0.0046583 -0.0023257 0.0013753 0.0034202 0.0014048 -0.0066168 -0.0044829 -0.0022389 -0.0037784 0.00018409 -0.0091635 0.0060315 0.014463 -0.0080991 0.011208 -0.016176 0.0045579 0.0019173 0.00075874 0.0075232 0.0045842 0.0015355 -0.001715 -0.00055594 0.0137 -0.013215 -0.0036567 
taktikázik -0.0036337 0.0014174 -0.013331 -0.0043346 0.028497 0.0072859 0.0048127 0.0042596 0.021748 0.0050794 0.01401 -0.02425 0.024125 -0.018051 0.0024645 0.013957 0.036924 0.0023925 0.014434 0.015939 -0.023993 -0.011925 -0.032654 -0.006374 0.00015887 0.011407 0.020376 0.007315 -0.0027173 -0.0091889 0.0044274 -0.017717 0.022592 0.012886 0.021992 -0.014505 -0.012412 0.010608 0.011523 0.0027101 -0.00098126 0.0098401 0.011504 0.0074086 0.0094011 0.0082306 0.016612 -0.0018089 -0.0062529 0.018719 -0.0039535 -0.0020811 0.01438 -0.012619 -0.028083 -0.016561 0.00047415 0.0095036 0.0021157 0.013478 0.0049577 0.010914 0.0034133 0.022959 0.0056431 -0.0056738 0.018649 0.021437 0.01781 0.010249 -0.012165 0.00038465 -0.0077345 -0.024121 -0.022866 -0.0043464 0.0074215 0.015154 0.0043621 0.0096074 0.01035 -0.0056745 -0.0041001 -0.026643 0.011654 0.010577 -0.0086945 -0.026422 0.0049165 -0.0045794 -0.013623 0.015796 0.0029436 -0.021597 0.0036596 0.0025959 -0.01269 -0.027091 -0.012007 -0.060789 0.026755 0.0035068 -0.009058 0.011814 -0.036876 -0.018494 -0.0067621 -0.012217 0.0031422 -0.0017336 -0.0062955 -0.00089905 0.025136 0.014955 0.0050759 0.01461 -0.0033346 0.017765 -0.013369 -0.029035 0.015996 -0.018489 0.024574 -0.0089741 -0.0011954 0.00087939 -0.015269 -0.011948 -0.0046754 0.0047411 -0.0019986 -0.030532 0.038157 0.0070976 
dühösködik 0.003525 -0.00045506 0.0088768 0.0022948 -0.019424 -0.0037419 -0.0032198 -0.0035196 -0.012917 -0.0037384 -0.0076125 0.014223 -0.016079 0.012654 -0.0010548 -0.0086348 -0.024472 -0.0013554 -0.0091838 -0.010372 0.016112 0.0065641 0.023318 0.0037933 0.0004977 -0.0068853 -0.014554 -0.0051408 0.0010273 0.0049849 -0.0020879 0.015389 -0.018654 -0.012241 -0.019239 0.01146 0.011473 -0.0082428 -0.0087747 -0.0034904 -0.0001545 -0.0074099 -0.009646 -0.0075577 -0.0066489 -0.0067668 -0.013073 0.0027003 0.005289 -0.014161 0.0032513 0.0019117 -0.011085 0.0096774 0.020821 0.013468 -0.0011802 -0.0072925 -0.00023653 -0.010516 -0.003096 -0.0067663 -0.0045983 -0.015718 -0.0053255 0.005668 -0.015727 -0.020679 -0.017455 -0.0096083 0.010086 -0.00079984 0.0052283 0.01838 0.017921 0.004254 -0.0049199 -0.010741 -0.0031599 -0.0057876 -0.0086326 0.0046782 0.0036457 0.021524 -0.011017 -0.0077489 0.0069924 0.019971 -0.0025194 0.0022363 0.0095675 -0.010628 -0.0011778 0.015158 -0.0030568 -0.0015074 0.0092526 0.022019 0.010041 0.049242 -0.019048 -0.0033902 0.0064144 -0.0081582 0.024479 0.012074 0.0047352 0.0075756 -0.0029683 0.0010237 0.0044778 0.00024234 -0.014664 -0.0089912 -0.0053383 -0.0082217 0.0030614 -0.012143 0.0094244 0.018925 -0.010881 0.015255 -0.020696 0.0075582 0.0010523 0.00049657 0.011077 0.0090439 0.0029925 -0.0028972 0.0012789 0.022108 -0.023038 -0.0045476 
kéredzkedik -0.0022511 0.00023503 -0.0068485 -0.0025932 0.015388 0.0038777 0.0025524 0.0030006 0.012118 0.0042037 0.0064071 -0.013674 0.013239 -0.011316 0.0033234 0.0080263 0.018844 0.00038571 0.0091983 0.0084197 -0.012609 -0.0053179 -0.01866 -0.0037256 -0.00083242 0.0058363 0.0086529 0.0038528 -0.00076657 -0.0036833 0.0025518 -0.0095178 0.012025 0.0072687 0.011648 -0.0069665 -0.0065194 0.0067195 0.0075739 0.002274 0.00017892 0.00459 0.0052104 0.0037268 0.0049383 0.0050904 0.0087645 -0.0010034 -0.0037952 0.010411 -0.0025835 -0.0021194 0.0069319 -0.0084716 -0.017337 -0.0090961 0.0012814 0.0050213 0.0018933 0.0090381 0.0026411 0.0051233 0.0029205 0.012499 0.0022936 -0.0035508 0.0074896 0.011484 0.0090181 0.0061386 -0.0056211 0.00043909 -0.0038953 -0.01137 -0.013094 -0.0024798 0.004581 0.0088758 0.0020657 0.0049463 0.0062435 -0.0024263 -0.0021493 -0.013729 0.0062306 0.0055452 -0.0043232 -0.012047 0.0026578 -0.0015738 -0.0065731 0.0066379 0.00118 -0.010246 0.0021384 0.0016496 -0.0039584 -0.011882 -0.0055697 -0.025882 0.012493 0.0019973 -0.0057142 0.0063735 -0.019841 -0.010466 -0.0037721 -0.0061685 0.0025864 -0.00070351 -0.0037989 0.00065217 0.014091 0.0082003 0.0030066 0.0073824 -0.002167 0.008076 -0.0069647 -0.014828 0.0066993 -0.008749 0.011151 -0.0041282 8.1142e-05 0.0013127 -0.0090005 -0.0060368 -0.0031745 0.0027879 0.00052232 -0.015246 0.019822 0.0031474 
moso¬odik 0.0032483 0.00018721 0.0058323 0.0025403 -0.0099719 -0.0017303 -0.0020333 -0.0016598 -0.0075638 -0.0027591 -0.0049938 0.0089855 -0.0087482 0.0051002 -0.0010276 -0.0060923 -0.015883 -0.0013448 -0.0059976 -0.006764 0.010097 0.0050125 0.014256 0.0013731 -0.00068096 -0.0056635 -0.010683 -0.0025556 -0.00037178 0.0025075 -0.00061798 0.0067598 -0.013363 -0.0085795 -0.014458 0.010048 0.0095867 -0.006176 -0.0075861 -0.0025523 -0.0004016 -0.0059156 -0.0079677 -0.004693 -0.0042828 -0.0042607 -0.0095591 0.0021837 0.0057367 -0.0096712 0.0031268 0.0013169 -0.0082909 0.0084613 0.015365 0.0094768 -6.738e-05 -0.0051178 0.00041067 -0.0074061 -0.0015207 -0.0059189 -0.002792 -0.012631 -0.0040454 0.0046098 -0.011936 -0.014474 -0.011111 -0.0073029 0.0065985 -0.0017381 0.0032629 0.012185 0.01053 0.002489 -0.0028678 -0.0075156 -0.0014252 -0.0038218 -0.0048592 0.0017857 0.0020265 0.013489 -0.0078936 -0.0046916 0.0041427 0.013434 -0.0014891 0.00088258 0.003931 -0.0073533 -0.0013453 0.010893 -0.0011025 -0.00037697 0.0071129 0.015848 0.0078497 0.036854 -0.012864 -0.0023335 0.0052772 -0.0075183 0.018157 0.0075258 0.004351 0.0053985 -0.0010444 0.00061018 0.003836 0.00020538 -0.0081059 -0.0059948 -0.0021463 -0.0055885 0.00023592 -0.0097062 0.0042645 0.015206 -0.0090475 0.011465 -0.01538 0.0056515 0.000778 -0.00053602 0.0075236 0.0054035 0.0020298 -0.0025894 0.00080288 0.015629 -0.013853 -0.0020163 
utazik 0.0031202 -0.0017224 0.0079221 0.00042953 -0.017223 -0.0054171 -0.0020757 -0.0040114 -0.013999 -0.0035114 -0.0055549 0.013073 -0.014157 0.011825 -0.003865 -0.009145 -0.024043 -2.2048e-05 -0.0093814 -0.0099217 0.017074 0.0058799 0.020713 0.0037075 0.0021824 -0.0090334 -0.016527 -0.0063066 0.001832 0.0071114 -0.0040884 0.015121 -0.022341 -0.010718 -0.021812 0.014352 0.012937 -0.0094909 -0.011415 -0.0057147 0.0010475 -0.010083 -0.011356 -0.0064369 -0.005593 -0.0082576 -0.015261 0.0048795 0.0064997 -0.015701 0.0044203 0.0019788 -0.013465 0.012466 0.025485 0.016287 -0.0035304 -0.0077647 -0.0016655 -0.011902 -0.0043614 -0.008908 -0.0044555 -0.018342 -0.0061451 0.0052316 -0.018518 -0.022724 -0.015142 -0.0098368 0.008718 -0.00099742 0.0048863 0.018746 0.015411 0.0034986 -0.0073346 -0.012913 -0.0039149 -0.0061578 -0.0080184 0.0029285 0.0028565 0.019686 -0.0092956 -0.0064563 0.0054678 0.019161 -0.004101 0.0012156 0.0058977 -0.010076 -0.00079622 0.01205 -0.0028481 -0.00037248 0.0069408 0.016689 0.0068015 0.039488 -0.016001 -0.0015767 0.0060304 -0.0062985 0.022844 0.012478 0.0062233 0.0085185 -0.0021454 0.00039098 0.0030837 0.0010792 -0.011783 -0.0093284 -0.0023705 -0.007028 -0.0011322 -0.0084688 0.0055853 0.014917 -0.010424 0.011924 -0.016087 0.007459 0.0024123 -0.0022083 0.0087453 0.0064109 0.00024191 -0.0029691 -0.00029337 0.02058 -0.021879 -0.0041204 
futkározik -0.0020891 0.00051301 -0.01029 -0.0028029 0.021176 0.0066631 0.0034132 0.0044342 0.01486 0.004381 0.010742 -0.017654 0.017196 -0.013216 0.0023298 0.01126 0.025887 0.0012289 0.011389 0.011257 -0.017136 -0.0083024 -0.024863 -0.004824 -3.0872e-06 0.0073191 0.013292 0.0049702 -0.0013835 -0.0054957 0.0029851 -0.013385 0.015504 0.0080393 0.015582 -0.0099413 -0.008671 0.0062495 0.007272 0.00072549 0.00039588 0.0061589 0.0082431 0.0064286 0.0050293 0.006381 0.010646 -0.001856 -0.0051993 0.011282 -0.0023582 -0.003323 0.010033 -0.0090725 -0.018938 -0.013285 -0.00010199 0.0073078 0.0024292 0.0099234 0.0024383 0.0064138 0.0025759 0.015564 0.0029133 -0.0048668 0.013481 0.015137 0.012987 0.0073753 -0.0076974 0.0013639 -0.0057571 -0.017617 -0.016176 -0.0033468 0.0048994 0.011669 0.0039529 0.0053886 0.0068527 -0.0041569 -0.0043793 -0.019349 0.0093688 0.009589 -0.0066525 -0.019874 0.0046186 -0.0034254 -0.0083393 0.012012 0.0028507 -0.014679 0.0030265 0.0024567 -0.011485 -0.021108 -0.0095033 -0.046661 0.019524 0.0022883 -0.0067547 0.0093927 -0.028087 -0.014625 -0.0041413 -0.0091846 0.0025549 -0.00061306 -0.0038522 -0.00052215 0.018298 0.0107 0.0052543 0.011021 -0.0026075 0.012176 -0.0090006 -0.021583 0.010271 -0.012867 0.019061 -0.0053597 -0.00061598 -5.381e-05 -0.0084445 -0.0067498 -0.0024326 0.0034135 -0.00063553 -0.021913 0.026336 0.0044765 
titkolózik 0.0040364 -0.0014307 0.011119 0.0033448 -0.023083 -0.0070654 -0.004974 -0.0046322 -0.017795 -0.0048166 -0.0097885 0.019575 -0.018636 0.015342 -0.0022083 -0.012 -0.03212 -0.0015869 -0.01207 -0.01319 0.020869 0.0098692 0.027716 0.0036364 0.00049711 -0.011147 -0.019959 -0.0065867 0.0030853 0.0083284 -0.002418 0.01885 -0.024929 -0.014404 -0.024153 0.01585 0.014742 -0.011617 -0.012834 -0.004448 -0.00042604 -0.0098314 -0.011801 -0.0092066 -0.0088834 -0.010032 -0.018405 0.0041835 0.0083275 -0.018709 0.0056793 0.0026441 -0.014224 0.015371 0.029034 0.018344 -0.0034952 -0.0082828 -0.0013395 -0.014921 -0.0041639 -0.0097434 -0.0053274 -0.021232 -0.0063545 0.0065232 -0.019725 -0.026306 -0.019639 -0.013172 0.011304 -0.00092805 0.0063248 0.023591 0.022585 0.0047424 -0.0085173 -0.015248 -0.0039666 -0.0069135 -0.0092392 0.005968 0.0032267 0.026776 -0.011568 -0.0098 0.0079896 0.025234 -0.006278 0.0033304 0.0099373 -0.013689 -0.0011635 0.016648 -0.0037732 -0.002248 0.01006 0.021972 0.011054 0.05229 -0.023197 -0.0044964 0.0083324 -0.010324 0.032184 0.016017 0.0062297 0.009294 -0.0032485 0.0014528 0.0054008 0.00089141 -0.021003 -0.012146 -0.005154 -0.010742 0.0025112 -0.012915 0.0099248 0.023263 -0.012151 0.014716 -0.024125 0.0062284 0.0016945 0.00072911 0.01401 0.01097 0.0018244 -0.0050501 -0.00028759 0.027121 -0.030849 -0.0054424 
