101 997
</s> -0.020752 0.044342 0.14314 0.056739 0.11557 -0.018991 0.06624 -0.053236 -0.0092838 -0.036632 0.021285 -0.13649 0.18975 -0.039901 0.054258 0.13454 -0.0071855 -0.016933 0.006361 0.025432 -0.015779 -0.010761 -0.012109 0.0049669 -0.00077759 -0.0025306 -0.0016661 0.0053497 0.011588 -0.0022014 -0.0046981 4.0466e-05 -0.0073904 -0.0080269 0.046782 0.026302 0.016786 -0.014528 -0.047964 -0.05793 0.022831 0.018555 -0.060902 -0.034976 0.010573 -0.041526 0.020183 -0.0013643 -0.034238 -0.034339 -0.016237 -0.013805 0.024504 -0.013551 -0.046731 -0.0018085 0.039091 0.066145 -0.036946 -0.0011444 -0.022212 -0.0038562 0.029408 0.0046125 -0.039924 -0.02904 0.006418 -0.011585 0.0045996 0.022295 0.017202 0.032499 -0.0084008 -0.0083291 0.0021506 0.015783 0.023467 -0.0024803 -0.002054 0.026072 0.017719 -0.014767 -0.028812 0.015688 -0.048236 0.016156 -0.024661 -0.022226 0.086105 0.031056 -0.0089972 0.0050726 -0.002652 -0.019126 -0.043488 0.029513 0.009927 -0.00079139 0.008348 0.0010747 0.0086468 0.0047643 0.0075326 0.0070762 -0.0022675 -0.0067504 0.017148 -0.0073094 -0.0037279 -0.0010865 0.012705 0.0087905 0.0020848 -0.0065285 -0.012861 0.009071 -0.001995 0.00055728 -0.0082615 0.0015652 -0.00057321 -0.017183 0.0060896 0.014265 0.012841 -0.0094039 -0.01346 0.021497 0.012915 0.0075902 0.0060153 0.011316 -0.015225 -0.00056073 -0.031829 0.016613 -0.0051897 -0.0076978 -0.01046 0.026904 -0.0011794 -0.0004235 -0.0066687 0.010593 0.010353 0.019638 0.016137 -0.065088 0.008679 -0.032337 0.030893 -0.03873 -0.023882 0.025129 0.0012144 -0.024607 0.022792 -0.014727 0.071151 0.0092714 -0.014212 0.0073041 0.030002 0.038756 -0.020279 -0.040464 -0.037502 0.048772 0.054798 -0.0068209 -0.053834 0.010484 0.0012263 0.034133 0.060571 -0.092999 -0.0060092 0.030218 0.0033308 -0.0033604 0.001162 -0.031771 -0.0057903 0.016177 -0.015744 0.0004147 -0.014772 -0.010753 -0.03146 -0.015536 -0.0080418 0.009055 0.029574 -0.044138 -0.015937 0.024082 0.022156 0.0040796 -0.0015905 -0.038212 0.017995 0.012475 0.010686 0.023687 -0.0098633 -0.032764 0.0098829 -0.00083892 0.016447 0.029525 -0.011414 -0.032599 -0.0042913 0.0030296 -0.021695 -0.036381 -0.0058054 0.024552 -0.019212 0.023891 0.01405 -0.016406 -0.0068858 0.046757 -0.0072204 0.017833 0.0071867 0.0036974 0.028433 -0.031751 -0.022224 0.003826 -0.022865 0.03579 0.0056738 0.0080224 0.0055064 -0.017038 0.030496 0.013517 -0.075059 -0.005114 -0.019737 -0.010201 -0.056457 0.0030676 0.017645 0.029812 0.018543 -0.039687 -0.015254 -0.0047778 0.0252 -0.021869 0.036588 0.05208 -0.011435 0.040053 0.051781 -0.038808 -0.00768 0.041616 0.061767 -0.0011372 -0.027657 -0.03879 0.0013011 -0.0090458 -0.019848 0.0031136 0.035692 0.028017 -0.029341 -0.081361 -0.010308 -0.0029871 0.025566 -0.0074062 0.034317 0.019319 0.0035065 0.026595 -0.091621 0.053057 0.038445 -0.025457 -0.0038077 -0.0086647 0.019187 0.095098 -0.1313 0.054161 0.060301 0.15954 -0.097854 0.0218 0.082546 -0.026567 0.035046 -0.0090417 0.032893 -0.018961 0.030032 0.14208 -0.05662 -0.045522 -0.044073 0.0022487 -0.020517 -0.02765 0.02156 -0.18329 0.12933 -0.0090391 0.16346 0.018265 -0.061339 0.073253 -0.094089 -0.11602 -0.029025 0.0036417 -0.096546 0.043409 0.075713 -0.080761 0.035437 -0.0027021 -0.0074956 -0.058704 0.03057 0.086509 0.058032 0.012399 -0.029848 -0.065779 -0.030345 0.0017673 0.0012161 -0.044051 0.042972 -0.01805 0.047133 -0.042962 -0.027461 0.064044 0.04163 -0.024543 0.0055948 0.059792 -0.021854 0.019932 -0.021066 0.052744 -0.044679 6.3103e-05 0.04619 0.029266 0.048943 -0.01308 0.0080189 0.010575 0.022274 0.055544 0.012094 0.0051784 0.0085959 0.0047954 0.033793 -0.041823 -0.052059 0.0090272 -0.06162 0.043575 0.019472 -0.0052929 0.0031882 -0.0032232 0.012849 0.024299 0.03842 -0.0018034 0.036193 0.037818 -0.15646 0.10137 0.058893 -0.066776 -0.075601 0.0061874 0.038669 -0.084604 0.048163 0.072838 0.0065618 -0.17932 0.11613 -0.016079 0.14587 -0.006882 -0.017247 0.099517 -0.047839 0.066182 -0.044968 0.0052775 -0.080144 -0.040902 0.0069501 0.064504 0.059502 0.034932 0.062823 -0.032655 -0.060737 0.047366 -0.031586 -0.13233 -0.089083 -0.077028 0.085456 0.13812 -0.025387 -0.063515 -0.048324 -0.2071 -0.051312 -0.071367 -0.054132 0.10244 -0.018693 0.019147 0.060572 0.036353 -0.038807 -0.0066494 0.042878 -0.030236 0.015493 -0.027845 -0.023457 -0.040318 -0.049081 0.093415 0.0075643 -0.0286 0.02767 0.068912 0.025038 0.0074245 -0.021471 0.058069 -0.013224 0.021672 0.014387 0.010144 0.01323 -0.026919 0.031282 -0.13055 0.034077 -0.023247 0.053278 0.0092963 0.01328 0.013022 0.027132 -0.015647 -0.0047212 0.044379 -0.003913 -0.010699 -0.0023892 0.01624 -0.043499 0.044142 -0.014504 -0.020461 -0.00026597 -0.0055585 -0.012311 0.00050542 -0.0010797 -0.02684 -0.015609 0.035119 -0.060071 -0.05263 -0.030264 0.072411 -0.032894 -0.041053 -0.034141 -0.048169 0.076494 0.023336 0.022349 0.057682 -0.0024731 0.029006 -0.003643 -0.014725 0.0092829 -0.046365 0.0089355 -0.029258 -0.017008 0.030572 0.0072349 -0.020141 -0.034183 0.01504 0.0089329 -0.0049785 -0.016337 -0.056285 -0.0087014 0.013376 0.03468 0.0067489 -0.02033 0.058529 -0.013092 -0.034775 -0.02147 0.060238 0.02971 -0.075212 -0.028503 -0.029836 -0.010218 0.07369 0.052852 -0.043677 -0.0082273 0.20045 -0.0021288 0.14204 -0.005126 0.045728 0.0082775 0.0098373 0.061243 -0.13704 -0.01931 -0.012312 0.009181 0.051174 -0.06609 0.008711 -0.081355 0.043173 0.030526 -0.023393 -0.071692 -0.091087 0.0010416 0.039029 -0.0092496 -0.052933 0.015324 -0.062541 -0.020723 0.028983 0.0042496 0.044066 -0.057065 0.0095425 0.0037384 -0.054482 0.048318 -0.0071383 0.014572 0.010028 -0.049972 -0.001229 0.095509 0.032652 0.049407 -0.086503 0.039814 -0.0055811 -0.073104 0.0058483 -0.011163 -0.1253 -0.012652 0.05331 -0.12241 -0.1099 -0.13936 -0.14111 0.048215 -0.021263 -0.0097879 -0.015147 -0.010459 0.03044 0.02287 -0.0026727 0.086399 -0.078561 -0.012973 -0.044873 -0.029651 -0.041481 0.056883 0.040035 0.011179 0.0063333 -0.037407 0.0017133 -0.00067457 -0.010695 -0.025044 -0.00463 0.0054273 0.0050466 0.0031763 0.0054223 0.010538 -0.010259 -0.0002405 -0.0081342 0.011892 0.0052485 0.0068466 -0.030296 0.0020392 0.016345 -0.01543 -0.007599 -0.025851 -0.035319 0.0020816 -0.0081677 0.006892 -0.026509 0.027663 -0.020901 -0.11799 0.015543 -0.078107 0.047321 -0.12722 -0.019094 -0.048117 0.0047003 0.014119 0.059556 0.056687 0.085461 0.028992 0.0071523 -0.091872 0.02868 0.022392 -0.099809 0.057136 0.04685 -0.044409 0.15555 -0.040362 0.029164 0.030743 -0.054077 -0.045007 -0.033138 0.10097 -0.069416 0.048325 0.079579 -0.066398 -0.075806 0.017816 -0.030226 0.077545 0.0023005 -0.052737 -0.00037873 0.058122 -0.039249 -0.042962 -0.06752 0.033766 -0.096926 -0.087141 -0.0062326 0.024171 -0.024061 -0.020791 0.067068 0.043444 -0.050983 -0.050093 -0.051374 -0.10276 -0.05997 0.04062 0.13162 -0.0089601 0.09662 0.038743 -0.053899 -0.004643 0.027579 0.0012935 0.037646 -0.057531 -0.062173 0.0062278 -0.026935 0.032162 -0.00096761 -0.0017001 0.031362 0.011905 0.031551 -0.076377 0.064411 -0.052525 0.013162 -0.019085 0.03436 0.037193 -0.021715 0.0050593 -0.031192 -0.0086162 -0.033631 -0.0438 -0.051666 -0.0042344 -0.0024288 -0.05993 -0.032572 0.051571 -0.027112 -0.041968 0.035583 -0.044071 -0.0071531 -0.03319 0.038838 -0.027609 -0.091797 -0.024548 0.055741 -0.022516 -0.025574 -0.0016531 -0.044484 -0.034577 0.04125 -0.017358 -0.0081989 -0.016819 0.035012 0.038878 -0.021359 -0.03307 0.07839 0.064248 -0.018546 -0.0080876 -0.02096 -0.056126 0.097357 0.08134 0.029935 -0.044082 -0.044899 0.058963 -0.024285 0.063311 -0.14988 0.01223 0.059873 -0.014129 -0.04921 -0.15658 -0.031931 -0.05149 -0.082994 -0.0073624 0.018593 -0.043775 -0.015043 0.086721 -0.0096073 -0.022137 0.029454 -0.15819 0.076615 0.066767 -0.045331 0.0053468 0.040255 -0.097851 0.009623 0.097053 -0.028677 -0.010239 0.0048002 -0.026136 -0.010238 -0.014615 -0.094267 0.10955 0.0028168 0.089943 -0.15315 0.11066 -0.041569 0.012955 -0.039451 -0.014094 0.03852 -0.049727 -0.014557 0.011221 0.025011 0.045475 -0.012548 0.054101 -0.066818 0.029692 0.037838 -0.044653 0.02173 0.048555 -0.00047322 -0.061846 -0.021118 0.019965 -0.048502 -0.067486 -0.042894 -0.042937 0.015125 0.022298 0.0060078 0.0070988 0.066796 -0.030984 0.018745 0.024135 -0.022899 -0.045496 -0.099643 0.03244 -0.021145 -0.016674 0.0079168 -0.028337 -0.044991 0.0066824 0.11309 -0.040009 0.042397 0.029914 0.034489 -0.02147 -0.017329 0.0027957 0.0036955 0.0064452 0.011726 -0.0088201 0.0060274 0.0061413 -0.018293 0.0054916 0.025982 0.0079805 -0.01941 -0.0029104 0.0028474 -0.0091953 0.0087471 -0.029535 -0.030608 0.015212 -0.016736 -0.019674 -0.0091139 0.0034086 -0.0036547 -0.006199 -0.0082513 0.0074176 0.012985 0.0082106 -0.0075431 0.025043 0.024477 0.018672 0.035583 -0.0040341 -0.011748 0.004375 0.026771 -0.035223 -0.027896 0.038279 -0.027396 0.0063048 0.027611 -0.036133 -0.017143 -0.0063141 0.031765 0.023643 -0.0022015 0.0078503 -0.0088022 0.010679 0.012202 -0.0010055 0.00071409 -0.01304 -0.041037 -0.026084 0.0059894 0.016749 -0.0028089 0.012111 0.027214 0.00074145 0.011741 -0.025562 -0.0087317 0.00048868 -0.036579 -0.031363 -0.050298 -0.012034 0.011129 0.042204 -0.0037044 -0.021883 0.032899 0.044877 0.014907 0.013379 0.0047266 -0.022038 0.00056815 0.036234 -0.030499 -0.022146 0.024485 -0.0063859 -0.0066368 -0.051915 0.096959 0.0019576 0.029599 -0.028693 0.029661 0.062693 -0.011757 -0.051618 -0.081851 -0.082497 0.058141 0.064378 0.0068016 -0.0029385 0.03804 -0.023002 0.015159 -0.060502 -0.0118 -0.070623 0.0033074 0.11257 -0.0021698 -0.0647 -0.023003 -0.087569 0.096177 -0.049121 -0.11642 0.049548 -0.1047 -0.028622 0.0045253 0.046585 0.0085321 -0.0093932 0.01076 0.025155 -0.014365 -0.018279 -0.02466 0.029278 
NA 0.0019617 -0.0033506 -0.010719 -0.0040935 -0.0087745 0.0014564 -0.004925 0.004014 0.00067917 0.002848 -0.0016315 0.011737 -0.016464 0.0034864 -0.0046421 -0.011586 -0.0012263 -0.0031024 0.00079546 0.0042864 -0.002799 -0.0018589 -0.0020034 0.00085859 -0.00048609 -0.00045416 -0.0005823 0.0018597 0.0040116 -0.0010571 -0.0013015 0.00010773 1.3608e-05 0.00010431 0.00089618 0.00062045 0.00019472 -2.0055e-05 -0.00076771 -0.00082321 8.6975e-06 0.00016934 -0.00068717 -0.00026933 0.00022411 -0.00033742 0.00021474 0.00016032 0.0066199 0.0065278 0.0030932 0.0025989 -0.0046744 0.0025728 0.0088761 0.00035288 -0.0073567 -0.012506 0.0069404 0.00020791 0.0042308 0.00083616 -0.0055958 -0.00091486 0.0083319 0.0060944 -0.0012315 0.0023855 -0.00090001 -0.0045607 -0.0036261 -0.0066975 0.0017874 0.001692 -0.00036099 -0.0032701 -0.0049819 0.00051629 0.00035271 -0.0055567 -0.0010687 0.00085463 0.0016947 -0.00080346 0.0032423 -0.0010457 0.0014937 0.0015439 -0.0054888 -0.0020615 0.00051671 -0.00030006 7.4235e-05 0.0011498 0.0027741 -0.0017668 -0.0013666 -6.3655e-05 -0.0010568 -8.9285e-05 -0.0010399 -0.00069681 -0.00094919 -0.00077127 0.00015749 0.00078023 -0.0019667 0.00088203 0.0005933 0.00033407 -0.0016537 -0.0011491 -0.00028271 0.00086436 0.0018866 -0.0012385 0.00024751 -0.0002016 0.0011946 -0.00028749 0.00016637 0.0024976 -0.00087901 -0.002207 -0.0019107 0.0014696 0.002162 -0.0031969 -0.0021686 -0.0013081 -0.00092284 -0.0019452 0.0025303 5.2713e-05 0.005375 -0.0028581 0.00098362 0.0014636 0.0020378 -0.0051143 0.00015801 7.652e-05 0.0012932 -0.0019925 -0.00087697 -0.001367 -0.0011971 0.0048429 -0.00064017 0.00235 -0.0022341 0.0028486 0.0016505 -0.0018451 -0.00010729 0.0015469 -0.0015997 0.0010642 -0.0049645 -0.00055258 0.00089658 -0.00057352 -0.0022784 -0.0027425 0.0014644 0.0028842 0.0027282 -0.0033249 -0.0040421 0.0006021 0.0039423 -0.00088817 -0.00026397 -0.0023809 -0.0044371 0.0068538 0.00075324 -0.0034342 -0.00037428 0.00029394 -0.00020602 0.0035022 0.00048977 -0.0018639 0.0017017 -0.00017923 0.0017213 0.0013322 0.0036619 0.0018489 0.00096705 -0.00099552 -0.0037722 0.005502 0.002061 -0.0030893 -0.0026338 -0.00037473 6.6487e-05 0.0047196 -0.0023617 -0.0015276 -0.0013384 -0.0031342 0.0012608 0.0043878 -0.0012952 0.00019798 -0.002006 -0.0038901 0.0013886 0.0040992 0.00048699 -0.00049852 0.002697 0.0044867 0.00076645 -0.0028551 0.0023988 -0.0032306 -0.001847 0.0020297 0.00087528 -0.0059315 0.0009369 -0.0021639 -0.00088477 -0.00041388 -0.0035413 0.0038889 0.0027835 -0.00040311 0.0031262 -0.004808 -0.00061721 -0.0010487 -0.00062716 0.0021135 -0.0039559 -0.0018937 0.010326 0.00069939 0.0027091 0.0013809 0.0075129 -0.00040494 -0.0024574 -0.0040338 -0.0026276 0.0053189 0.0020801 0.00056762 -0.0032118 0.002856 -0.0047452 -0.0067461 0.0012782 -0.0052621 -0.0067281 0.0050035 0.00089084 -0.0055159 -0.0079437 0.00014155 0.0037809 0.0051706 -8.6149e-05 0.0012004 0.0026576 -0.00036865 -0.0046886 -0.0036706 0.0037408 0.010798 0.0015075 0.00031694 -0.0033669 0.0010319 -0.0046061 -0.0025214 -0.00050474 -0.0035353 0.012116 -0.006759 -0.0049337 0.0033678 0.0004786 0.0012003 -0.0026934 -0.013423 0.018399 -0.0076151 -0.008573 -0.022423 0.013751 -0.0030823 -0.011718 0.00362 -0.0050033 0.0013822 -0.0045764 0.00257 -0.0042463 -0.019791 0.0078765 0.0064897 0.006198 -0.0003823 0.0029375 0.0038988 -0.002979 0.02599 -0.017829 0.0012291 -0.022737 -0.0024251 0.0083748 -0.0099832 0.012797 0.015859 0.003509 -0.00064596 0.011891 -0.0053432 -0.0093681 0.010134 -0.0044475 0.00047 0.00098594 0.0069985 -0.0036357 -0.010436 -0.0069354 -0.0015348 0.0035721 0.0079126 0.0033712 1.5707e-05 -0.00011114 0.0047711 -0.0048246 0.0020121 -0.0053474 0.0048668 0.0030223 -0.0068864 -0.00446 0.002846 -0.00064334 -0.0071365 0.0027029 -0.0023556 0.0022761 -0.0059725 0.0051321 -6.9611e-05 -0.0052635 -0.0034065 -0.0056035 0.0015581 -0.00093483 -0.0012741 -0.0024994 -0.0063352 -0.0013623 -0.00043147 -0.00087531 -0.00048154 -0.0034492 0.0043188 0.0054592 -0.00095564 0.0063194 -0.0046396 -0.0018688 0.00060532 -0.00030965 0.0003391 -0.0014271 -0.0021639 -0.0036116 0.00014738 -0.003321 -0.0034763 0.017595 -0.011528 -0.0067016 0.0074208 0.0086537 -0.00056517 -0.0045394 0.009587 -0.0055602 -0.008617 -0.00080812 0.021029 -0.013561 0.0019076 -0.017041 0.00075639 0.0021911 -0.012483 0.0061017 -0.0083244 0.0055429 -0.00072397 0.010022 0.0052802 -0.00096618 -0.0080667 -0.0075018 -0.0044132 -0.007719 0.004134 0.0074841 -0.0058391 0.004107 0.017355 0.011668 0.010184 -0.011209 -0.01809 0.0034737 0.0083806 0.0064963 0.027393 0.0066976 0.0095178 0.0072157 -0.013536 0.0024022 -0.0024658 -0.0096555 -0.0058222 0.0063365 0.0010198 -0.0069485 0.0048204 -0.0024478 0.00443 0.0039234 0.0066387 0.0080684 -0.015553 -0.0012819 0.0046186 -0.0046275 -0.011425 -0.0033338 -0.00095642 0.0028154 -0.0077471 0.0018195 -0.0028809 -0.0019534 -0.0014691 -0.0019164 0.0037133 -0.0043197 0.018211 -0.0046925 0.0032534 -0.0073731 -0.00138 -0.0030404 -0.0029654 -0.0060125 0.0034344 0.0009329 -0.0099007 0.00085634 0.0023549 0.00053221 -0.0036365 0.0095641 -0.0098515 0.0030312 0.0044523 9.9417e-05 0.0013525 0.0019241 -0.00012417 0.00027476 0.003937 0.0021289 -0.0049643 0.0086021 0.0074186 0.0044197 -0.010429 0.004781 0.0060309 0.0048565 0.0070101 -0.011045 -0.0033241 -0.0046639 -0.012103 0.00047008 -0.005999 0.00086151 0.0031105 -0.0018918 0.0097259 -0.0017311 0.0056542 0.0032487 -0.0058397 -0.0013953 0.0038842 0.0064845 -0.002916 -0.0011956 0.00077841 0.00246 0.0091008 0.0013656 -0.0020578 -0.005629 -0.0010976 0.0029224 -0.0083386 0.0018614 0.0048349 0.0029013 -0.0084909 -0.0039879 0.010469 0.0040325 0.0041611 0.001479 -0.01045 -0.0074324 0.0062234 0.0012666 -0.028409 0.00028385 -0.020433 0.00074474 -0.0066194 -0.001293 -0.001359 -0.0086893 0.019688 0.0025332 0.0017762 -0.0011782 -0.0067148 0.0086949 -0.0011617 0.010853 -0.005594 -0.0039601 0.0031484 0.0098104 0.012253 -0.00012349 -0.005246 0.0014188 0.0072547 -0.0020118 0.0086016 0.0027424 -0.0040529 -0.0006438 -0.0061604 0.0077667 -0.0013178 -0.00050609 0.0075645 -0.0067178 0.0010355 -0.002047 -0.0012484 0.0069238 6.2523e-05 -0.013228 -0.0043346 -0.0068002 0.012019 -0.0055002 0.00073411 0.010189 -0.00080997 0.0014891 0.016111 0.0017235 -0.0068979 0.015943 0.014273 0.018123 0.018262 -0.006216 0.0026054 0.0011848 0.0020202 0.0014232 -0.0039161 -0.002912 0.00041255 -0.0096227 0.0087128 0.0012794 0.0050946 0.0033238 0.004559 -0.0062727 -0.0043605 -0.001545 -0.00089428 0.0052731 -0.00029234 0.00016002 0.0015575 0.0034433 0.00062219 -0.0012603 -0.0011964 -0.00069566 -0.0012552 -0.0023327 0.0023857 -1.2568e-05 0.0019065 -0.0014163 -0.00050603 -0.00068148 0.0037021 -0.00029853 -0.0020195 0.0018832 0.0010361 0.0042274 0.0057637 -0.00039228 0.0013951 -0.0011155 0.0042159 -0.0045623 0.003341 0.0058533 -0.00095255 0.0037426 -0.0023324 0.0063227 0.0010845 0.0023421 -3.2453e-05 -0.00045559 -0.0023527 -0.0023767 -0.0025432 -0.0007528 -0.00017884 0.0028695 -0.00076279 -0.0011214 0.004791 -0.0027898 -0.0021198 0.0021755 -0.0073518 0.0019746 -0.0012539 -0.0013642 0.0020726 0.0019027 0.0015537 -0.0042014 0.0029044 -0.0020242 -0.0031786 0.0028037 0.0030162 -0.00069887 0.001412 -0.003187 -3.0581e-08 0.0023841 0.00014728 -0.0023099 0.0015975 0.0017943 0.0026848 -0.0014233 0.0039342 0.0033885 0.00022761 -0.0013217 0.0012299 0.0011552 -0.0037313 -0.0024389 0.0029116 0.002897 0.0031065 0.0058088 0.0035063 -0.0024677 -0.0072717 0.00064704 -0.00541 -0.0020847 0.0031421 8.5825e-05 -0.0013486 -4.5789e-05 -0.0020931 0.002939 0.0033021 -0.00037947 0.0014676 -0.0014447 -6.1777e-05 -0.00012706 -0.0013122 -0.00046484 -0.00133 0.0032674 -0.0027969 0.0025961 -0.00058875 0.00086516 -0.0017403 -0.0018042 0.00109 -0.0003161 0.0014232 0.00058576 0.0017666 0.0023911 0.0026683 0.00031078 0.00011435 0.0033137 0.0017969 -0.0031675 0.001831 0.0026144 -0.0022108 0.0025753 0.00038261 0.0021151 -0.0023219 0.0018967 0.0062989 0.0016629 -0.0037694 0.001318 0.0016278 0.00011666 0.0030809 0.002294 -0.0031332 0.0012416 0.00063939 0.0012783 -0.0024418 -0.0030443 0.001651 0.0024 -0.0058341 -0.0047868 0.0014166 0.00063874 0.0016632 0.0040822 -0.0070811 -0.0049446 -0.001769 0.0029355 0.0027262 -0.0034732 0.0016137 -0.0039636 0.0093743 -0.00082372 -0.0039 0.00089022 0.0030743 0.0099868 0.0021389 0.0033713 0.0053585 0.00036467 -0.00082828 0.0019093 0.0006488 -0.0038383 0.0004902 0.00085979 -0.0010813 0.0071235 -0.0033096 -0.0029691 0.0020189 -0.00027788 -0.001573 0.0041638 -0.00047442 -0.0054399 0.0016341 0.00051412 -0.00018459 0.0014682 0.00054893 0.00084201 0.0050812 -0.007105 -0.00019251 -0.005598 0.0098477 -0.0069033 0.0024091 -0.0008061 0.0025076 0.00068133 -0.0019333 0.0024125 0.00069655 -0.00044361 -0.001228 -0.0023584 0.00088979 -0.0023591 0.0030093 -0.0014744 -0.0013992 0.0016549 -0.00095517 -0.0020438 -0.00019702 0.0049601 0.001728 -0.0016995 0.0040237 0.0055358 0.0035453 0.0035732 -0.0013015 -0.0018055 -0.00057815 -0.00062264 -0.0055966 0.0023532 -0.0015652 -0.0020798 0.0017981 0.0035862 0.0078989 -0.0025542 0.0017572 0.0014053 -0.00074532 0.0023285 0.0035618 -0.00048612 -0.008522 0.0029589 -0.0031797 -0.0019475 -0.0025273 0.0016005 0.0012257 -7.6549e-05 6.6301e-05 -0.00026947 2.9034e-05 0.00010027 6.2031e-05 1.3152e-05 0.00033278 -2.7692e-05 -0.00027734 -0.00012691 -5.1401e-05 0.00027708 5.7237e-06 -1.7099e-05 -0.00010578 -0.00038312 -0.0006386 0.00041284 -0.00014411 -0.0006079 -0.00025317 1.0949e-05 2.2885e-06 3.4521e-05 -0.00023446 0.00014029 0.00048934 -6.0292e-05 -0.00015013 0.00069907 0.00047424 -0.00053964 -0.0013963 -5.767e-05 0.00025547 -4.9386e-05 -0.00078535 0.0011957 0.0008898 -0.00045978 7.1217e-05 -0.00016684 -0.00027296 0.0005727 0.00027893 0.0001214 -0.00034395 -0.00098675 5.0584e-05 -0.00016738 0.00048283 -0.00041432 -0.00028939 -0.0001289 9.4697e-05 0.00045145 0.001026 0.00071464 -0.00011061 -0.00054252 0.00013303 -0.00039253 -0.00065497 -0.000147 -0.00024196 0.00077064 0.00025293 -3.4354e-05 0.0011409 0.0010096 0.0016676 0.00026791 -0.0002896 -0.00059944 0.00010921 0.00061607 -0.00090444 -0.0011411 -0.00049638 -0.0006296 -0.00026788 0.0010976 -2.5728e-05 -0.0013696 0.0012158 0.00095889 -0.0010591 0.0002624 0.00038597 0.002702 -0.0056135 -0.0001569 -0.0016724 0.0015289 -0.001555 -0.0020434 0.00043493 0.0016413 0.0024147 0.0024974 -0.0016182 -0.0018248 -0.00036188 0.00024339 -0.0015291 0.00076027 -0.00058179 0.0021629 0.00039873 0.002466 -0.00028431 -0.01062 6.6385e-05 0.0058595 0.0021311 0.0081537 -0.0090146 0.0045692 0.011117 -0.0045411 0.010013 0.002883 -0.00058292 -0.0044113 -0.0009397 0.00089964 -0.0011024 0.00050644 0.00047834 -0.0011584 -0.0031038 0.0023573 
haldoklik -0.0032945 0.0076422 0.024538 0.0098073 0.01975 -0.0031615 0.011279 -0.0091428 -0.0018335 -0.0067453 0.0037802 -0.024333 0.033502 -0.0070253 0.0095204 0.02369 -0.0092164 -0.022802 0.0074012 0.033358 -0.020539 -0.014062 -0.01563 0.0068784 -0.0023817 -0.0039851 -0.0035031 0.011489 0.024477 -0.0058289 -0.0085891 0.00049615 -0.0035778 -0.003917 0.025909 0.014681 0.0088062 -0.0074248 -0.025987 -0.031232 0.01171 0.0097648 -0.032605 -0.019224 0.0061049 -0.022639 0.01105 -0.00044507 0.015212 0.015757 0.0071887 0.0067119 -0.011578 0.0064317 0.021825 0.00055158 -0.017148 -0.029178 0.016501 0.00065423 0.0096229 0.0017741 -0.012983 -0.0016908 0.022474 0.016323 -0.0040067 0.0070091 -0.0024827 -0.012268 -0.010094 -0.018371 0.0044502 0.0048889 -0.0013733 -0.0093447 -0.012737 0.0021225 0.0012192 -0.014749 -0.01058 0.008806 0.01725 -0.0095699 0.027659 -0.0095889 0.014286 0.012823 -0.051007 -0.01834 0.0058334 -0.0029974 0.0021489 0.010992 0.025786 -0.017855 -0.015368 0.0031726 -0.014359 -0.0023276 -0.014345 -0.006802 -0.011624 -0.013203 0.0053734 0.012461 -0.029876 0.013054 0.005126 0.00078865 -0.02204 -0.015292 0.0036725 -0.009953 -0.017368 0.013888 -0.0034138 0.00010741 -0.011065 0.0020631 0.00013888 -0.02439 0.0081476 0.018466 0.018202 -0.012029 -0.016919 0.029398 0.015102 0.0093013 0.0076615 0.012793 -0.01792 -0.00045688 -0.035934 0.019143 -0.0066179 -0.011567 -0.014749 0.039984 -0.00091178 -0.0017607 -0.0091145 0.015413 -0.0041473 -0.0087394 -0.0068032 0.028523 -0.0039522 0.014343 -0.013482 0.016946 0.010588 -0.010926 -0.00086444 0.01105 -0.010372 0.006409 -0.031162 -0.004213 0.0059761 -0.0030476 -0.012106 -0.015732 0.0086221 0.01647 0.015365 -0.020477 -0.022859 0.0027142 0.022485 -0.0041008 -0.00019341 -0.014337 -0.02522 0.038625 0.0048894 -0.026294 -0.0024183 0.0033688 -0.0010093 0.027847 0.0056633 -0.013942 0.013221 0.00011717 0.011938 0.0080079 0.025685 0.012896 0.0066791 -0.0072779 -0.025501 0.038848 0.014286 -0.020714 -0.019736 -0.0038189 0.0011595 0.033382 -0.014553 -0.011272 -0.0092988 -0.02031 0.0085665 0.027223 -0.0091107 5.4877e-05 -0.013357 -0.024087 0.00924 0.027427 0.0037243 -0.0025627 0.01825 0.03119 0.0053136 -0.021936 0.016216 -0.020126 -0.011705 0.014177 0.0054247 -0.040262 0.0049744 -0.01256 -0.0047846 -0.003135 -0.02046 0.022523 0.01552 -0.0026231 0.012288 -0.01924 -0.0033736 -0.004668 -0.0033021 0.0095879 -0.016316 -0.0068394 0.04256 0.0030953 0.011393 0.0059084 0.032925 -0.0017069 -0.009573 -0.016705 -0.0097777 0.022143 0.0081835 0.0025511 -0.013592 0.011691 -0.020288 -0.02794 0.0064404 -0.021864 -0.028388 0.020901 0.004635 -0.022147 -0.033506 0.00085543 0.014106 0.020087 -0.0012131 0.0046772 0.010531 -0.0020557 -0.018264 -0.014535 0.014847 0.039911 0.0045287 0.0017842 -0.012283 0.0032871 -0.01656 -0.0098497 -0.0013749 -0.013377 0.045301 -0.026448 -0.018905 0.012093 0.0017347 0.0046085 -0.0034236 -0.017747 0.02416 -0.0099823 -0.010734 -0.029633 0.018179 -0.0041321 -0.015289 0.0048835 -0.0062574 0.0016752 -0.00602 0.0037329 -0.005582 -0.026324 0.011061 0.0088162 0.0081456 -0.00047652 0.0038997 0.0053838 -0.0041232 0.035187 -0.026765 0.001885 -0.033193 -0.0038435 0.012284 -0.015056 0.019302 0.023482 0.0088339 -0.00076925 0.028882 -0.013079 -0.022653 0.024299 -0.010344 0.00066983 0.0020203 0.01867 -0.0096896 -0.027806 -0.018624 -0.0037463 0.0094069 0.021357 0.010496 -0.0010099 -0.00068143 0.015476 -0.014653 0.0061969 -0.016228 0.014437 0.010149 -0.02416 -0.015452 0.0091612 -0.001914 -0.022368 0.0078158 -0.0077331 0.0088589 -0.022287 0.018552 -0.0002017 -0.019399 -0.012275 -0.020228 0.0055548 -0.0038556 -0.0045561 -0.010013 -0.025794 -0.0057573 -0.0021981 -0.0040966 -0.0024316 -0.014907 0.018339 0.023098 -0.0038211 0.027394 -0.019055 -0.0088696 0.0023815 -0.0012598 0.0015325 -0.0053879 -0.01111 -0.017016 0.00086199 -0.015677 -0.016827 0.034172 -0.021962 -0.012587 0.014603 0.016464 -0.0016196 -0.0083437 0.018317 -0.01073 -0.016237 -0.001812 0.039641 -0.02576 0.003407 -0.032119 0.0014734 0.0038238 -0.02187 0.010412 -0.01448 0.010164 -0.0010403 0.017654 0.0088021 -0.0013051 -0.014121 -0.013052 -0.0077433 -0.013898 0.0073299 0.013466 -0.010364 0.0053022 0.022229 0.014911 0.012898 -0.014094 -0.022898 0.0040587 0.010551 0.0080351 0.035007 0.0088057 0.011847 0.0091477 -0.017066 0.0032941 -0.0033184 -0.021777 -0.012868 0.013422 0.0025364 -0.015207 0.01107 -0.0053457 0.0099444 0.0084659 0.015056 0.018554 -0.034669 -0.0026482 0.01044 -0.010291 -0.02546 -0.0086063 -0.0026143 0.0075284 -0.020426 0.0046146 -0.007521 -0.0047865 -0.0031309 -0.0044177 0.0093903 -0.011126 0.04455 -0.011702 0.007858 -0.017984 -0.0032084 -0.0089486 -0.0087979 -0.020064 0.010909 0.0034682 -0.031615 0.0024978 0.0078997 0.0010961 -0.010039 0.028725 -0.029382 0.0096983 0.013157 0.00039442 0.0033175 0.003809 -0.00020431 0.00023434 0.0089515 0.0051475 -0.011949 0.019921 0.017777 0.0087242 -0.021237 0.0099002 0.012035 0.010279 0.014364 -0.022607 -0.0066891 -0.010832 -0.02771 0.00097872 -0.014051 0.0018692 0.0070204 -0.0041 0.021697 -0.0036878 0.01278 0.0070748 -0.013285 -0.0034595 0.0093243 0.015089 -0.0065358 -0.0026862 0.001643 0.0048167 0.016532 0.0025187 -0.0041624 -0.0097148 -0.0021106 0.0046654 -0.014079 0.00322 0.0082884 0.0052206 -0.014267 -0.007174 0.017943 0.0056532 0.0058708 0.002033 -0.014492 -0.010826 0.0088414 0.0017121 -0.040188 0.00041351 -0.026195 0.00085531 -0.0080931 -0.0015314 -0.0020188 -0.011183 0.024957 0.0061752 0.0035767 -0.0029766 -0.015895 0.020405 -0.0022349 0.024792 -0.013586 -0.0087473 0.0067248 0.019868 0.025263 -0.00023945 -0.010868 0.002474 0.014456 -0.0045334 0.017901 0.0060892 -0.0082976 -0.0011204 -0.012324 0.016205 -0.0030303 -0.0011637 0.015312 -0.013561 0.0021436 -0.0039705 -0.0031838 0.013989 0.00031461 -0.020231 -0.0070012 -0.010594 0.01838 -0.0082887 0.0012551 0.015376 -0.0010946 0.0019449 0.023267 0.0021483 -0.0099366 0.022842 0.020684 0.026099 0.026481 -0.016627 0.0073844 0.0033531 0.004942 0.0033351 -0.010346 -0.0080456 0.00061333 -0.024855 0.022785 0.0039786 0.012792 0.0086067 0.012183 -0.016416 -0.011682 0.010508 0.0058831 -0.034857 0.0012401 0.00038958 -0.0094149 -0.023481 -0.0051221 0.0098979 0.0091361 0.0055201 0.0084575 0.016974 -0.018436 -0.0010579 -0.012791 0.013471 0.0059595 0.0086703 -0.034822 0.0021618 0.017828 -0.017391 -0.0077295 -0.011328 -0.015638 0.00068713 -0.0037509 0.0029714 -0.011837 0.012157 -0.0092648 -0.030342 0.0038753 -0.020058 0.012029 -0.032688 -0.0047023 -0.012484 0.0014112 0.0042239 0.017122 0.016251 0.025285 0.0088658 0.0020878 -0.027256 0.0086652 0.0057219 -0.026015 0.014646 0.012375 -0.011514 0.040219 -0.010269 0.0077095 0.00828 -0.014815 -0.012029 -0.0088415 0.027282 -0.018825 0.013307 0.021591 -0.015846 -0.018284 0.004286 -0.0071969 0.018751 0.00062178 -0.01255 8.4518e-05 0.016218 -0.011133 -0.011959 -0.018985 0.0093902 -0.027199 -0.024671 -0.0017125 0.0050985 -0.0053461 -0.004418 0.014797 0.0098236 -0.011145 -0.010877 -0.01099 -0.025943 -0.015111 0.010097 0.033541 -0.0019805 0.024415 0.010054 -0.013401 -0.0023026 0.011134 0.00069692 0.014861 -0.022835 -0.024333 0.0024054 -0.010287 0.010964 -0.00062287 -0.00091601 0.010798 0.0042657 0.010837 -0.026338 0.021947 -0.02164 0.005439 -0.0077845 0.013977 0.015603 -0.008871 0.0022126 -0.013204 -0.0030054 -0.013112 -0.017134 -0.020388 -0.0016984 -0.001071 -0.023053 -0.012689 0.018544 -0.009478 -0.015314 0.012857 -0.01626 -0.0026843 -0.012037 0.014069 -0.0092325 -0.030422 -0.0082388 0.018075 -0.0077626 -0.0085842 -0.00051052 -0.014685 -0.0081648 0.0090673 -0.0040216 -0.0017699 -0.0039003 0.008133 0.0086463 -0.0046333 -0.0075866 0.017546 0.014222 -0.004048 -0.0015476 -0.0044803 -0.012469 0.021915 0.023096 0.0086192 -0.012104 -0.012583 0.016917 -0.006703 0.017685 -0.042022 0.0036366 0.016095 -0.0037717 -0.013141 -0.041976 -0.0085017 -0.013731 -0.022269 -0.0020483 0.0053682 -0.012661 -0.0043617 0.024933 -0.002668 -0.0066848 0.0088964 -0.045256 0.022173 0.019502 -0.013172 0.0016102 0.012014 -0.028378 0.0029287 0.021564 -0.006343 -0.0025623 0.0011582 -0.0060487 -0.0022749 -0.0031934 -0.021099 0.02661 0.00065425 0.021986 -0.037148 0.026918 -0.010297 0.0031688 -0.0095117 -0.0046149 0.012124 -0.01587 -0.0047667 0.0036184 0.0079277 0.014243 -0.0036428 0.014765 -0.018139 0.0080358 0.01073 -0.01286 0.0060211 0.013567 -0.00025985 -0.012933 -0.0044863 0.0042092 -0.010267 -0.014146 -0.0090044 -0.0087215 0.0029463 0.0048588 0.0013027 0.0012365 0.013748 -0.0067619 0.003854 0.0048747 -0.0045977 -0.0083144 -0.018623 0.0060601 -0.003867 -0.0028126 0.0014358 -0.0049732 -0.0083193 0.0019753 0.030521 -0.010585 0.011325 0.008066 0.009261 -0.0058089 -0.0047682 0.0020298 0.0032266 0.0040592 0.0088965 -0.0061137 0.0046884 0.0043997 -0.012668 0.0041519 0.018613 0.0054757 -0.014833 -0.0015334 0.0019108 -0.0071772 0.0060169 -0.022167 -0.023298 0.011864 -0.012075 -0.015583 -0.0074123 0.0021868 -0.0026507 -0.0045067 -0.0060756 0.005424 0.0098775 0.0054537 -0.005841 0.018581 0.01781 0.00992 0.018157 -0.0025374 -0.0061284 0.002582 0.01433 -0.018591 -0.01498 0.023038 -0.016849 0.0035038 0.016531 -0.021405 -0.010028 -0.0035698 0.019064 0.011534 -0.00092693 0.0042894 -0.0039712 0.0055586 0.006659 -0.00081167 0.00042229 -0.0067207 -0.021688 -0.013493 0.0033683 0.0091306 -0.0016045 0.0059876 0.014619 4.8613e-05 0.0069969 -0.014458 -0.0048031 0.00016818 -0.020767 -0.017788 -0.028551 -0.0070955 0.0061934 0.025393 -0.0021566 -0.013295 0.019727 0.027265 0.0089113 0.006877 0.0023921 -0.011338 0.00029344 0.019039 -0.015954 -0.011386 0.012664 -0.0031351 -0.0028745 -0.024227 0.044101 0.00079762 0.013207 -0.013342 0.013379 0.021598 -0.0040473 -0.017699 -0.028226 -0.02827 0.020243 0.022299 0.0020271 -0.00065926 0.012249 -0.0076624 0.0050203 -0.01984 -0.0040057 -0.023241 0.00091727 0.030792 -0.00088829 -0.018045 -0.0061638 -0.024232 0.026265 -0.013545 -0.031546 0.013673 -0.028332 -0.0075214 0.00099102 0.012576 0.0020818 -0.0025379 0.0025348 0.018158 -0.0079177 -0.016485 -0.026934 0.024598 
habzik -0.0037113 0.0081765 0.026974 0.010944 0.021666 -0.0036406 0.012406 -0.009717 -0.0019961 -0.0073726 0.0041819 -0.02594 0.036059 -0.0077139 0.010567 0.025633 -0.010108 -0.024733 0.0080045 0.035825 -0.02239 -0.015271 -0.017071 0.0074264 -0.002934 -0.0041141 -0.0036721 0.012341 0.026255 -0.0062852 -0.0093162 0.00050041 -0.004044 -0.0042834 0.027984 0.015686 0.0097216 -0.0080888 -0.027935 -0.033786 0.012497 0.010357 -0.034868 -0.020316 0.0065607 -0.024551 0.012196 -0.00054756 0.016688 0.017063 0.0078949 0.007168 -0.012493 0.0068736 0.023221 0.00063689 -0.018433 -0.031237 0.01787 0.00074436 0.010401 0.0018312 -0.013822 -0.0019289 0.023721 0.017288 -0.0044529 0.0073103 -0.0026644 -0.012941 -0.010642 -0.019495 0.0047672 0.0052081 -0.0015312 -0.0098761 -0.013885 0.0018453 0.00136 -0.015741 -0.011373 0.0095263 0.01843 -0.01025 0.029369 -0.010141 0.015129 0.013789 -0.054839 -0.01964 0.00606 -0.0029347 0.0019937 0.012032 0.027679 -0.019304 -0.016933 0.0031682 -0.015796 -0.0026426 -0.015575 -0.0075878 -0.012683 -0.014376 0.0056577 0.013504 -0.032536 0.014074 0.0056628 0.0011042 -0.024037 -0.016784 0.0040258 -0.010785 -0.018759 0.014882 -0.0037318 0.00015497 -0.011975 0.0023247 -8.9407e-05 -0.026524 0.0089189 0.01998 0.019526 -0.012814 -0.018399 0.03212 0.015997 0.0099572 0.0083619 0.013937 -0.019134 -0.00024273 -0.038642 0.020613 -0.00744 -0.012465 -0.016004 0.042969 -0.0010486 -0.0018706 -0.01001 0.016473 -0.0045662 -0.0095013 -0.0075908 0.030868 -0.0042908 0.015449 -0.014727 0.018371 0.011259 -0.01151 -0.00079442 0.011844 -0.011072 0.0069989 -0.033868 -0.0045973 0.0063305 -0.0030964 -0.013104 -0.016926 0.0089797 0.017657 0.016216 -0.021972 -0.024508 0.002623 0.02399 -0.0044446 -5.0123e-05 -0.015277 -0.026664 0.041203 0.0053558 -0.028504 -0.002794 0.0034735 -0.00095673 0.030133 0.0061332 -0.014937 0.01422 0.00014448 0.012835 0.0089579 0.027609 0.014003 0.0072681 -0.0079466 -0.028084 0.04257 0.015687 -0.022892 -0.021751 -0.0043408 0.0013764 0.036427 -0.016134 -0.012282 -0.010281 -0.022404 0.0094467 0.030016 -0.0097056 -4.6941e-05 -0.014635 -0.026177 0.0098947 0.029866 0.0039465 -0.0028554 0.020007 0.034218 0.0056918 -0.023817 0.017522 -0.022126 -0.012489 0.015156 0.0060539 -0.043737 0.0055414 -0.01386 -0.0050814 -0.0033393 -0.021938 0.024338 0.017111 -0.0028266 0.013052 -0.020941 -0.003691 -0.0048955 -0.0035198 0.010557 -0.017523 -0.0072185 0.046008 0.0033973 0.012352 0.0063169 0.035568 -0.0016281 -0.0103 -0.01804 -0.010855 0.024013 0.0090063 0.0027558 -0.014671 0.012401 -0.021763 -0.03016 0.0072854 -0.023758 -0.031099 0.022909 0.0051847 -0.024141 -0.036612 0.0010002 0.015164 0.022166 -0.00098258 0.0049815 0.0113 -0.0024375 -0.02017 -0.015797 0.016509 0.043654 0.005111 0.0018205 -0.013606 0.0041191 -0.01809 -0.010625 -0.0014767 -0.014379 0.049711 -0.028981 -0.020842 0.013389 0.0019692 0.0049553 -0.0035965 -0.019174 0.026375 -0.010891 -0.01195 -0.031999 0.019839 -0.0044582 -0.016469 0.0054444 -0.0069454 0.0017246 -0.0065683 0.0040402 -0.0060403 -0.028562 0.011706 0.0095924 0.0091262 -0.00025575 0.0043239 0.0057835 -0.0047648 0.03834 -0.028658 0.0019428 -0.035971 -0.0040788 0.013267 -0.016537 0.02095 0.025692 0.0096658 -0.0010526 0.031737 -0.013948 -0.024878 0.026353 -0.011414 0.0006081 0.0021951 0.020495 -0.010486 -0.030771 -0.020592 -0.0040997 0.010588 0.023544 0.011594 -0.0010145 -0.00041454 0.01721 -0.016203 0.0070985 -0.017908 0.016002 0.011256 -0.026616 -0.01682 0.010371 -0.0023505 -0.024736 0.0084477 -0.0083908 0.0099727 -0.024823 0.020693 -5.1076e-05 -0.021622 -0.013668 -0.022849 0.0061824 -0.0042314 -0.0051679 -0.011123 -0.028405 -0.0063494 -0.0026706 -0.0043792 -0.0025101 -0.016384 0.01995 0.025144 -0.0041253 0.029975 -0.020615 -0.0096737 0.0025518 -0.0013142 0.0016172 -0.0057664 -0.012099 -0.018724 0.0010102 -0.017417 -0.018184 0.037682 -0.024495 -0.014033 0.016198 0.017847 -0.0017536 -0.0092534 0.02035 -0.012183 -0.01806 -0.0016105 0.04369 -0.028225 0.0041088 -0.035568 0.0015952 0.0038073 -0.023294 0.011313 -0.015861 0.010806 -0.0010935 0.01911 0.00941 -0.0014201 -0.015356 -0.014323 -0.0086096 -0.015229 0.0080635 0.014957 -0.011333 0.0058259 0.024506 0.016211 0.014337 -0.015575 -0.025332 0.0046213 0.011514 0.0089159 0.038747 0.0097628 0.013449 0.010113 -0.019207 0.0036653 -0.0039542 -0.023969 -0.014348 0.015122 0.0027694 -0.016885 0.012141 -0.0057662 0.011012 0.0095911 0.016518 0.020698 -0.038207 -0.0030326 0.011474 -0.011207 -0.027873 -0.0096361 -0.0029769 0.0082128 -0.022329 0.0052454 -0.0082301 -0.0051491 -0.0034234 -0.0049371 0.010335 -0.011988 0.049192 -0.012567 0.0087399 -0.020136 -0.0036241 -0.0097767 -0.0097515 -0.02202 0.01218 0.0037866 -0.035007 0.0028506 0.008734 0.0010511 -0.011284 0.031759 -0.032527 0.01054 0.014483 0.00033991 0.0035643 0.0041146 6.4166e-07 0.00014362 0.0099255 0.0056982 -0.013065 0.022415 0.019894 0.0098131 -0.02361 0.010988 0.013449 0.011453 0.015911 -0.024874 -0.0075518 -0.01202 -0.030748 0.0010537 -0.015757 0.0021496 0.0078729 -0.0047818 0.024223 -0.0044264 0.014672 0.007901 -0.015219 -0.0038528 0.010363 0.016985 -0.0072745 -0.0030695 0.001583 0.0055026 0.018412 0.0027964 -0.0045818 -0.010939 -0.0022189 0.0054891 -0.015904 0.0036747 0.0094524 0.0059873 -0.016124 -0.0082626 0.020314 0.0063161 0.006535 0.0022059 -0.016497 -0.012102 0.0098692 0.0019307 -0.045013 0.00044907 -0.029065 0.0010034 -0.0093271 -0.0017305 -0.0019212 -0.012519 0.028189 0.0068971 0.0042182 -0.0030897 -0.017838 0.022378 -0.0026598 0.027707 -0.015186 -0.009685 0.0073119 0.022162 0.028149 -0.00039507 -0.011894 0.0026926 0.016098 -0.0051377 0.019884 0.0068538 -0.0093972 -0.0010565 -0.014016 0.018161 -0.0033528 -0.0013918 0.01698 -0.01512 0.0024139 -0.0043886 -0.0034597 0.015763 0.00045754 -0.022703 -0.0080386 -0.011872 0.020596 -0.0092953 0.0013654 0.017606 -0.0011888 0.0022621 0.026579 0.0024742 -0.011277 0.025891 0.023584 0.029684 0.029967 -0.018861 0.0082412 0.0038905 0.0056972 0.0036319 -0.011731 -0.0089754 0.00068893 -0.027737 0.025593 0.0044338 0.014255 0.0096872 0.013598 -0.018663 -0.013109 0.011808 0.0068083 -0.039547 0.0012586 7.8653e-05 -0.010545 -0.026198 -0.0056811 0.010647 0.010159 0.0065214 0.0094824 0.019011 -0.020447 -0.00139 -0.01418 0.014988 0.0068353 0.0093704 -0.038552 0.002379 0.019756 -0.019207 -0.0085516 -0.012628 -0.01746 0.00071857 -0.0038801 0.0032368 -0.013146 0.013353 -0.010117 -0.033579 0.0041833 -0.02232 0.013476 -0.036279 -0.0051578 -0.013972 0.0018683 0.0047898 0.019046 0.017788 0.028232 0.0097693 0.0023964 -0.030462 0.0095808 0.0064613 -0.028882 0.016508 0.013797 -0.013006 0.045136 -0.011395 0.0088341 0.0094578 -0.016819 -0.013313 -0.0098591 0.030621 -0.02128 0.014697 0.024398 -0.018159 -0.020506 0.0046073 -0.0079971 0.021128 0.00074477 -0.014085 -0.00014187 0.018156 -0.012562 -0.013228 -0.020863 0.010496 -0.030541 -0.027661 -0.002041 0.0057376 -0.0059071 -0.0052614 0.016659 0.010689 -0.012353 -0.012425 -0.012161 -0.029378 -0.016911 0.011378 0.03768 -0.002248 0.027652 0.011352 -0.015321 -0.0024538 0.012564 0.00087122 0.016704 -0.026011 -0.027723 0.0028332 -0.011862 0.012492 -0.00071445 -0.00088409 0.012327 0.0048978 0.01234 -0.030032 0.02528 -0.024536 0.006157 -0.0090327 0.01603 0.017689 -0.010017 0.0025468 -0.014875 -0.0037479 -0.014949 -0.019379 -0.023384 -0.0021352 -0.0011686 -0.026328 -0.014781 0.020786 -0.01064 -0.017286 0.014417 -0.018402 -0.0031753 -0.013252 0.015938 -0.010271 -0.034243 -0.0092969 0.020429 -0.0089282 -0.010102 -0.00041751 -0.016567 -0.0091794 0.010491 -0.0046568 -0.0023242 -0.0042492 0.0089196 0.0097149 -0.0052724 -0.0086283 0.01992 0.016328 -0.0044149 -0.0017173 -0.0049901 -0.014365 0.024791 0.025958 0.0094248 -0.013662 -0.014504 0.018763 -0.0076007 0.019484 -0.047356 0.0036662 0.018307 -0.0043408 -0.014636 -0.047407 -0.0096177 -0.015652 -0.025113 -0.0022447 0.005912 -0.014405 -0.0050835 0.028056 -0.0030736 -0.0075892 0.0097361 -0.050807 0.024868 0.021704 -0.014582 0.0016751 0.01328 -0.031612 0.0030887 0.02436 -0.0070201 -0.0026983 0.0015936 -0.0067691 -0.0025751 -0.0035714 -0.023819 0.030181 0.00071978 0.024773 -0.041703 0.030241 -0.011817 0.0034331 -0.010695 -0.0049373 0.013482 -0.018033 -0.0052637 0.0042488 0.0089143 0.01589 -0.0040221 0.016672 -0.020617 0.0089549 0.012088 -0.014404 0.0068265 0.015275 -0.00059858 -0.01451 -0.0051565 0.004634 -0.011308 -0.015907 -0.010188 -0.0097833 0.0033905 0.0054094 0.0014827 0.00154 0.015821 -0.0074021 0.0046989 0.0054783 -0.005497 -0.0093545 -0.020805 0.0067056 -0.004324 -0.0033805 0.0014572 -0.0058027 -0.0095967 0.0022125 0.034265 -0.011982 0.012654 0.0090956 0.010524 -0.0067457 -0.0054864 0.0023972 0.0036996 0.0044243 0.010033 -0.0071008 0.0052167 0.0051085 -0.014116 0.0043617 0.021086 0.0061458 -0.016514 -0.001588 0.0021513 -0.0080877 0.0070097 -0.02484 -0.026112 0.013385 -0.013732 -0.01761 -0.0082178 0.0025765 -0.0030724 -0.004769 -0.0070804 0.0061019 0.011136 0.005998 -0.0063866 0.020907 0.019917 0.011391 0.020604 -0.002817 -0.0070572 0.0028934 0.01606 -0.020985 -0.01713 0.025624 -0.018947 0.0038832 0.018743 -0.024072 -0.011318 -0.0041343 0.021511 0.013216 -0.00096181 0.0049767 -0.0045627 0.0063308 0.0073896 -0.00084336 0.00047896 -0.0073806 -0.024577 -0.015419 0.0036502 0.010145 -0.0017573 0.0072299 0.016522 8.8219e-05 0.0079169 -0.016567 -0.0052252 3.6172e-06 -0.022903 -0.019688 -0.031683 -0.0076759 0.0071227 0.028243 -0.0022446 -0.014596 0.022029 0.030737 0.0098204 0.0074946 0.0026127 -0.012674 0.00046484 0.021045 -0.017709 -0.012603 0.014436 -0.0035674 -0.0032415 -0.026927 0.049172 0.00064164 0.014572 -0.01489 0.015112 0.023704 -0.0044249 -0.01957 -0.030914 -0.03108 0.022483 0.02464 0.0023506 -0.00088443 0.013582 -0.0082461 0.0055252 -0.022139 -0.0043563 -0.025589 0.0010842 0.03415 -0.000814 -0.019999 -0.0070933 -0.02695 0.029312 -0.014902 -0.034844 0.015084 -0.031549 -0.0085771 0.0010889 0.014214 0.0025092 -0.0028532 0.0029089 0.020528 -0.0089322 -0.018901 -0.030058 0.027617 
ízlik 0.0045264 -0.010501 -0.034259 -0.013687 -0.027523 0.0046744 -0.015706 0.012735 0.0021757 0.0093054 -0.0054714 0.03347 -0.046357 0.0097442 -0.013454 -0.033043 0.013052 0.031589 -0.010392 -0.046096 0.028577 0.01984 0.021897 -0.0095592 0.0033543 0.0053337 0.0048354 -0.015819 -0.033965 0.0082071 0.011911 -0.00063162 0.0052565 0.0052974 -0.034743 -0.019552 -0.012005 0.0097559 0.034838 0.042031 -0.01529 -0.012556 0.042692 0.025079 -0.0079309 0.029988 -0.014785 0.00055995 -0.020078 -0.02078 -0.0094168 -0.0086146 0.015094 -0.0083617 -0.027956 -0.00079431 0.022111 0.037713 -0.02148 -0.00071846 -0.012659 -0.0019305 0.016763 0.0025378 -0.027945 -0.020499 0.0050915 -0.0089897 0.0028069 0.015757 0.012656 0.023221 -0.0056953 -0.00611 0.0014829 0.01147 0.016162 -0.0023849 -0.0016683 0.018781 0.013368 -0.011283 -0.021381 0.012256 -0.034033 0.012235 -0.018078 -0.016154 0.062564 0.02258 -0.007225 0.0034327 -0.002446 -0.013446 -0.031758 0.021714 0.018305 -0.0035421 0.017187 0.0027772 0.017108 0.0081498 0.013792 0.015621 -0.006189 -0.014778 0.035714 -0.015553 -0.0063471 -0.00081532 0.026525 0.018969 -0.0042212 0.012063 0.021444 -0.016803 0.0042002 -4.2208e-06 0.013699 -0.0023931 2.2683e-05 0.030128 -0.010102 -0.022777 -0.022526 0.014632 0.021047 -0.036356 -0.017478 -0.010772 -0.0090212 -0.015122 0.021028 0.00039641 0.042182 -0.022599 0.0083143 0.014066 0.017673 -0.047932 0.0011439 0.0022624 0.010871 -0.018397 0.0049145 0.010486 0.0082614 -0.034526 0.004651 -0.017119 0.016647 -0.020409 -0.013052 0.013233 0.00088843 -0.013651 0.012527 -0.0077025 0.038439 0.005402 -0.0072068 0.0033058 0.014516 0.01893 -0.010087 -0.01973 -0.017925 0.023965 0.02723 -0.0028784 -0.026506 0.0048156 0.00027245 0.016957 0.030217 -0.045721 -0.0056279 0.030737 0.0030439 -0.0039869 0.0010848 -0.032175 -0.0065847 0.01596 -0.015215 4.9555e-05 -0.013681 -0.0093009 -0.029635 -0.015264 -0.0080155 0.008711 0.028519 -0.043541 -0.016195 0.023422 0.022099 0.0043265 -0.0013467 -0.037121 0.016162 0.012596 0.010208 0.02241 -0.0093949 -0.030454 0.010016 -2.9528e-05 0.015597 0.027635 -0.010855 -0.031902 -0.0045277 0.0032173 -0.021241 -0.036302 -0.0061909 0.025801 -0.018811 0.023604 0.013594 -0.016603 -0.0062116 0.047132 -0.0059888 0.014862 0.0054836 0.0039622 0.023881 -0.026563 -0.018384 0.0029686 -0.014382 0.022305 0.0042497 0.0050618 0.0040821 -0.011201 0.018905 0.0080836 -0.05015 -0.0036961 -0.013514 -0.0070347 -0.038776 0.0018817 0.011554 0.019843 0.011384 -0.025853 -0.0096115 -0.0032428 0.015871 -0.013439 0.023644 0.032543 -0.0074796 0.025247 0.032597 -0.024001 -0.0053466 0.02567 0.038156 -0.0011414 -0.016305 -0.023354 0.0010838 -0.0053978 -0.012199 0.0023192 0.020955 0.016606 -0.016995 -0.045754 -0.0052961 -0.0018859 0.014233 -0.0040402 0.018754 0.011406 0.0018042 0.015389 -0.051536 0.030538 0.021969 -0.014004 -0.002336 -0.0052049 0.0038786 0.020687 -0.028239 0.011719 0.012815 0.034444 -0.021066 0.0046713 0.017564 -0.0057571 0.0071971 -0.0020002 0.0069581 -0.0043536 0.0066895 0.030539 -0.013098 -0.01054 -0.0099398 0.00070897 -0.0043766 -0.0064012 0.0049865 -0.041793 0.031182 -0.0019946 0.039102 0.0045756 -0.014348 0.017831 -0.022671 -0.027831 -0.010525 0.0010472 -0.034137 0.015449 0.027434 -0.029261 0.012289 -0.00069033 -0.0024664 -0.022267 0.011406 0.033389 0.022385 0.0047217 -0.01144 -0.02589 -0.012791 0.0012032 0.00059379 -0.018744 0.017911 -0.0074497 0.019742 -0.017665 -0.012205 0.028975 0.018774 -0.0114 0.0025595 0.026954 -0.00959 0.0089404 -0.010772 0.026457 -0.022545 -1.5237e-05 0.022903 0.014363 0.024108 -0.006636 0.0047443 0.0055017 0.011893 0.030426 0.0068311 0.0027809 0.0047926 0.0028042 0.019355 -0.023578 -0.029703 0.0051782 -0.034706 0.02422 0.011335 -0.0034182 0.0015502 -0.0019328 0.0069488 0.014221 0.021674 -0.0010578 0.020332 0.021006 -0.044545 0.028612 0.016918 -0.019188 -0.021134 0.0021489 0.010737 -0.023573 0.014084 0.021172 0.0016939 -0.05174 0.033448 -0.0047329 0.042026 -0.0020793 -0.0051039 0.030136 -0.014243 0.020048 -0.014099 0.0013188 -0.02433 -0.012066 0.0017668 0.018903 0.017436 0.01027 0.018964 -0.0096322 -0.018139 0.014104 -0.0071711 -0.029136 -0.019583 -0.01713 0.018695 0.030941 -0.0057748 -0.013849 -0.010698 -0.046689 -0.011791 -0.016203 -0.012514 0.022905 -0.0044449 0.0046008 0.030846 0.018308 -0.019453 -0.0036188 0.021698 -0.015462 0.0074056 -0.01379 -0.012099 -0.021591 -0.026471 0.049215 0.0039663 -0.014689 0.014747 0.03622 0.012184 0.0039165 -0.010553 0.028185 -0.0063495 0.010317 0.0067596 0.0041846 0.0062205 -0.013001 0.014748 -0.061424 0.016062 -0.010867 0.025138 0.004382 0.013091 0.012695 0.02824 -0.015362 -0.0048561 0.045134 -0.0037922 -0.011318 -0.0015192 0.014409 -0.040845 0.042144 -0.013662 -0.018789 -0.00054611 -0.004658 -0.0051184 1.8185e-05 -0.00064073 -0.012773 -0.0074968 0.016699 -0.0284 -0.024659 -0.012246 0.029791 -0.014025 -0.016801 -0.014501 -0.019674 0.031455 0.0097442 0.01533 0.039709 -0.0016187 0.020171 -0.0029305 -0.010504 0.0061072 -0.031518 0.0055577 -0.018661 -0.010553 0.019492 0.005197 -0.013284 -0.022046 0.0091603 0.0040383 -0.0020663 -0.0064655 -0.02272 -0.0035165 0.0059431 0.013957 0.0032479 -0.0064395 0.019755 -0.0047284 -0.0117 -0.0073751 0.019978 0.010086 -0.025139 -0.007658 -0.0080207 -0.0029815 0.020909 0.014916 -0.012162 -0.0021227 0.056197 -0.00040609 0.036229 -0.0013758 0.01139 0.0021676 0.0025366 0.015975 -0.03513 -0.0084306 -0.0051206 0.0040505 0.02255 -0.028203 0.0039216 -0.034602 0.01884 0.012233 -0.0093728 -0.02793 -0.035395 0.00043477 0.014883 -0.003465 -0.020533 0.0062454 -0.025044 -0.0086265 0.011655 0.0013877 0.017637 -0.022551 0.0042304 0.0017792 -0.021974 0.019222 -0.0031351 0.0055815 0.004654 -0.019504 -0.00053945 0.028494 0.010076 0.01501 -0.025923 0.011916 -0.0018973 -0.022085 0.0016623 -0.0032019 -0.03349 -0.0031681 0.014413 -0.032412 -0.02948 -0.037313 -0.03784 0.023935 -0.010704 -0.0049564 -0.0071365 -0.0045722 0.01502 0.011558 -0.0010222 0.035531 -0.03233 -0.0057019 -0.018387 -0.01215 -0.017491 0.023828 0.016807 -0.014824 -0.0081508 0.04943 -0.0013183 -0.00040962 0.012657 0.031878 0.0067825 -0.013181 -0.012173 -0.0077512 -0.011409 -0.023295 0.024475 0.0016564 0.017103 -0.018501 -0.0081791 -0.01178 0.046674 -0.0028898 -0.024217 0.023262 0.010551 0.015534 0.021613 -0.0010403 0.0051309 -0.0039452 0.016332 -0.01631 0.01281 0.041456 -0.0053028 0.02776 -0.016768 0.045059 0.0066933 0.017092 -0.0021682 -0.0056915 -0.02394 -0.022495 -0.035363 -0.012204 -0.003334 0.038095 -0.011957 -0.0084243 0.03785 -0.02129 -0.018015 0.017205 -0.059542 0.015363 -0.011421 -0.012616 0.021876 0.017908 0.013149 -0.0401 0.028136 -0.019673 -0.031996 0.021701 0.025195 -0.0058145 0.0099233 -0.025788 -0.0010152 0.017055 4.9529e-05 -0.022112 0.015504 0.01647 0.026287 -0.012909 0.03735 0.03402 0.0026821 -0.0067885 0.0069334 0.0060642 -0.019176 -0.012118 0.014158 0.014032 0.014339 0.034265 0.020078 -0.013244 -0.044531 0.00284 -0.032335 -0.012891 0.017968 0.0028127 -0.015355 -0.00051909 -0.020389 0.031269 0.033316 -0.0031603 0.014467 -0.015153 0.00081332 0.0013732 -0.014882 -0.0056692 -0.014882 0.036403 -0.030511 0.029203 -0.0073315 0.010442 -0.018844 -0.020677 0.012052 -0.0026424 0.017459 0.0040496 0.017632 0.02277 0.027077 0.002541 0.0014673 0.031057 0.016905 -0.023682 0.012397 0.01958 -0.016258 0.020652 0.0037704 0.015158 -0.017988 0.011723 0.038561 0.010737 -0.023607 0.0096606 0.011184 0.00043766 0.018461 0.010274 -0.012137 0.0052824 0.0023916 0.0046495 -0.010568 -0.011413 0.0064656 0.010096 -0.023936 -0.019451 0.0051892 0.0023365 0.0062196 0.017116 -0.029484 -0.030368 -0.011045 0.015845 0.01693 -0.022163 0.0087243 -0.023174 0.055393 -0.0044937 -0.022031 0.0050419 0.017471 0.056485 0.011208 0.018974 0.029777 0.0029078 -0.0068878 0.017091 0.0058099 -0.033239 0.0035975 0.0088903 -0.011437 0.062186 -0.030425 -0.026389 0.017764 -0.0021575 -0.016358 0.038911 -0.0037191 -0.030453 0.00903 0.0031546 -0.0014144 0.0081968 0.0030346 0.0044969 0.029804 -0.037163 -0.0011048 -0.030856 0.052527 -0.038081 0.01473 -0.00449 0.013526 0.0058404 -0.01594 0.021263 0.0060547 -0.0051059 -0.010655 -0.01925 0.0050106 -0.019968 0.024558 -0.010921 -0.014251 0.016913 -0.007921 -0.018151 0.00057724 0.0172 0.0057432 -0.005794 0.013077 0.019251 0.012128 0.01213 -0.0044294 -0.0061938 -0.0016592 -0.0018626 -0.017895 0.0087205 -0.0051055 -0.0062755 0.0063851 0.011971 0.026107 -0.0088086 0.0056433 0.0039898 -0.0018993 0.00738 0.011889 -0.0025712 -0.041888 0.014569 -0.01535 -0.011219 -0.01286 0.0081243 0.0066391 -0.0029975 -0.0041513 -0.0056142 -0.012441 0.0085292 -0.0064228 -0.0062628 0.017739 -0.0053506 -0.024919 -0.0071882 0.019826 0.002031 -0.0026295 0.0097052 -0.007945 0.02925 0.031158 -0.015966 0.016109 0.021096 0.0097589 -0.0029687 0.00385 0.0057839 0.008552 -0.0071951 -0.013083 -0.0074156 0.007666 -0.024962 -0.024273 -0.013892 -0.024988 0.0036501 0.0086859 -0.0034363 -0.019072 0.02508 0.020083 -0.030605 0.02252 -0.0044947 -0.022329 0.028421 0.013162 0.0045808 -0.02565 -0.015174 0.0010129 -0.0056217 0.0053347 -0.0070354 -0.0087729 0.00089228 -0.00073763 0.0084309 0.027865 0.018056 -0.0043362 -0.012096 0.0016038 -0.0079828 -0.019248 -7.9087e-05 -0.0091344 0.01881 0.0059235 -0.00019826 0.026017 0.022606 0.036275 0.0088148 -0.0078274 -0.032096 0.0031245 0.01713 -0.02511 -0.034796 -0.011109 -0.0089035 -0.002901 0.014674 -0.00059248 -0.024158 0.020017 0.014375 -0.016533 0.0042309 0.0040411 0.030791 -0.056518 -0.00099164 -0.017234 0.017344 -0.017714 -0.028652 0.0054772 0.023377 0.037652 0.038002 -0.026997 -0.029665 -0.0026925 0.0013373 -0.016235 0.01027 -0.0069519 0.026209 0.0052432 0.030802 -0.00097344 -0.040477 0.00091455 0.023452 0.008243 0.031935 -0.034987 0.017714 0.041736 -0.018028 0.037577 0.0099268 -0.0015166 -0.01662 -0.0028878 0.0032202 -0.0037598 -0.022217 0.010314 0.020392 0.034473 -0.031703 
omlik 0.00577 -0.012575 -0.041856 -0.016654 -0.033552 0.0056294 -0.019189 0.015497 0.0033984 0.011273 -0.0068198 0.040652 -0.056675 0.011979 -0.016375 -0.040288 0.01573 0.038385 -0.012471 -0.055979 0.034834 0.02383 0.026615 -0.011628 0.0041616 0.0065211 0.0059534 -0.019362 -0.040836 0.0097528 0.014591 -0.00082415 0.0058885 0.0066035 -0.042193 -0.023714 -0.014698 0.01195 0.042455 0.05149 -0.018998 -0.015683 0.052443 0.030834 -0.0097567 0.036547 -0.017952 0.00083069 -0.024382 -0.02545 -0.011465 -0.010744 0.018486 -0.01 -0.034042 -0.00091606 0.027442 0.046263 -0.026048 -0.00095861 -0.015476 -0.0025479 0.020373 0.0028418 -0.034289 -0.025244 0.0063971 -0.010593 0.0032404 0.019194 0.015587 0.028389 -0.0068599 -0.0079207 0.0018629 0.014453 0.019716 -0.0031763 -0.0019906 0.022924 0.016314 -0.013877 -0.026499 0.014852 -0.042122 0.014677 -0.022172 -0.019631 0.077086 0.027785 -0.0087006 0.0042394 -0.0029343 -0.016758 -0.038951 0.027009 0.022673 -0.0044829 0.021385 0.0036131 0.021026 0.01005 0.016996 0.019334 -0.0073903 -0.018596 0.044137 -0.019033 -0.0078016 -0.0011002 0.032485 0.023052 -0.0053856 0.01485 0.026814 -0.020886 0.0051294 0.00012564 0.016914 -0.0031527 6.537e-05 0.037434 -0.012347 -0.028119 -0.027811 0.017845 0.025731 -0.0448 -0.021707 -0.013609 -0.011314 -0.018792 0.025904 0.00033677 0.052105 -0.027879 0.010108 0.017285 0.021942 -0.059485 0.0013959 0.0024291 0.013543 -0.022735 0.0062268 0.012736 0.010361 -0.042603 0.0059809 -0.021436 0.02055 -0.025488 -0.016092 0.016383 0.0010416 -0.016867 0.015591 -0.009785 0.047289 0.0066993 -0.0089155 0.0041718 0.017865 0.023319 -0.01242 -0.0245 -0.022283 0.029953 0.03331 -0.0035346 -0.032908 0.0058472 0.00029686 0.021394 0.0369 -0.056414 -0.0070222 0.037993 0.0036501 -0.0049747 0.001448 -0.039803 -0.0081059 0.020012 -0.019165 -0.00013376 -0.017034 -0.011492 -0.03666 -0.019115 -0.0096292 0.010589 0.035846 -0.054241 -0.020224 0.029174 0.027757 0.005264 -0.0016797 -0.046484 0.020336 0.015604 0.012645 0.028288 -0.011651 -0.037827 0.012476 -0.00019409 0.019733 0.034698 -0.013316 -0.039665 -0.0053628 0.0037575 -0.026502 -0.045084 -0.0075094 0.031651 -0.023186 0.029311 0.016871 -0.020507 -0.0078967 0.058357 -0.0074052 0.018479 0.0072799 0.0044919 0.029826 -0.032804 -0.022923 0.0035437 -0.017692 0.027729 0.0052662 0.0064891 0.0048412 -0.014132 0.023603 0.0099974 -0.062264 -0.0043689 -0.016822 -0.0084987 -0.048018 0.0022957 0.014098 0.024752 0.014257 -0.03232 -0.012102 -0.0038509 0.019824 -0.016652 0.029246 0.040681 -0.0095196 0.031606 0.040532 -0.02997 -0.006703 0.031599 0.047671 -0.0012094 -0.020182 -0.02884 0.0013452 -0.0066691 -0.01492 0.0029394 0.026177 0.020878 -0.021109 -0.057021 -0.0065888 -0.0022343 0.017634 -0.0049091 0.023413 0.014086 0.0018818 0.018976 -0.064314 0.037921 0.027496 -0.017413 -0.0027013 -0.0064311 0.0050988 0.025626 -0.035374 0.014699 0.015687 0.042877 -0.026306 0.0058531 0.022064 -0.007344 0.0090737 -0.0025123 0.0089301 -0.0053762 0.0083944 0.038098 -0.016327 -0.012857 -0.012551 0.00062483 -0.0057887 -0.0082414 0.0062079 -0.052052 0.038516 -0.0028704 0.04827 0.0056571 -0.017928 0.022039 -0.028221 -0.034507 -0.012958 0.00094088 -0.042509 0.018879 0.033911 -0.035796 0.015282 -0.00083316 -0.0029626 -0.027509 0.014197 0.04109 0.027718 0.0055972 -0.014371 -0.031889 -0.015798 0.0013386 0.00081132 -0.022923 0.021706 -0.0090145 0.024404 -0.021812 -0.015299 0.035745 0.022989 -0.014045 0.0028891 0.033324 -0.011807 0.011516 -0.013084 0.032977 -0.027537 9.023e-05 0.028522 0.017728 0.029994 -0.0079944 0.0057959 0.0070979 0.014632 0.037549 0.0087001 0.0033776 0.0059973 0.0034678 0.023741 -0.028661 -0.036551 0.0061665 -0.042724 0.029831 0.013553 -0.0040911 0.0019714 -0.0026839 0.0084371 0.017373 0.026708 -0.0014762 0.024805 0.026168 -0.054659 0.034923 0.020588 -0.023555 -0.025868 0.0024169 0.013277 -0.029171 0.017019 0.025945 0.0023088 -0.063151 0.04122 -0.0060236 0.051843 -0.0026755 -0.0063549 0.036766 -0.017492 0.024394 -0.016949 0.0016855 -0.029642 -0.014378 0.0024254 0.022962 0.02149 0.012729 0.022999 -0.012051 -0.022352 0.017183 -0.008383 -0.035875 -0.023971 -0.021008 0.023109 0.037378 -0.0069063 -0.017267 -0.013363 -0.057139 -0.014289 -0.020004 -0.015149 0.028 -0.0053491 0.0054912 0.037587 0.022437 -0.02359 -0.0042537 0.026661 -0.01893 0.0090654 -0.016947 -0.01485 -0.026099 -0.032106 0.06 0.0046544 -0.018081 0.01797 0.044144 0.015147 0.0047642 -0.012646 0.034219 -0.0079224 0.012852 0.0081625 0.0053635 0.0080193 -0.015593 0.018412 -0.074921 0.019084 -0.013364 0.030846 0.0052275 0.015658 0.01528 0.034381 -0.0185 -0.0055556 0.054585 -0.004447 -0.013495 -0.0017111 0.017571 -0.049636 0.051203 -0.016871 -0.022866 -0.00056876 -0.0056492 -0.0064067 0.00038198 -0.0005815 -0.015314 -0.0091266 0.020288 -0.034205 -0.030195 -0.015002 0.036135 -0.016762 -0.020644 -0.017939 -0.024148 0.038382 0.011321 0.018523 0.04855 -0.0015817 0.024594 -0.0034815 -0.012666 0.0075597 -0.038443 0.0066476 -0.02271 -0.012666 0.023673 0.0060441 -0.015939 -0.026216 0.011132 0.0043239 -0.002574 -0.0079526 -0.028231 -0.0041555 0.0072877 0.016969 0.003513 -0.0081103 0.024061 -0.0055575 -0.0141 -0.0090727 0.024665 0.012209 -0.030923 -0.0095925 -0.010196 -0.0033723 0.025074 0.018269 -0.014875 -0.0028176 0.068343 -0.00043389 0.044138 -0.0013942 0.014082 0.0025493 0.0029539 0.019225 -0.042973 -0.010401 -0.0061628 0.004609 0.027441 -0.034524 0.004214 -0.042048 0.022965 0.01495 -0.011164 -0.033717 -0.043428 0.00057375 0.018422 -0.0041057 -0.024914 0.0076832 -0.030346 -0.010768 0.014098 0.0021228 0.021094 -0.027478 0.0048517 0.0021494 -0.026449 0.023333 -0.0036906 0.0068561 0.0053565 -0.023957 -0.00067832 0.034871 0.01219 0.017888 -0.031599 0.014443 -0.0021554 -0.026486 0.0019321 -0.0035998 -0.040659 -0.0037092 0.017557 -0.039475 -0.035814 -0.045014 -0.046135 0.028944 -0.012998 -0.0060072 -0.008937 -0.0056852 0.018403 0.014033 -0.0011128 0.043483 -0.039545 -0.0070877 -0.022346 -0.014886 -0.021185 0.028835 0.020563 -0.017981 -0.010275 0.060182 -0.0017676 -0.00031763 0.015574 0.03903 0.0084684 -0.015946 -0.015021 -0.0092223 -0.014002 -0.027883 0.030085 0.0020113 0.021082 -0.022377 -0.010052 -0.014328 0.056986 -0.003348 -0.029482 0.028473 0.012745 0.018732 0.02623 -0.0011511 0.0058557 -0.004814 0.019842 -0.020155 0.015476 0.050565 -0.0062613 0.033864 -0.02044 0.0551 0.0081263 0.020684 -0.0023552 -0.006778 -0.029063 -0.027452 -0.043003 -0.014858 -0.0036246 0.04623 -0.014549 -0.010435 0.045909 -0.025686 -0.021865 0.020699 -0.071829 0.018286 -0.01386 -0.015054 0.026532 0.021361 0.01592 -0.048726 0.033894 -0.023387 -0.038679 0.026687 0.030711 -0.0073378 0.012084 -0.031286 -0.001154 0.020953 3.4003e-05 -0.027264 0.018591 0.020405 0.031821 -0.015945 0.045533 0.041507 0.0029791 -0.0082245 0.008359 0.0072095 -0.023469 -0.015112 0.017782 0.017116 0.017425 0.041855 0.024451 -0.016181 -0.054294 0.0036732 -0.039574 -0.015861 0.022072 0.0034852 -0.018519 -0.00069454 -0.024693 0.038015 0.040753 -0.003954 0.017508 -0.018667 0.001285 0.0014107 -0.018218 -0.0070454 -0.018304 0.043982 -0.037001 0.03551 -0.0090791 0.012828 -0.023263 -0.025441 0.014329 -0.003364 0.021562 0.0052706 0.02176 0.027986 0.033173 0.0029525 0.0017624 0.037747 0.02102 -0.029072 0.014936 0.024061 -0.020059 0.024909 0.0041996 0.019059 -0.021771 0.014528 0.047764 0.012787 -0.02866 0.012318 0.01371 0.00069662 0.022635 0.013102 -0.01492 0.0061864 0.0028572 0.0063538 -0.012831 -0.013837 0.0078518 0.012259 -0.029164 -0.023652 0.0066434 0.0029422 0.0073333 0.021061 -0.036093 -0.037226 -0.01356 0.019411 0.020527 -0.027268 0.010876 -0.028609 0.068133 -0.0056177 -0.026594 0.0063016 0.022011 0.069293 0.0139 0.022772 0.037025 0.0033325 -0.0086147 0.021168 0.0072081 -0.041102 0.0042189 0.010554 -0.014045 0.07596 -0.037185 -0.032456 0.021588 -0.0025564 -0.01975 0.047429 -0.0044921 -0.036961 0.011061 0.0040984 -0.0019152 0.010243 0.0037063 0.0055668 0.036384 -0.045476 -0.0011136 -0.037502 0.06358 -0.046325 0.017843 -0.0055199 0.016099 0.0074357 -0.0195 0.026222 0.0073595 -0.0061972 -0.013155 -0.023478 0.0061389 -0.024529 0.029917 -0.012993 -0.01761 0.020527 -0.0098194 -0.022398 0.00057695 0.021007 0.0068151 -0.0068782 0.015887 0.022995 0.014557 0.01476 -0.0049016 -0.0075501 -0.0021914 -0.002322 -0.022201 0.010673 -0.0065131 -0.0078839 0.0080151 0.014631 0.031871 -0.010581 0.006833 0.0051293 -0.002477 0.0090816 0.014885 -0.0030596 -0.051167 0.018182 -0.018664 -0.013771 -0.015248 0.0099443 0.0082773 -0.0034587 -0.0051488 -0.0068821 -0.015078 0.01072 -0.0078911 -0.0073803 0.021486 -0.0066438 -0.030674 -0.0088888 0.024509 0.0025106 -0.0032525 0.011716 -0.0097034 0.036127 0.038034 -0.019382 0.019922 0.025302 0.011718 -0.0039082 0.0045755 0.0069307 0.010026 -0.0089397 -0.016552 -0.0087862 0.0093446 -0.030891 -0.029709 -0.016467 -0.030728 0.0044074 0.010478 -0.0041275 -0.023258 0.03064 0.024596 -0.037406 0.027294 -0.0057248 -0.027163 0.03487 0.016268 0.0055967 -0.031397 -0.018262 0.00093196 -0.0068779 0.0065975 -0.0085022 -0.010557 0.00097413 -0.00085021 0.010483 0.034602 0.02208 -0.0053407 -0.014422 0.0023981 -0.0097811 -0.023581 -5.0048e-05 -0.011368 0.023227 0.0076634 -0.00020852 0.032476 0.027614 0.044253 0.0108 -0.009652 -0.03952 0.0033491 0.021008 -0.030848 -0.042648 -0.0138 -0.010548 -0.0039251 0.017743 -0.00051249 -0.029555 0.02476 0.017698 -0.020331 0.0046467 0.0045296 0.037909 -0.069404 -0.0010915 -0.020956 0.021067 -0.021458 -0.035143 0.0064449 0.028768 0.045836 0.046058 -0.032681 -0.036309 -0.0032472 0.0011823 -0.019934 0.01229 -0.008077 0.03224 0.0065815 0.037909 -0.0012466 -0.049708 0.00090104 0.028796 0.010233 0.039098 -0.042821 0.02176 0.050865 -0.022138 0.045953 0.012064 -0.0015625 -0.0203 -0.0035936 0.0044584 -0.004599 -0.027388 0.012183 0.025237 0.042249 -0.038816 
fuldoklik -0.0033458 0.0078467 0.02529 0.010031 0.020218 -0.0032634 0.011536 -0.0093243 -0.0018909 -0.0067944 0.0040167 -0.025008 0.034372 -0.007318 0.0096316 0.024418 -0.009576 -0.023439 0.0077293 0.034306 -0.021093 -0.014643 -0.016216 0.0071121 -0.0024862 -0.0040229 -0.0036279 0.011876 0.025121 -0.0060514 -0.0087419 0.00050197 -0.0036961 -0.0040379 0.026574 0.015066 0.0089575 -0.0077612 -0.026744 -0.031968 0.012002 0.010016 -0.033541 -0.019767 0.0060956 -0.023186 0.01139 -0.00047327 0.01568 0.016414 0.0074077 0.0068685 -0.011944 0.0067095 0.022448 0.00059614 -0.01768 -0.030026 0.017008 0.00062722 0.0098874 0.0018241 -0.013281 -0.0018812 0.022833 0.01668 -0.0041128 0.0070833 -0.0024696 -0.012534 -0.010265 -0.018713 0.004718 0.0050751 -0.0014144 -0.0096469 -0.013151 0.0020528 0.001362 -0.015173 -0.010944 0.0089772 0.017571 -0.010025 0.028295 -0.010023 0.014752 0.012998 -0.052244 -0.018978 0.0059424 -0.0031088 0.0022763 0.011391 0.026489 -0.018325 -0.015895 0.0031255 -0.014761 -0.002459 -0.014715 -0.0068586 -0.011949 -0.013418 0.0055273 0.012833 -0.030693 0.013402 0.0053906 0.00082874 -0.022438 -0.015837 0.0036895 -0.010259 -0.017858 0.014232 -0.0036183 -2.3387e-05 -0.011399 0.002041 3.6867e-05 -0.025167 0.0083798 0.018997 0.018764 -0.01241 -0.017521 0.030399 0.01548 0.0096415 0.0078529 0.013285 -0.018382 -0.00037003 -0.036987 0.019777 -0.0068732 -0.011925 -0.015119 0.041006 -0.00080414 -0.0018847 -0.0094301 0.015956 -0.0043138 -0.0089637 -0.0070324 0.029324 -0.0040581 0.014736 -0.01391 0.017399 0.010782 -0.011249 -0.00078841 0.011366 -0.010679 0.0067447 -0.032204 -0.0043542 0.0060901 -0.0030224 -0.012388 -0.016113 0.0086763 0.017008 0.015776 -0.021204 -0.023452 0.0027325 0.022809 -0.0041959 -0.00039498 -0.014666 -0.025808 0.039668 0.0050332 -0.027077 -0.0024213 0.0035688 -0.00080759 0.028495 0.0057364 -0.014232 0.013726 8.0341e-05 0.012382 0.0082505 0.026202 0.013392 0.0069089 -0.0075332 -0.026316 0.039928 0.014651 -0.02115 -0.020173 -0.0037293 0.001332 0.03416 -0.014866 -0.011258 -0.0096471 -0.020812 0.0086798 0.027959 -0.0093105 2.8086e-05 -0.013743 -0.024806 0.0095646 0.028235 0.0037833 -0.0025825 0.018639 0.032064 0.0053947 -0.022377 0.016665 -0.020549 -0.0121 0.014379 0.0055145 -0.041323 0.0053667 -0.012952 -0.0048645 -0.0032694 -0.020981 0.023201 0.015952 -0.0026585 0.01253 -0.019789 -0.0034756 -0.0045997 -0.0034459 0.0099349 -0.016818 -0.0069254 0.043627 0.0031574 0.011563 0.0058865 0.033794 -0.0017347 -0.010014 -0.017142 -0.01003 0.022643 0.0083747 0.0026871 -0.013813 0.011967 -0.020784 -0.0286 0.0067298 -0.022598 -0.029138 0.02157 0.0048008 -0.02292 -0.03424 0.00073548 0.014244 0.020617 -0.0010819 0.0047241 0.010856 -0.0021681 -0.019004 -0.014841 0.01533 0.040866 0.0047199 0.0017171 -0.01259 0.0034478 -0.016876 -0.010112 -0.0014856 -0.013764 0.046431 -0.026959 -0.019389 0.012394 0.0018758 0.0047846 -0.0033268 -0.017921 0.024679 -0.010284 -0.010978 -0.030335 0.01854 -0.0041858 -0.015526 0.0049654 -0.0064087 0.0017481 -0.0063476 0.0037841 -0.0057894 -0.026898 0.011284 0.0089554 0.0084789 -0.0004906 0.0039493 0.0055001 -0.0042395 0.03622 -0.027501 0.0020516 -0.033953 -0.0038705 0.012602 -0.015316 0.019661 0.024234 0.0091364 -0.00088603 0.029622 -0.013297 -0.023293 0.024711 -0.010613 0.0007761 0.0020982 0.019213 -0.0097518 -0.02865 -0.019156 -0.0039237 0.0096855 0.022008 0.010828 -0.00098632 -0.00062382 0.015716 -0.015171 0.0064526 -0.016606 0.014802 0.010408 -0.024592 -0.015804 0.009375 -0.002097 -0.022866 0.0080366 -0.0078913 0.0089418 -0.022896 0.018941 -5.1033e-05 -0.019855 -0.012603 -0.020928 0.0055832 -0.0038676 -0.0048133 -0.010226 -0.026486 -0.0057486 -0.002261 -0.0041361 -0.0022657 -0.015361 0.018731 0.023622 -0.0040048 0.028168 -0.019557 -0.0090836 0.0024261 -0.0014848 0.0016804 -0.0055741 -0.011251 -0.017503 0.00093697 -0.016082 -0.017073 0.035043 -0.022555 -0.013156 0.015123 0.016739 -0.0015425 -0.0086123 0.018763 -0.011128 -0.016648 -0.0018634 0.040673 -0.026259 0.0035394 -0.033049 0.0015938 0.0039656 -0.022356 0.010595 -0.015027 0.010344 -0.0010473 0.018111 0.0090017 -0.0015133 -0.014503 -0.013309 -0.007884 -0.014342 0.0075144 0.014067 -0.010708 0.0056128 0.022739 0.015264 0.013305 -0.014575 -0.023429 0.0041974 0.010691 0.0082032 0.035863 0.009095 0.012199 0.0094418 -0.017554 0.0033931 -0.0033161 -0.022399 -0.013147 0.013832 0.0027346 -0.015793 0.011339 -0.0055505 0.01014 0.0087304 0.015412 0.019102 -0.035617 -0.0026094 0.010753 -0.01046 -0.026135 -0.0087714 -0.0027745 0.0076456 -0.020913 0.0048872 -0.0076463 -0.0049882 -0.0033578 -0.0044966 0.0096701 -0.011305 0.045628 -0.011839 0.0078992 -0.018484 -0.0033696 -0.0092705 -0.0092829 -0.02048 0.01118 0.0034413 -0.032422 0.0026204 0.0081547 0.0011719 -0.010351 0.029286 -0.030111 0.0099499 0.013581 0.00054674 0.0034302 0.0037502 -0.00025188 0.00029495 0.0091843 0.0054409 -0.012187 0.020428 0.018171 0.0089527 -0.02167 0.010106 0.012379 0.010505 0.014433 -0.023121 -0.0068298 -0.011052 -0.028243 0.0010988 -0.014362 0.001794 0.0072578 -0.0041972 0.022166 -0.0037736 0.012998 0.0073686 -0.01345 -0.0035998 0.0093935 0.015332 -0.0066419 -0.0027233 0.0014125 0.0047997 0.016846 0.0025209 -0.0043005 -0.010063 -0.0021091 0.0047502 -0.014418 0.00342 0.0084554 0.0053743 -0.01475 -0.0073242 0.018373 0.0057867 0.0062003 0.0020678 -0.014818 -0.011074 0.0089886 0.0016958 -0.041262 0.00035936 -0.026785 0.00098048 -0.0082837 -0.0016663 -0.0021353 -0.011489 0.025655 0.0061524 0.0036157 -0.0031576 -0.016184 0.020877 -0.0024771 0.025356 -0.013952 -0.0088567 0.0068447 0.020404 0.025774 -0.00033859 -0.010994 0.002387 0.014997 -0.0046351 0.018381 0.0063637 -0.0084819 -0.0010651 -0.012649 0.016508 -0.0029622 -0.0012218 0.015526 -0.013845 0.0022905 -0.0041373 -0.0031153 0.014437 0.00054056 -0.020746 -0.0073614 -0.010665 0.018725 -0.0085941 0.0015272 0.01593 -0.0011221 0.0021767 0.023884 0.0022527 -0.010077 0.023618 0.021112 0.026973 0.027008 -0.01701 0.0075351 0.003484 0.0052182 0.0034065 -0.010658 -0.0080711 0.00060167 -0.025442 0.023378 0.0040385 0.013131 0.0088167 0.012515 -0.016845 -0.011877 0.010635 0.0061199 -0.035658 0.0013217 0.00038822 -0.0095991 -0.024064 -0.0052243 0.010078 0.0093631 0.0057446 0.0085804 0.017293 -0.018855 -0.0010314 -0.013115 0.013866 0.006135 0.0089958 -0.035572 0.0022207 0.018317 -0.017698 -0.0077903 -0.011571 -0.0161 0.00087205 -0.0038473 0.0030242 -0.012132 0.012466 -0.0095863 -0.030942 0.0038806 -0.020626 0.012516 -0.033459 -0.0047312 -0.012808 0.0014882 0.0043572 0.017702 0.016737 0.025985 0.0089699 0.0022848 -0.027926 0.0089396 0.0059386 -0.026523 0.015056 0.012547 -0.011748 0.041284 -0.010605 0.0080549 0.0084519 -0.015209 -0.012353 -0.0090059 0.027992 -0.019352 0.013662 0.022124 -0.016298 -0.018828 0.004563 -0.0074155 0.019174 0.00084402 -0.012907 -7.2631e-05 0.01664 -0.011343 -0.012321 -0.019334 0.0094917 -0.027936 -0.025327 -0.0017313 0.0052728 -0.0054022 -0.0045395 0.015146 0.0099592 -0.01147 -0.011087 -0.011272 -0.026359 -0.015439 0.010384 0.034275 -0.0021878 0.025016 0.010307 -0.013823 -0.0023527 0.011428 0.00065866 0.015098 -0.023395 -0.025008 0.0024636 -0.010486 0.011042 -0.00057997 -0.00099812 0.011014 0.0043994 0.011045 -0.026846 0.022342 -0.022046 0.0056981 -0.007922 0.014441 0.015824 -0.0089188 0.0022345 -0.013647 -0.0032332 -0.013625 -0.017553 -0.020905 -0.0019163 -0.00099583 -0.023578 -0.012932 0.019089 -0.0098562 -0.015682 0.013168 -0.016716 -0.0027514 -0.012249 0.014291 -0.0092897 -0.03118 -0.0084428 0.018543 -0.0078316 -0.0087955 -0.00064199 -0.014947 -0.0082587 0.0093293 -0.0041847 -0.0019395 -0.0039873 0.0082815 0.0088576 -0.004778 -0.00757 0.018137 0.014594 -0.004162 -0.0017323 -0.0046949 -0.012811 0.022413 0.023544 0.0088485 -0.012414 -0.012964 0.017318 -0.0068206 0.018017 -0.043142 0.003623 0.01657 -0.0038224 -0.013509 -0.042845 -0.0087095 -0.014082 -0.022877 -0.0020452 0.0053798 -0.012843 -0.0045002 0.025696 -0.0026631 -0.006677 0.0089568 -0.046229 0.022758 0.019843 -0.013508 0.0017185 0.012317 -0.028865 0.0027295 0.02196 -0.006553 -0.0025459 0.0011044 -0.0060846 -0.0023003 -0.0031994 -0.0217 0.027101 0.00074253 0.022428 -0.037934 0.027569 -0.010747 0.0031416 -0.0097777 -0.0045537 0.012443 -0.01626 -0.004787 0.0038768 0.0080051 0.014576 -0.0036889 0.015068 -0.018717 0.0081032 0.011076 -0.013004 0.0060469 0.013946 -0.00040206 -0.013238 -0.0045162 0.0042496 -0.010484 -0.014414 -0.0091141 -0.0090598 0.0030727 0.0048354 0.0013092 0.0012504 0.014018 -0.0067556 0.0040378 0.0048667 -0.0047382 -0.0084911 -0.018874 0.0061313 -0.0039366 -0.0028275 0.001526 -0.0053214 -0.0084879 0.0019046 0.03108 -0.010877 0.011525 0.008473 0.0095206 -0.0059042 -0.0048831 0.002209 0.0031006 0.0040786 0.0090378 -0.0064017 0.0047421 0.0045988 -0.012915 0.0040972 0.018989 0.0054863 -0.015162 -0.0016118 0.0021284 -0.0072734 0.0062593 -0.022543 -0.023672 0.01204 -0.012287 -0.015911 -0.0074213 0.0023543 -0.0026934 -0.0044903 -0.0061949 0.0055091 0.01026 0.0055485 -0.0058609 0.019106 0.018147 0.01012 0.018525 -0.0025392 -0.0063475 0.0026884 0.014649 -0.018826 -0.015256 0.023304 -0.01719 0.0034402 0.016847 -0.021954 -0.010179 -0.0036445 0.019445 0.011637 -0.001137 0.0043145 -0.0040545 0.0056273 0.0068076 -0.00093113 0.00041081 -0.0067632 -0.022144 -0.013724 0.0034554 0.009209 -0.0015378 0.0061599 0.015088 -1.4908e-05 0.0072269 -0.014868 -0.0049629 9.0235e-05 -0.021111 -0.018299 -0.029422 -0.0072066 0.0062569 0.026018 -0.002288 -0.013633 0.020089 0.027845 0.0091157 0.0069967 0.0024955 -0.011584 0.00042794 0.019443 -0.016276 -0.011751 0.013047 -0.0030118 -0.0030944 -0.024717 0.044873 0.00079631 0.013421 -0.01379 0.013679 0.021981 -0.0041784 -0.018004 -0.02884 -0.028732 0.020592 0.022779 0.0021432 -0.00082572 0.012502 -0.0078274 0.0051837 -0.02027 -0.0041091 -0.023822 0.00092786 0.031533 -0.00068074 -0.018434 -0.0062802 -0.024568 0.026945 -0.013897 -0.032431 0.013951 -0.029013 -0.0076063 0.0011183 0.012902 0.0022643 -0.0025214 0.002654 0.018606 -0.0082457 -0.016857 -0.027453 0.025184 
virágzik -0.0033498 0.0072842 0.024061 0.0097762 0.019333 -0.0030876 0.011331 -0.0089682 -0.0017222 -0.0066964 0.0038608 -0.02371 0.032903 -0.0070622 0.0096291 0.023361 -0.0092535 -0.022119 0.0074258 0.032529 -0.020138 -0.014004 -0.015343 0.0067009 -0.0023085 -0.0036436 -0.0034414 0.011146 0.02399 -0.0057419 -0.0084107 0.0004937 -0.0034794 -0.0039509 0.025202 0.014089 0.0086598 -0.0072934 -0.025287 -0.030292 0.011233 0.0092815 -0.031558 -0.018372 0.0057838 -0.021782 0.010719 -0.00049957 0.014744 0.015211 0.0068661 0.0065891 -0.011199 0.0061378 0.020898 0.00061103 -0.016534 -0.027748 0.015895 0.00050914 0.0092712 0.0016248 -0.012362 -0.0020726 0.02121 0.015595 -0.0039637 0.0066391 -0.0021552 -0.011928 -0.0094509 -0.017338 0.0045136 0.0048384 -0.0011682 -0.0089785 -0.012232 0.001659 0.0011087 -0.014078 -0.01014 0.0084874 0.016506 -0.0092852 0.026143 -0.0093355 0.013826 0.01201 -0.048729 -0.017598 0.005702 -0.0028224 0.0018564 0.010541 0.024802 -0.017006 -0.014959 0.0028885 -0.013943 -0.0021772 -0.013805 -0.0066364 -0.011175 -0.01269 0.0048328 0.011846 -0.028924 0.012323 0.0051292 0.00070154 -0.021273 -0.015093 0.0034153 -0.0094779 -0.016606 0.013323 -0.0030583 -0.00025138 -0.010702 0.0022038 -4.9749e-05 -0.023683 0.0076997 0.017921 0.017565 -0.011182 -0.01634 0.028457 0.014316 0.0087989 0.0072143 0.012423 -0.017205 1.8139e-05 -0.034509 0.018183 -0.0064701 -0.011128 -0.014122 0.038335 -0.0008821 -0.0016019 -0.0085479 0.01476 -0.0039156 -0.0083222 -0.0066341 0.027356 -0.0035267 0.013929 -0.013097 0.016241 0.010174 -0.010533 -0.00088789 0.010494 -0.0099068 0.0060755 -0.029916 -0.0040368 0.0054247 -0.0027675 -0.01177 -0.01479 0.0079202 0.015702 0.014519 -0.019319 -0.02165 0.0023616 0.021187 -0.0039813 -0.00035384 -0.013593 -0.023702 0.036551 0.004929 -0.025192 -0.0025265 0.0029758 -0.00087928 0.02637 0.0053127 -0.013297 0.012742 -3.394e-06 0.011335 0.0080025 0.024398 0.012512 0.0063691 -0.0071851 -0.024745 0.037321 0.013854 -0.020039 -0.018774 -0.0034721 0.0011958 0.031975 -0.014222 -0.010764 -0.008907 -0.01969 0.0082527 0.026149 -0.0085927 0.00011341 -0.012849 -0.02304 0.0088514 0.026481 0.0034424 -0.0023944 0.01767 0.030106 0.0048976 -0.020842 0.01547 -0.01935 -0.011204 0.013399 0.0052137 -0.038751 0.0049274 -0.011796 -0.0046429 -0.0028782 -0.019421 0.021636 0.015045 -0.0024342 0.011704 -0.018567 -0.0035648 -0.0044137 -0.0030369 0.0093578 -0.015446 -0.0063703 0.040795 0.0031983 0.011019 0.0056339 0.031445 -0.0014022 -0.0093075 -0.01605 -0.0091471 0.02102 0.0079209 0.0024795 -0.012929 0.011139 -0.019026 -0.02672 0.0063011 -0.021217 -0.027188 0.01994 0.0045195 -0.021157 -0.032173 0.00083925 0.013459 0.019629 -0.00074857 0.0044577 0.010127 -0.0019546 -0.017462 -0.013889 0.014259 0.038427 0.0044522 0.0016624 -0.012194 0.0032201 -0.01601 -0.0093085 -0.001571 -0.012721 0.043474 -0.025519 -0.018493 0.0116 0.0017038 0.0042236 -0.0033474 -0.017104 0.023352 -0.0096138 -0.010635 -0.028477 0.017538 -0.0037719 -0.014747 0.0048217 -0.0060476 0.0015675 -0.0060743 0.0034366 -0.0052428 -0.025454 0.01054 0.008419 0.0079914 -0.00042664 0.0039433 0.0053702 -0.0040075 0.033954 -0.025679 0.0017747 -0.032081 -0.0035909 0.011966 -0.014537 0.018549 0.022893 0.0087406 -0.00061235 0.027935 -0.012524 -0.021921 0.023545 -0.010148 0.00057865 0.0021261 0.017965 -0.0092457 -0.02689 -0.018285 -0.0038231 0.0094616 0.020832 0.010136 -0.00083387 -0.00035256 0.01506 -0.014281 0.0060997 -0.01597 0.014202 0.0099049 -0.023164 -0.014824 0.0089175 -0.0017938 -0.021663 0.0076735 -0.0073448 0.0087631 -0.02181 0.018204 1.0372e-05 -0.018863 -0.011776 -0.019923 0.0054335 -0.0038099 -0.0045486 -0.0098893 -0.025188 -0.0054162 -0.002381 -0.0039209 -0.0025022 -0.01462 0.017635 0.022325 -0.0036957 0.026402 -0.018392 -0.0086665 0.0023797 -0.0012825 0.0016108 -0.0051879 -0.010675 -0.016388 0.00095259 -0.015505 -0.016186 0.033372 -0.021615 -0.012515 0.014233 0.01595 -0.0016795 -0.008224 0.017889 -0.010546 -0.01603 -0.0015231 0.038735 -0.025175 0.0035465 -0.031324 0.0016732 0.0035341 -0.021234 0.010095 -0.014005 0.0097185 -0.0011849 0.017124 0.0083935 -0.001361 -0.013723 -0.012757 -0.0073463 -0.013616 0.0072184 0.013076 -0.010232 0.0049915 0.02176 0.014719 0.01267 -0.0141 -0.022674 0.0040294 0.01045 0.00802 0.034538 0.0085205 0.011953 0.0089216 -0.017074 0.0030064 -0.0033962 -0.021498 -0.012687 0.013681 0.0026438 -0.014988 0.010942 -0.0051227 0.0098586 0.0083758 0.014811 0.018385 -0.034026 -0.0028751 0.010175 -0.010107 -0.025077 -0.0086058 -0.0027302 0.0071225 -0.019907 0.0046277 -0.0075396 -0.0048212 -0.0032359 -0.0044721 0.0092812 -0.010682 0.043533 -0.011511 0.007852 -0.017915 -0.0031235 -0.0088167 -0.0086244 -0.019549 0.010622 0.0033231 -0.031199 0.0029232 0.0075646 0.00079975 -0.010044 0.028391 -0.028899 0.0093379 0.01288 0.00036315 0.0033134 0.0036517 -9.5234e-05 0.00036083 0.0089813 0.0056143 -0.011422 0.019846 0.017723 0.0086682 -0.020896 0.0097371 0.012015 0.010296 0.014084 -0.022132 -0.0065366 -0.010559 -0.027558 0.0010539 -0.013904 0.0019467 0.0070059 -0.0041999 0.021594 -0.0036767 0.013058 0.0073876 -0.013396 -0.0035764 0.0092654 0.015263 -0.0064494 -0.0026398 0.0015095 0.0045674 0.016435 0.00262 -0.0042652 -0.0099366 -0.0020414 0.0049008 -0.014226 0.0032408 0.0085487 0.005363 -0.014298 -0.0072603 0.018097 0.005739 0.0060693 0.0021685 -0.01473 -0.010867 0.0087303 0.0016707 -0.040191 0.00044648 -0.02586 0.00091345 -0.0083308 -0.0014501 -0.0018756 -0.011318 0.025115 0.0059514 0.0035738 -0.0028146 -0.015921 0.020129 -0.0023847 0.024629 -0.013424 -0.0087481 0.0063282 0.019771 0.024903 -0.00048822 -0.010759 0.0024057 0.014446 -0.0043468 0.017556 0.0061525 -0.0080579 -0.0011011 -0.012327 0.016117 -0.0028715 -0.0012913 0.015225 -0.013454 0.0019875 -0.0040137 -0.0029275 0.013848 0.00038912 -0.02026 -0.0070624 -0.010536 0.018338 -0.0082283 0.0012828 0.015598 -0.001314 0.0020837 0.02342 0.0020658 -0.0097765 0.022958 0.020954 0.026371 0.026587 -0.016675 0.0072828 0.00351 0.0051675 0.0035158 -0.010427 -0.0079378 0.00070622 -0.024897 0.022654 0.0039752 0.012838 0.0084614 0.012122 -0.016707 -0.011598 0.01067 0.0059912 -0.035166 0.0011734 8.1215e-05 -0.0092266 -0.023247 -0.0051311 0.0097479 0.0090311 0.0056176 0.0081198 0.016863 -0.018034 -0.0011523 -0.012758 0.013234 0.0058765 0.0085986 -0.034176 0.0021468 0.017726 -0.017053 -0.0077961 -0.010786 -0.01531 0.00065139 -0.0037402 0.002795 -0.011549 0.01194 -0.0091293 -0.029921 0.0037314 -0.019858 0.011927 -0.032441 -0.004572 -0.01236 0.0015394 0.0040453 0.017109 0.015883 0.024899 0.0087496 0.0021219 -0.026906 0.0084018 0.0056806 -0.025891 0.014621 0.012164 -0.011433 0.040246 -0.010347 0.0076212 0.0082555 -0.014804 -0.011794 -0.008804 0.027263 -0.018899 0.013248 0.02158 -0.015619 -0.018353 0.004316 -0.0070941 0.018558 0.00076741 -0.012456 0.0002211 0.015965 -0.010957 -0.011769 -0.018546 0.009202 -0.026875 -0.024334 -0.0019908 0.005065 -0.0052624 -0.0043358 0.014509 0.0095197 -0.010806 -0.010684 -0.010687 -0.025635 -0.015086 0.0098407 0.033048 -0.0019959 0.024312 0.0098593 -0.013354 -0.0022656 0.01094 0.00061364 0.014756 -0.022715 -0.024418 0.0024511 -0.010584 0.010912 -0.00052401 -0.00096979 0.010641 0.0041628 0.010898 -0.026418 0.022128 -0.02163 0.0055318 -0.0076739 0.014126 0.015511 -0.008583 0.0022281 -0.013107 -0.0034039 -0.013155 -0.016815 -0.02034 -0.0019599 -0.0011554 -0.023065 -0.012893 0.018133 -0.0090677 -0.015013 0.012741 -0.01586 -0.0027762 -0.011866 0.013803 -0.0091682 -0.02987 -0.0081166 0.018002 -0.0077041 -0.0085327 -0.00047664 -0.014322 -0.0079796 0.0090475 -0.0039558 -0.001667 -0.0036634 0.0079532 0.008485 -0.0046222 -0.0074739 0.017461 0.014321 -0.0040642 -0.0016998 -0.0046292 -0.0126 0.021622 0.022627 0.0084333 -0.011948 -0.012712 0.016546 -0.0066629 0.017483 -0.041675 0.0031216 0.016176 -0.0036377 -0.01319 -0.041694 -0.0083553 -0.013883 -0.02225 -0.0021859 0.005 -0.012384 -0.0045004 0.024499 -0.0026469 -0.0064217 0.008517 -0.045036 0.021946 0.019331 -0.012801 0.0014075 0.011851 -0.028097 0.0028683 0.021549 -0.0061265 -0.0024919 0.0012002 -0.0059694 -0.0021853 -0.0031588 -0.021087 0.026432 0.00063221 0.022019 -0.037142 0.027081 -0.010368 0.0030688 -0.0093455 -0.0045991 0.012038 -0.015809 -0.0046022 0.0038073 0.0078763 0.01386 -0.0036647 0.01494 -0.018269 0.0078219 0.0107 -0.012502 0.0059364 0.013432 -0.0003965 -0.012951 -0.0041782 0.0042894 -0.010046 -0.013828 -0.0087784 -0.0089173 0.0029137 0.004853 0.0011834 0.0014258 0.013617 -0.0066132 0.003856 0.0047589 -0.0047248 -0.0085582 -0.018213 0.0059795 -0.0036723 -0.0029914 0.0014029 -0.0050926 -0.0083118 0.0018558 0.03046 -0.010497 0.011249 0.0080873 0.0094026 -0.0059107 -0.0047456 0.0020076 0.0032415 0.0040224 0.0089569 -0.0060823 0.0046435 0.0045407 -0.012601 0.0040598 0.018603 0.0056754 -0.014669 -0.001419 0.0017724 -0.0070421 0.0059523 -0.021837 -0.022807 0.011601 -0.01204 -0.015628 -0.0071183 0.0021703 -0.0026642 -0.0041815 -0.0061675 0.0055255 0.0098717 0.0053673 -0.0055586 0.018319 0.017733 0.0099521 0.018134 -0.002484 -0.0063162 0.0026258 0.014216 -0.018595 -0.015007 0.022549 -0.016581 0.0033822 0.016539 -0.021165 -0.0098874 -0.0036246 0.019038 0.011523 -0.0009014 0.0042276 -0.0040212 0.0053576 0.0065427 -0.00073457 0.00063248 -0.0063988 -0.021546 -0.013656 0.0032631 0.0088875 -0.0013565 0.0060237 0.014615 0.00015741 0.0069819 -0.014605 -0.0047391 -0.00013869 -0.020288 -0.017254 -0.027997 -0.0065374 0.0059239 0.025015 -0.0020645 -0.013156 0.019315 0.026848 0.0085631 0.0068662 0.0020558 -0.011262 0.00023153 0.018755 -0.015585 -0.011313 0.012722 -0.0032602 -0.0030972 -0.023769 0.043465 0.00076287 0.012947 -0.013318 0.013445 0.020859 -0.0040121 -0.017306 -0.027455 -0.027691 0.019892 0.021883 0.0019627 -0.00079713 0.011993 -0.0074095 0.005247 -0.019544 -0.0041265 -0.022726 0.00071274 0.030129 -0.00057303 -0.017683 -0.0062228 -0.023764 0.02583 -0.013086 -0.030838 0.013452 -0.027979 -0.0075629 0.0010283 0.01258 0.002219 -0.0024667 0.0026248 0.018053 -0.0079605 -0.016363 -0.026383 0.024468 
porzik -0.0041025 0.0086958 0.028543 0.011539 0.022899 -0.0039382 0.01295 -0.010617 -0.0022513 -0.0078349 0.0045029 -0.027639 0.038585 -0.0083927 0.011116 0.027159 -0.010847 -0.026049 0.0086177 0.038058 -0.023712 -0.016375 -0.018139 0.0078406 -0.002696 -0.0045119 -0.0039143 0.013138 0.028004 -0.0068779 -0.010024 0.0006792 -0.0041143 -0.004613 0.02969 0.016582 0.01018 -0.0085492 -0.029724 -0.03575 0.013249 0.010973 -0.037152 -0.021784 0.0068465 -0.02584 0.012941 -0.00065776 0.017301 0.018199 0.008131 0.0077248 -0.013322 0.0073818 0.024684 0.0010375 -0.019492 -0.033167 0.018943 0.00069409 0.010832 0.0019012 -0.014419 -0.0018851 0.024938 0.018364 -0.0044387 0.0075672 -0.0024131 -0.013964 -0.01136 -0.020631 0.0050829 0.0054823 -0.0014768 -0.010331 -0.014517 0.0020138 0.0015608 -0.016947 -0.011942 0.010117 0.019439 -0.010995 0.031207 -0.010825 0.016403 0.014368 -0.057829 -0.020754 0.0066192 -0.0033711 0.0020973 0.012625 0.029379 -0.020196 -0.017971 0.0033588 -0.016716 -0.002794 -0.016561 -0.008039 -0.013371 -0.015113 0.0060608 0.014352 -0.034454 0.015168 0.005946 0.0011351 -0.025297 -0.017912 0.0042447 -0.011397 -0.020016 0.015762 -0.0040846 -1.2451e-05 -0.012774 0.002379 9.0841e-06 -0.028232 0.0091755 0.021349 0.020785 -0.013512 -0.019473 0.034012 0.017144 0.010739 0.0088964 0.014816 -0.02045 -0.00051412 -0.041116 0.021936 -0.0076134 -0.013235 -0.01724 0.045425 -0.0010928 -0.001946 -0.010257 0.017768 -0.0047379 -0.0099192 -0.00799 0.032464 -0.0043139 0.016091 -0.015529 0.019218 0.012249 -0.0124 -0.0010704 0.01265 -0.011678 0.0074429 -0.035286 -0.0051049 0.0068138 -0.0031828 -0.013632 -0.017925 0.0096259 0.018777 0.017104 -0.022981 -0.025822 0.0029172 0.025338 -0.0046106 -8.9096e-05 -0.016331 -0.028283 0.04323 0.0057128 -0.029716 -0.0028239 0.0038705 -0.0010374 0.031371 0.0063718 -0.016 0.01523 0.00010224 0.013636 0.0095435 0.028901 0.014776 0.0075891 -0.0080703 -0.029467 0.044772 0.016463 -0.024122 -0.0225 -0.0042059 0.001367 0.038365 -0.016749 -0.01299 -0.01049 -0.023348 0.0097986 0.031546 -0.010199 9.7968e-05 -0.015441 -0.027692 0.010533 0.031315 0.0041573 -0.0029202 0.020971 0.035918 0.005907 -0.025158 0.018636 -0.02313 -0.013367 0.016 0.0062144 -0.046417 0.0056227 -0.014411 -0.0054076 -0.0034335 -0.023177 0.025422 0.017626 -0.0029376 0.013959 -0.02195 -0.0039855 -0.0051477 -0.0037623 0.011028 -0.018537 -0.0077178 0.048437 0.0036311 0.012921 0.0066033 0.037302 -0.0018577 -0.011054 -0.019141 -0.011081 0.02506 0.0094597 0.0028221 -0.015457 0.013204 -0.022978 -0.031681 0.0078661 -0.025016 -0.032341 0.024093 0.0053508 -0.025364 -0.038364 0.00091913 0.016136 0.023122 -0.0012846 0.0053279 0.011822 -0.0022644 -0.020858 -0.016604 0.01715 0.046026 0.0054524 0.00194 -0.014254 0.0040082 -0.019167 -0.011213 -0.0016025 -0.015175 0.052166 -0.030351 -0.021898 0.013911 0.0019371 0.0049673 -0.0038276 -0.020095 0.02777 -0.011362 -0.012815 -0.033898 0.020757 -0.0047684 -0.017568 0.0057068 -0.0073237 0.0019335 -0.0070128 0.0042063 -0.0062073 -0.030257 0.012283 0.0098431 0.0096468 -0.00070553 0.004525 0.0062292 -0.0051222 0.040503 -0.03037 0.0020954 -0.038116 -0.0044002 0.014385 -0.017147 0.022229 0.027027 0.01041 -0.0010268 0.033384 -0.01473 -0.026131 0.028 -0.012158 0.00091922 0.0024402 0.021525 -0.011122 -0.032207 -0.021709 -0.0045063 0.011265 0.024642 0.012111 -0.00096752 -0.00050662 0.017842 -0.017417 0.0074948 -0.018864 0.016835 0.011777 -0.027651 -0.017571 0.010861 -0.0022284 -0.025869 0.0091186 -0.0088431 0.010681 -0.026454 0.022086 -1.261e-05 -0.022485 -0.014271 -0.024055 0.0063389 -0.0042989 -0.0055551 -0.011951 -0.030135 -0.006697 -0.0030633 -0.004687 -0.0027645 -0.017431 0.021227 0.026706 -0.0043416 0.031584 -0.021877 -0.010234 0.0025519 -0.0013749 0.0018009 -0.0062192 -0.012862 -0.019841 0.0011268 -0.018558 -0.019034 0.039751 -0.025737 -0.015058 0.017117 0.019097 -0.0018727 -0.0096417 0.021238 -0.012832 -0.019032 -0.0019553 0.046273 -0.029933 0.0041988 -0.037608 0.0016279 0.0042713 -0.024982 0.011942 -0.016516 0.011514 -0.0010386 0.020326 0.010078 -0.0016191 -0.016286 -0.014957 -0.0089434 -0.016339 0.0083497 0.015804 -0.012072 0.0063191 0.025813 0.017277 0.015017 -0.016283 -0.026906 0.0049037 0.012347 0.0096215 0.040742 0.010228 0.014207 0.010777 -0.020043 0.0038673 -0.0037347 -0.025562 -0.014998 0.016026 0.0029632 -0.018035 0.012799 -0.0063847 0.011496 0.010139 0.017693 0.021897 -0.040356 -0.0032737 0.012113 -0.01212 -0.029715 -0.010357 -0.0032609 0.0087822 -0.02346 0.0051165 -0.0088052 -0.0056721 -0.0037732 -0.005353 0.010817 -0.012667 0.051827 -0.013293 0.0092244 -0.021367 -0.0036334 -0.010619 -0.010338 -0.023151 0.012386 0.0038597 -0.036761 0.0031266 0.0090213 0.0012567 -0.011543 0.033426 -0.034393 0.011247 0.015388 0.00022257 0.003771 0.0045041 -8.2822e-05 0.00048105 0.010677 0.006148 -0.013668 0.023672 0.020871 0.01038 -0.02498 0.011611 0.014088 0.012206 0.016562 -0.0263 -0.0080571 -0.01259 -0.032497 0.0012195 -0.016415 0.002331 0.0085475 -0.0049788 0.025638 -0.0045121 0.015167 0.0084746 -0.01608 -0.0040703 0.010844 0.017955 -0.0077133 -0.0032466 0.001685 0.0055685 0.019607 0.0030426 -0.0048928 -0.011704 -0.0022181 0.0055414 -0.016859 0.0038419 0.010066 0.006005 -0.017039 -0.008689 0.021358 0.006688 0.0072296 0.00227 -0.017438 -0.012645 0.010465 0.0017734 -0.047799 0.00029341 -0.0309 0.0008276 -0.0098427 -0.0017122 -0.0022606 -0.013534 0.029678 0.0072985 0.0042497 -0.0034547 -0.018923 0.023986 -0.0029314 0.029272 -0.016234 -0.010677 0.0077772 0.02365 0.030123 -0.00033303 -0.012815 0.0029156 0.017116 -0.0055411 0.020802 0.007367 -0.0097843 -0.001366 -0.014774 0.01904 -0.0034599 -0.0016693 0.018242 -0.015923 0.0022928 -0.0045023 -0.003721 0.01647 0.00030619 -0.024342 -0.0084138 -0.012576 0.021694 -0.0097013 0.0013775 0.0186 -0.001376 0.0024354 0.028151 0.002552 -0.011665 0.027424 0.024792 0.031186 0.031801 -0.019703 0.0089313 0.0041065 0.0059469 0.0040268 -0.012254 -0.0095834 0.00062801 -0.029531 0.027046 0.0048581 0.015277 0.010152 0.014694 -0.019842 -0.014227 0.012271 0.006989 -0.041554 0.0012244 0.00026 -0.01109 -0.027659 -0.0058515 0.011261 0.010973 0.0067415 0.0096026 0.020133 -0.021572 -0.0014547 -0.015276 0.015975 0.0071967 0.010407 -0.040871 0.0023261 0.021159 -0.020267 -0.0090608 -0.013139 -0.018179 0.00087033 -0.0045436 0.0034031 -0.013935 0.014167 -0.010768 -0.035436 0.004424 -0.023742 0.014501 -0.038655 -0.0054907 -0.014637 0.0019821 0.005042 0.020476 0.018745 0.029656 0.010441 0.0025137 -0.03218 0.010265 0.0066474 -0.0308 0.017489 0.014614 -0.013525 0.048132 -0.012407 0.0094318 0.0098205 -0.017905 -0.014426 -0.010821 0.032596 -0.022406 0.015409 0.025796 -0.018866 -0.021785 0.0050689 -0.0082973 0.022202 0.00082788 -0.014823 -2.0629e-05 0.019213 -0.013139 -0.014447 -0.022428 0.011218 -0.032237 -0.029111 -0.002232 0.0062852 -0.0063074 -0.005348 0.017425 0.011348 -0.013319 -0.012728 -0.0131 -0.031017 -0.017982 0.011684 0.039871 -0.0026893 0.029467 0.011877 -0.015948 -0.0025775 0.013243 0.00084797 0.017832 -0.027536 -0.029396 0.0030858 -0.012541 0.013239 -0.00072561 -0.0010529 0.01306 0.0048784 0.013138 -0.031886 0.026559 -0.026274 0.0065883 -0.0092863 0.017119 0.018546 -0.010905 0.0024874 -0.015755 -0.003811 -0.016084 -0.0206 -0.024574 -0.0021578 -0.0011689 -0.027865 -0.015163 0.022053 -0.01129 -0.018487 0.015348 -0.01949 -0.0033126 -0.014229 0.016504 -0.010877 -0.035985 -0.009718 0.021681 -0.0095825 -0.010499 -0.00048653 -0.017448 -0.009611 0.010999 -0.0047633 -0.0019851 -0.0043855 0.0093815 0.010343 -0.0056806 -0.0089999 0.021128 0.017194 -0.0048787 -0.0020029 -0.0053038 -0.015177 0.026114 0.027477 0.010175 -0.014216 -0.015407 0.020335 -0.0078472 0.021039 -0.049904 0.0037469 0.019235 -0.0045077 -0.015942 -0.050237 -0.010156 -0.016689 -0.026696 -0.0022528 0.0063424 -0.014956 -0.0054452 0.029791 -0.0033272 -0.007909 0.010363 -0.053792 0.026317 0.023305 -0.015279 0.0017568 0.014222 -0.033595 0.0032678 0.025635 -0.0074797 -0.0029469 0.0012468 -0.0070651 -0.0024934 -0.0038267 -0.025323 0.031615 0.00062498 0.026374 -0.044483 0.032302 -0.012376 0.0038064 -0.011315 -0.0055145 0.014437 -0.018896 -0.0055092 0.0045188 0.00931 0.017 -0.0042223 0.017785 -0.02194 0.0093454 0.012726 -0.01508 0.0071467 0.016168 -0.00056299 -0.015521 -0.0052024 0.0048756 -0.012199 -0.016836 -0.010733 -0.010728 0.003589 0.0059233 0.0016112 0.0016035 0.016461 -0.0078355 0.004741 0.0058951 -0.0056878 -0.0099598 -0.021977 0.0071372 -0.0046018 -0.0035449 0.0016776 -0.0060235 -0.0099474 0.0020791 0.036562 -0.012805 0.013537 0.009848 0.011121 -0.0068761 -0.0058392 0.0025877 0.0036147 0.0048053 0.010468 -0.007264 0.0056403 0.0054383 -0.01512 0.0045277 0.022557 0.0063007 -0.017588 -0.0019203 0.0021848 -0.0084127 0.007303 -0.026498 -0.027802 0.014189 -0.014684 -0.018818 -0.0085737 0.0028218 -0.0032399 -0.0050462 -0.0071933 0.0064923 0.011671 0.0063675 -0.0068532 0.022028 0.021297 0.012198 0.021814 -0.0028699 -0.0074477 0.0031131 0.017095 -0.022231 -0.017998 0.027129 -0.020113 0.0042315 0.019786 -0.025631 -0.011657 -0.0042901 0.022789 0.013749 -0.00090166 0.0052975 -0.0049586 0.0064644 0.0080713 -0.00069227 0.00062199 -0.0078696 -0.025753 -0.016518 0.0038188 0.01088 -0.0016481 0.007079 0.017753 0.00017876 0.008323 -0.017456 -0.0056994 6.0033e-05 -0.024363 -0.020712 -0.033609 -0.0080881 0.0071582 0.029806 -0.0025334 -0.015833 0.023292 0.032178 0.010445 0.0084026 0.0025928 -0.013466 0.00028442 0.022511 -0.018714 -0.013155 0.015284 -0.0035686 -0.0035404 -0.028724 0.052032 0.0010101 0.015571 -0.015988 0.015722 0.025235 -0.0047205 -0.020548 -0.033111 -0.033014 0.02369 0.026001 0.0025396 -0.0010638 0.01407 -0.008874 0.005998 -0.023274 -0.0048487 -0.027191 0.0012539 0.036336 -0.00089035 -0.021256 -0.0074657 -0.028178 0.031093 -0.016056 -0.037146 0.015975 -0.033462 -0.008704 0.0013131 0.014995 0.002569 -0.0031322 0.0031358 0.021624 -0.0095526 -0.01974 -0.031833 0.029637 
áramlik 0.0046614 -0.010389 -0.033957 -0.013627 -0.027436 0.0044099 -0.015763 0.012552 0.002702 0.0094014 -0.0052154 0.033269 -0.04626 0.0097136 -0.01334 -0.033192 0.012838 0.031162 -0.010006 -0.045597 0.028273 0.019518 0.021839 -0.0094027 0.0033623 0.0053542 0.0047735 -0.015851 -0.033508 0.0080712 0.01192 -0.00058241 0.0049534 0.0052528 -0.034469 -0.019492 -0.011922 0.009857 0.034884 0.042141 -0.015543 -0.012853 0.04311 0.025383 -0.0078796 0.02998 -0.014836 0.00065747 -0.02017 -0.020959 -0.0095394 -0.0088375 0.01526 -0.0085121 -0.028149 -0.0008992 0.022323 0.037951 -0.021516 -0.0010213 -0.012412 -0.0022375 0.016671 0.0022866 -0.028406 -0.020904 0.0052641 -0.0088536 0.0027146 0.01581 0.012847 0.023462 -0.0059564 -0.0063211 0.0016673 0.011937 0.016485 -0.0024683 -0.001773 0.018933 0.013638 -0.011405 -0.022062 0.01227 -0.034783 0.012233 -0.018108 -0.016255 0.063836 0.022937 -0.007239 0.0034404 -0.0025778 -0.013729 -0.032146 0.022093 0.018845 -0.00369 0.017636 0.0028784 0.017436 0.0084608 0.013922 0.016212 -0.006127 -0.015128 0.036754 -0.015778 -0.0065334 -0.0012262 0.026796 0.018953 -0.0046711 0.01241 0.022108 -0.017383 0.0043275 0.00016206 0.013949 -0.0027424 3.9117e-06 0.030741 -0.010182 -0.023184 -0.023045 0.0148 0.021681 -0.037063 -0.018029 -0.011134 -0.0092698 -0.01581 0.021593 0.00027367 0.043531 -0.023246 0.0084065 0.014461 0.018244 -0.049529 0.0011407 0.0020664 0.01126 -0.019074 0.0051278 0.010798 0.0086027 -0.035288 0.0049209 -0.017916 0.016967 -0.021045 -0.013318 0.013678 0.00106 -0.013912 0.012827 -0.008108 0.039109 0.0053506 -0.0074484 0.0033443 0.014746 0.019393 -0.01038 -0.020349 -0.018485 0.024743 0.027779 -0.003022 -0.027215 0.0049044 0.00019628 0.017505 0.030706 -0.04694 -0.0058027 0.031487 0.0031365 -0.0040914 0.0012039 -0.03322 -0.0068099 0.016676 -0.0161 -0.0002129 -0.014227 -0.0097216 -0.030626 -0.015743 -0.0079301 0.0089053 0.029945 -0.045127 -0.016934 0.024306 0.022767 0.0045171 -0.0014841 -0.038831 0.016811 0.013075 0.010765 0.02335 -0.010036 -0.031669 0.010504 -0.0001999 0.016301 0.028622 -0.011234 -0.032921 -0.0043657 0.0032106 -0.022082 -0.037702 -0.0060584 0.026373 -0.019338 0.024333 0.013908 -0.016875 -0.0068087 0.048582 -0.0059578 0.015302 0.0057873 0.0039398 0.024917 -0.027235 -0.018972 0.002915 -0.014873 0.02297 0.0044067 0.0055246 0.0038786 -0.0117 0.01937 0.0083539 -0.051735 -0.0037487 -0.014005 -0.007296 -0.039853 0.0022848 0.011699 0.020389 0.011725 -0.026511 -0.01011 -0.0032026 0.016139 -0.013795 0.024343 0.033874 -0.0076229 0.026246 0.033742 -0.024926 -0.0056541 0.026295 0.039771 -0.0011911 -0.016759 -0.024067 0.0010893 -0.0054807 -0.01256 0.0026111 0.021764 0.017363 -0.017775 -0.047676 -0.0054925 -0.0018557 0.014662 -0.0041276 0.019676 0.011543 0.0015668 0.015637 -0.0537 0.031703 0.022729 -0.014544 -0.0022241 -0.0054046 0.0040805 0.021392 -0.029225 0.012305 0.013149 0.035628 -0.021854 0.004817 0.018374 -0.0060755 0.0074234 -0.0020518 0.0072933 -0.0044422 0.0067466 0.031827 -0.013405 -0.010848 -0.010103 0.00039317 -0.0049243 -0.0066507 0.0053956 -0.043071 0.032351 -0.0022118 0.040176 0.0047951 -0.014781 0.018349 -0.023478 -0.028608 -0.010798 0.00087935 -0.035094 0.015948 0.027982 -0.029665 0.012741 -0.0006658 -0.0024668 -0.022808 0.011861 0.034265 0.023066 0.0046646 -0.011909 -0.02657 -0.013046 0.0010455 0.00084256 -0.019122 0.018238 -0.0076025 0.020102 -0.017814 -0.012699 0.029738 0.018886 -0.011584 0.0025267 0.027413 -0.0097546 0.0095831 -0.010872 0.02716 -0.022738 0.00017168 0.023432 0.014876 0.024727 -0.006707 0.0046318 0.0058153 0.012088 0.031406 0.0070962 0.0029814 0.004873 0.0029964 0.019461 -0.023777 -0.029987 0.0048789 -0.03509 0.024437 0.011397 -0.0032932 0.0017047 -0.0020049 0.0070057 0.014448 0.022025 -0.0012506 0.020575 0.021411 -0.044713 0.028789 0.016822 -0.019244 -0.021361 0.0020013 0.010863 -0.024014 0.014244 0.02107 0.0019484 -0.052099 0.033908 -0.0048337 0.042554 -0.001981 -0.0050195 0.029864 -0.014318 0.019869 -0.013801 0.0014872 -0.024246 -0.012027 0.0019472 0.018891 0.017722 0.010377 0.018967 -0.0097643 -0.018147 0.014077 -0.0070094 -0.029266 -0.019536 -0.017263 0.019159 0.030878 -0.0055548 -0.014074 -0.010984 -0.046958 -0.011784 -0.016273 -0.012403 0.023181 -0.0043896 0.0046149 0.030654 0.018182 -0.019345 -0.0034366 0.021546 -0.015522 0.0075626 -0.013933 -0.012143 -0.021226 -0.026404 0.048659 0.0038582 -0.014548 0.014503 0.035794 0.012216 0.0037677 -0.010327 0.028023 -0.0064932 0.010242 0.0064806 0.0043401 0.0062643 -0.012764 0.014797 -0.061311 0.015673 -0.010863 0.025225 0.0041843 0.012845 0.01248 0.027968 -0.015158 -0.0046872 0.044444 -0.0037943 -0.010965 -0.001429 0.01441 -0.040407 0.041586 -0.01372 -0.018509 -0.0005992 -0.0044925 -0.0050284 0.0002558 -0.00069666 -0.012529 -0.0075477 0.016472 -0.027832 -0.024607 -0.012159 0.029379 -0.013651 -0.016749 -0.014349 -0.01977 0.031424 0.009606 0.015103 0.039342 -0.0014802 0.020062 -0.0027455 -0.010292 0.0061397 -0.031118 0.005473 -0.018458 -0.010191 0.019257 0.0050679 -0.013074 -0.021489 0.0090851 0.0035995 -0.0021313 -0.0063959 -0.02296 -0.0034507 0.0059493 0.01386 0.0030618 -0.0066955 0.019648 -0.0045657 -0.011622 -0.0073293 0.019941 0.0099632 -0.025138 -0.0077521 -0.0081389 -0.00281 0.020714 0.014863 -0.012048 -0.00242 0.056004 -0.00023399 0.036079 -0.0012932 0.011457 0.0021038 0.0025082 0.015709 -0.03513 -0.0085741 -0.0048274 0.0040575 0.022248 -0.028049 0.0035078 -0.034544 0.018896 0.012335 -0.0093225 -0.027444 -0.035151 0.00019237 0.015362 -0.00342 -0.020351 0.0063281 -0.024629 -0.008646 0.011611 0.0015875 0.017415 -0.022549 0.0039207 0.0015369 -0.021538 0.019017 -0.0029499 0.0054635 0.0044848 -0.019567 -0.00072468 0.02845 0.0098607 0.014805 -0.025513 0.011692 -0.0020301 -0.021876 0.0015802 -0.0029149 -0.033036 -0.0030579 0.014237 -0.032182 -0.029351 -0.037026 -0.037692 0.02371 -0.010516 -0.0050595 -0.0072197 -0.0047283 0.014813 0.011354 -0.0010607 0.035329 -0.032257 -0.0057127 -0.018297 -0.012027 -0.017248 0.023536 0.016781 -0.014393 -0.0084759 0.049242 -0.0014589 -0.00030097 0.012604 0.032189 0.007048 -0.012999 -0.012182 -0.0076811 -0.011307 -0.022917 0.024754 0.0014899 0.017306 -0.018459 -0.0083476 -0.011757 0.046847 -0.002656 -0.024098 0.023172 0.010307 0.015317 0.021409 -0.00092131 0.0050595 -0.0039585 0.016131 -0.016601 0.012669 0.041549 -0.005264 0.027855 -0.016661 0.045089 0.0064486 0.017235 -0.0020552 -0.0056838 -0.023758 -0.022562 -0.035178 -0.012244 -0.0028795 0.037681 -0.01197 -0.0084357 0.037474 -0.021148 -0.017647 0.016747 -0.05857 0.014842 -0.011361 -0.012254 0.021801 0.017337 0.013018 -0.039737 0.027393 -0.018983 -0.031374 0.02198 0.025208 -0.0060756 0.0097984 -0.025411 -0.00090228 0.017119 -0.00024914 -0.022307 0.01517 0.016522 0.025959 -0.012976 0.037327 0.034163 0.0024488 -0.0067813 0.0070047 0.0060283 -0.019356 -0.012311 0.014604 0.014058 0.014608 0.034677 0.019998 -0.013265 -0.044612 0.0028828 -0.032515 -0.013077 0.018094 0.0028592 -0.015164 -0.00078092 -0.02002 0.031326 0.03342 -0.0031294 0.014164 -0.015217 0.00090237 0.0009454 -0.015102 -0.0057159 -0.014806 0.035998 -0.030361 0.029141 -0.0075422 0.010582 -0.018902 -0.020789 0.011757 -0.0027023 0.017511 0.0045479 0.017803 0.022913 0.02743 0.0023613 0.0016534 0.03088 0.017166 -0.024015 0.012265 0.019904 -0.016515 0.02079 0.0037169 0.015597 -0.018173 0.011779 0.039204 0.01061 -0.023923 0.010161 0.011409 0.00047807 0.01877 0.010717 -0.01245 0.005333 0.0023659 0.0050599 -0.010355 -0.011414 0.0063313 0.010153 -0.02394 -0.019336 0.0053156 0.0022922 0.0060634 0.017319 -0.029535 -0.030785 -0.01137 0.016292 0.016992 -0.022373 0.0089766 -0.023492 0.056227 -0.0045754 -0.022004 0.0051778 0.017979 0.056926 0.011487 0.018822 0.030456 0.0027306 -0.0071421 0.017153 0.0058992 -0.033659 0.0035401 0.0088275 -0.011625 0.062325 -0.030376 -0.026759 0.017589 -0.0019615 -0.016189 0.038728 -0.0038756 -0.030268 0.009047 0.0034456 -0.0016319 0.0083285 0.0030414 0.0047621 0.029727 -0.037322 -0.00096373 -0.030954 0.051964 -0.037853 0.014362 -0.0043309 0.013381 0.0059464 -0.016088 0.021513 0.00604 -0.005139 -0.010666 -0.019205 0.0050212 -0.020212 0.024711 -0.010658 -0.014325 0.017169 -0.0079306 -0.018309 0.00047171 0.017229 0.0056154 -0.0053299 0.013483 0.018991 0.012045 0.012199 -0.0041781 -0.0062365 -0.0018576 -0.0021306 -0.018388 0.0085027 -0.0050324 -0.0065923 0.0065079 0.011824 0.026018 -0.0087484 0.0056613 0.0042472 -0.0020409 0.0074184 0.011884 -0.0025572 -0.042022 0.014829 -0.015266 -0.011137 -0.012689 0.008107 0.0067658 -0.0028188 -0.0041209 -0.0054468 -0.012245 0.0086298 -0.0063463 -0.0061196 0.017632 -0.0053741 -0.025039 -0.0073678 0.01988 0.0022219 -0.0025925 0.0097235 -0.0081447 0.02959 0.031046 -0.016015 0.016399 0.020773 0.0096288 -0.0028796 0.0035896 0.0058544 0.0082779 -0.0072139 -0.013401 -0.0072671 0.0077787 -0.025444 -0.024385 -0.013727 -0.025037 0.0037716 0.0087002 -0.0035115 -0.019146 0.025271 0.020355 -0.03081 0.022647 -0.0045494 -0.022267 0.028554 0.013443 0.0048797 -0.025911 -0.015203 0.00086881 -0.0054512 0.0053557 -0.0070878 -0.0087988 0.00086801 -0.00093362 0.008796 0.028362 0.018014 -0.0043914 -0.011789 0.0016494 -0.0078461 -0.019295 -0.00018579 -0.0091933 0.01896 0.0065215 -0.00013134 0.02654 0.022884 0.036545 0.0088642 -0.0080219 -0.032506 0.0027621 0.017213 -0.025584 -0.03524 -0.011158 -0.0087231 -0.0029994 0.014473 -0.00050939 -0.024373 0.02044 0.014596 -0.016727 0.0039974 0.0036411 0.03126 -0.057253 -0.00099289 -0.017355 0.017406 -0.017577 -0.028538 0.005463 0.023485 0.037674 0.037822 -0.027068 -0.029729 -0.0026556 0.0010434 -0.016174 0.0099987 -0.0065998 0.026428 0.0053144 0.031015 -0.00083182 -0.040847 0.0010043 0.023709 0.008654 0.032092 -0.035091 0.01796 0.041754 -0.018187 0.037642 0.010097 -0.0013488 -0.016576 -0.0031504 0.0033479 -0.0036171 -0.022729 0.010092 0.020948 0.034862 -0.032015 
